-0.00259093 0.0160159 -0.0149896 0.00174768 0.00119264 -0.00302023 0.00458181 0.00188985 0.00394975 -0.0236984 0.000441968 -0.00664492 -0.00636256 -0.00171248 0.0173126 -0.00764852 0.00703151 0.0014535 0.000936702 0.0120412 0.00261021 -0.0069196 0.0168143 -0.00702026 0.00175199 0.00274173 -0.00863064 0.0118623 0.0131654 0.00681032 0.00942564 0.00828367 -0.00589718 0.00209104 0.00860456 0.00294421 -0.00466873 -0.0166878 -0.00131742 0.0157662 -0.00791712 -0.00922316 -0.010473 -0.00441963 0.00955371 -0.000323921 0.000102804 0.00919759 -0.0200411 0.00180425 -4.06748e-05 0.00328624 -0.00421684 -0.00240951 -0.0241841 0.000147597 0.00437689 -0.00235778 -0.0236553 0.0197919 0.00767131 0.00742458 -0.000997097 0.000872492 0.00330197 0.00939695 0.00906232 0.00947846 -0.0075759 -0.0104273 0.00196687 -0.0218711 0.0111955 0.00294854 0.0114478 -0.00280847 -0.00566022 -0.0158177 -0.0198578 0.0230897 -0.00849881 -0.005622 0.00238523 -0.0115269 -0.00144153 0.0326738 0.00964104 0.0013468 0.0105803 0.00386196 -0.00439269 -0.00520294 -0.00683834 0.00402777 -0.00247104 -0.00450232 -0.00517197 -0.00900382 0.00385353 0.008843 0.00529416 -0.00805779 -0.0142856 -0.014636 -0.0114931 8.07446e-05 0.0113115 0.00284978 0.00534473 0.00105752 -0.0114965 0.00183454 -0.000475864 0.00252087 0.00200894 -0.0110875 -0.000772877 -0.0167222 0.00556777 -0.000434082 -0.00253397 -0.00311943 0.0109322 -0.0137284 0.00480328 -0.00756012 0.0131635 0.00602444 -0.000377213 -0.0150731 -0.0111871 -0.00334427 -0.00977886 -0.00187029 -0.00110789 0.00595245 -0.0019531 -0.00622133 -0.00589057 -0.00398649 -0.00232575 0.0147349 -0.00648918 -0.0204702 -0.0116744 0.00627373 0.00634314 0.0030796 0.00642086 -0.00343118 0.00793235 -0.0316078 0.0133833 0.00453577 -0.00177163 0.0167903 0.00233713 0.00592419 0.0140015 -0.000999535 0.0125888 0.0115735 -0.00412923 0.0088109 0.0123057 0.0296737 -0.00193626 -0.0089315 0.0100537 0.00204822 0.0166996 -0.00434834 0.00403591 0.0071493 0.00681354 0.0100098 0.00146176 0.0109742 -0.00591773 0.0010985 0.000333707 0.0191958 0.0129249 0.0118545 -0.0105298 0.00216692 0.00336798 0.00118773 -3.02964e-05 -0.0120249 0.00376634 -0.0183379 -0.00107115 0.0100072 0.0138278 -0.00146402 -0.0121701 -0.00568854 0.0136443 0.0153561 0.00753808 0.00931993 -0.00717582 -0.0159006 0.0123736 0.0125764 0.00670705 -0.00278414 0.00941436 0.00624879 0.00723809 0.0137938 -0.00585115 -0.00587549 -0.000691442 -0.00469064 -0.0116279 -0.00380796 -0.00854322 0.0108479 0.00684709 0.00670305 -0.0165443 -0.00588957 0.00697458 -0.00558326 -0.00285771 -0.0100049 -0.011664 0.00415637 -0.00234004 0.00492935 -0.00197436 -0.00042582 0.00826215 -0.0101499 0.0114265 0.00846857 0.0127255 0.0103582 0.0133344 0.0171542 0.0050826 -0.00115094 -0.0020768 -0.00732306 -0.00525508 0.0036741 0.00148624 0.015848 0.0214193 0.013124 0.0122079 -0.0102439 -0.00176638 -0.0017025 0.0116847 0.000184003 0.0036217 0.0152587 -0.00677998 0.0138771 0.00349217 -0.00858055 0.0110193 -0.0129156 -0.0234945 0.0096149 -0.00435195 -0.00966534 -0.00548922 -0.0153536 -0.0176886 -0.00142353 -0.00270082 -0.00192394 -0.0136519 -0.00721893 0.012055 0.0117523 0.0176392 0.00107532 0.00149476 0.000841569 0.00727473 0.0004897 -0.00218648 -0.0166307 0.0236822 0.00567096 0.0199249 -0.0117597 -0.00833775 0.0167001 0.017597 0.0292002 0.0114678 -0.00937248 0.0138014 0.00666337 0.0114805 -0.00154725 -0.00263116 0.0190043 0.00498522 -0.0082054 -0.00532474 0.0174652 0.0151509 0.00496108 0.00951127 -0.00818844 -0.00791847 0.00138185 0.00967167 0.0115079 0.00162256 0.00266786 0.008319 0.0282211 0.00449692 -0.00334742 -0.0108861 -0.00284057 0.0184664 -0.00963712 0.017509 0.014126 -0.0140855 0.00578648 -0.00332061 0.0118033 -0.0113515 0.0111286 0.015341 0.00116554 -0.00953786 0.0105146 -0.000263517 -0.00638285 0.0134827 -0.02627 -0.00909689 0.00147514 0.0108518 -0.00334818 0.00865733 0.0196045 -0.00862826 0.0141797 -0.000439293 -0.0211978 0.0188315 0.00872195 0.00731468 0.023055 0.0155706 -0.0136279 -0.00855486 0.00304404 0.00594881 0.000692875 0.0102368 -0.00433194 -0.00471503 -0.0154836 0.00803986 -0.00785267 -0.00426546 0.0197271 0.0102937 -0.00914198 0.000323193 -0.00124524 0.00372708 -0.00728368 -0.0115792 0.0209921 0.00373629 -0.00300625 0.0131897 -0.000832029 0.0189765 0.00294816 0.0156931 -0.00487547 0.0179078 0.000323046 0.0121023 0.0114411 -0.00725956 -0.00702731 0.0194853 0.00799244 -0.0152371 0.0137967 -0.00672865 -0.00653986 -0.00855756 0.00682822 -0.00380045 0.00808518 0.00447748 -0.001311 0.025222 -0.00175149 0.0184941 0.00916578 -0.00415051 0.00352752 0.0125135 -0.0232511 0.00733396 0.00124781 -0.0191182 -0.00371942 0.0163268 -0.00361613 -0.00525841 -0.00471497 0.00570179 -0.001653 -0.012339 0.000987323 -0.00923106 0.00112735 -0.00316807 0.0125778 -0.0141349 -0.0030873 0.00963322 0.019161 0.00599098 0.00803662 0.00754805 0.0111221 0.0104299 0.00336157 -0.0112466 0.0174392 -0.0181534 0.020965 -0.0134774 -0.00542904 -0.00141451 -0.00793918 -0.0183611 -0.00241289 -0.0019443 -0.00270812 0.00127959 0.0141873 0.00877141 0.00451091 0.00882283 -0.00819989 -0.00342672 -0.00999871 0.00302379 -0.00425001 0.0115623 -0.0019452 0.0019809 0.00417161 0.0138458 -0.00628068 -0.00725266 0.00171093 0.00685345 -0.00984356 -0.0010943 -0.00495476 0.00121872 -0.0185125 0.00410005 0.00365588 -0.00906416 0.0120336 0.00516238 0.0118351 0.00460161 -0.00558092 0.000769728 -0.00633352 0.0125119 0.0122712 -0.0146442 0.00272832 -0.00483694 0.0181598 -0.00226267 -0.00224164 -0.00713125 -0.020542 -0.00128052 0.00266316 -0.00307684 0.00119185 0.00576094 0.0149843 -0.00481615 0.010307 0.00235918 -0.0155233 -0.0194622 -0.0140047 -0.00837875 -0.0042736 0.00777097 -0.00046838 0.00957619 0.00629124 0.0239618 0.0141804 -0.00176268 0.00501718 0.000573408 -0.00102867 -0.00131886 0.00339759 0.0152357 0.00534231 0.0228666 0.00406913 0.0102948 0.0109972 -0.0116918 0.0130732 0.0129373 -0.0179106 0.0106311 0.00774663 -0.00415502 0.00210069 0.00731003 0.00216208 -0.000641499 0.0075653 0.0134026 0.000945834 0.0031996 0.00863615 0.0025943 0.0191592 -0.0102109 0.00197854 0.00295277 0.00597983 0.00574164 -0.0148674 0.011994 0.0143302 0.00270094 -0.00863562 0.0159209 0.0105035 0.027851 -0.00188233 -0.013703 0.0207548 7.82768e-05 -0.012002 0.000322584 -0.00607687 -0.000281714 0.000511052 -0.00242133 -0.000444036 0.0109357 -0.0206851 0.0176138 0.0168855 -0.0231627 0.027841 0.0152835 0.0130427 -0.000277533 -0.0229558 0.0204528 0.000276352 -0.0157032 0.00373596 -0.0150293 0.00735225 0.00279506 0.0186434 0.0173456 -0.0153934 0.00960138 0.00542556 -0.0155666 0.00189727 0.00818877 -0.0105353 0.0101377 -0.00127045 -0.00894418 0.00124197 0.019303 -0.00347666 -0.00629279 0.00113571 -0.000335778 0.00582897 -0.0162653 -0.00495851 0.0118458 -0.00661672 -0.0113619 -0.0114238 0.00124765 -0.00638366 -0.0143756 -0.000710958 -0.000251342 0.0112316 0.0117146 -0.00509465 -0.00289934 -0.00271947 -0.0225348 -0.00480883 7.12226e-05 0.0117563 0.0194898 -0.0070217 0.000415802 0.00211359 -0.00327838 0.00769273 -0.00143731 0.00357843 0.00314578 0.0150268 -0.00400821 0.00753972 0.00307213 0.0105839 0.0124123 -0.00422974 0.0070992 0.000414298 0.0172352 -0.0172566 0.00513667 0.0033609 -0.0105847 -0.00552046 0.00875964 0.00981991 0.00701667 0.00462615 -0.00565273 0.000438508 -0.000227991 -0.0101878 0.00388186 -0.00528134 0.0143457 0.00370076 0.00375425 0.00441134 0.00801619 0.00351369 0.000249354 0.0109403 -0.00235986 -0.00849983 0.0153593 -0.00957897 -0.000725016 -0.0115662 -0.00990607 0.00788717 0.00301122 -0.000689928 0.014681 0.0104412 -0.00230792 0.00808145 0.00517387 0.00715064 -0.00563829 -0.00087094 -0.0364403 -0.00279881 0.000111079 -0.0296643 0.00193729 0.000956297 -0.00745723 -0.00367059 -0.000279449 0.00407948 -0.00406989 0.00503753 -0.00258382 -0.0031982 0.00865672 -0.0184027 0.0205306 -0.0143138 -0.019669 -0.0100172 0.0140448 -0.0164422 -0.0110809 -0.00134913 -0.00636416 0.0180647 0.00383485 0.00369221 -0.00509152 0.0123878 0.000353791 -0.00233362 0.01388 0.0131115 0.0119452 0.00630827 -0.0149263 -0.0128958 -0.0158839 -0.0106464 -0.0080871 0.00440879 0.00989794 -0.0123667 -0.00438057 0.0083773 0.00302725 -0.0105357 0.00332597 -0.0235705 -0.0120043 -0.00715615 0.00909118 -0.00514226 0.00332899 -0.00863666 -0.000295491 -0.00609943 -0.0103252 -0.0036878 0.00767168 0.0117996 -0.0169749 0.00563364 -0.0174069 -0.00821204 0.0180904 0.00120498 -0.00461963 0.00589365 -0.022286 -0.006158 0.00305476 -0.0137339 -0.0028206 0.0120739 -0.00497626 0.00855363 -0.00426742 -0.0101803 0.00203435 0.00680508 -0.00612953 -0.0217616 0.00553091 0.00157612 -0.00566946 -0.0011838 0.0212937 -0.0122421 0.00586745 0.00400073 0.00973884 0.00482908 0.0180778 0.00926553 0.000252222 0.00511301 0.00968624 -0.00974835 0.0115821 0.00310814 0.00471109 0.0098617 0.00824845 0.0132901 0.00489443 -0.0211167 -0.0125107 0.0116304 -0.00166473 0.0106646 -0.00218271 0.00408495 0.0117414 -0.00293181 -0.000874553 0.00242119 0.0251494 0.0183126 -0.0119097 0.00755538 0.0013614 0.00621323 -0.00357912 -0.00528984 -0.00158911 0.00202272 0.00313764 -0.0031474 0.0164095 0.013635 0.00474349 0.00935756 0.00909889 -0.00469484 -0.00942888 0.00310079 -0.00788554 0.0205781 -0.00498481 0.000729171 0.00922898 -0.00435137 0.0144309 -0.011763 -0.00662253 0.00106898 -0.00871168 0.00959966 -0.012758 -0.00226214 0.0275276 -0.00507685 -0.00153312 0.00926287 -0.0100136 0.00636202 -0.0176518 -0.00141797 -0.000316084 0.00620942 -0.00434229 0.00203883 0.00676824 0.013531 -0.00582968 0.00903563 -0.00317658 0.0177074 -0.0143264 -0.0051278 -0.0031068 0.0019622 -0.0103182 -0.0145751 0.00982462 -0.00401963 -0.00437543 -0.0032462 0.008133 0.0130878 0.00443128 -0.00379699 -0.00502443 -0.011276 0.00721077 0.00901476 0.00872671 0.0179008 -0.0112765 -0.00658388 -0.0131032 -0.0132511 -0.00146733 -0.0210507 0.00457691 -0.00613629 -0.02676 -0.00133551 0.00251594 -0.0255527 -0.0105128 -0.00723946 -0.0115591 0.00189655 -0.010518 -0.00615148 -0.00797966 0.00111372 0.014539 -0.00398557 -0.00327634 -0.0142034 -0.00302015 -0.00529257 0.0150717 0.00141515 -0.00708492 -0.00282397 -0.00541506 -0.00951082 0.0116021 0.0102862 -0.030486 -0.00459673 -0.00797741 -0.00701929 -0.021802 -0.0172938 -0.0133261 -0.00297561 -0.0155572 -0.0175257 -0.00787974 -0.0106 -0.00142483 0.0143279 0.00745617 0.00527837 0.0047712 -0.0016899 -0.0139264 -0.0123644 0.00462927 -0.000494582 0.00627028 0.00513947 0.00855775 -0.00924637 -0.0219897 0.0129952 -0.021696 -0.0221012 0.00297875 -0.0112226 -0.0067994 -0.00472779 0.0064576 -0.00397772 0.0200216 -0.00687175 -0.00288335 0.0105679 -0.00409072 0.00611481 -0.00949203 -0.00328305 -0.00584981 -0.00372506 0.00661275 -0.00657278 0.00240485 -0.00163379 0.0114282 -0.0124051 -0.00466312 0.00388679 -0.00237789 0.0102489 0.0121297 -0.0189387 0.00253504 0.0149717 -0.0075757 0.00117353 0.0218482 0.0357609 0.027152 0.0318499 0.0272346 0.0281464 0.00220212 -0.00347686 0.00688303 -0.00142865 0.000120631 -0.00426746 0.00998001 -0.00258048 0.0112458 0.0289785 0.0230302 -0.0152497 0.00286615 0.0165165 0.0182891 0.0185693 -0.00360116 0.00405927 -0.00311316 0.0250453 0.033066 0.0416217 0.0364304 0.0407523 0.0431289 0.028711 0.0241831 0.0175941 0.0167508 0.00996844 -0.00154377 0.0121129 0.0138051 0.0101154 -0.0013507 0.0138693 0.000776282 0.00156473 0.0252229 0.0247455 0.0107854 -0.0186157 0.0191972 0.00866222 0.0239064 -0.0175577 -0.0362267 -0.0187383 0.00745282 0.010564 0.0159633 0.0375268 0.0415713 0.0488564 0.0347595 0.0454417 0.0343079 0.0186396 -0.0143772 0.0122576 -0.00899459 -0.0324851 -0.0196968 0.00378154 -0.00956132 -0.00303603 0.0434303 0.0128268 -0.00485525 0.0204565 0.00180452 0.0151914 0.0293132 0.0161488 -0.0186401 0.0105195 0.0254566 0.0549999 0.0299981 0.0545076 0.0411976 0.0329553 0.0213975 0.0129242 0.0151378 -0.011001 0.0130241 -0.0114836 -0.00358558 0.00803384 0.00448128 -0.00537342 -0.000500257 0.0253329 0.027091 0.0291677 0.0334985 0.0103427 0.0157874 0.0309833 0.0178293 0.0272245 0.00220356 0.0318097 0.0488759 0.0374283 0.0139882 0.0204482 0.0232347 0.0236638 0.00411117 0.0279339 -0.00251641 -0.0018536 0.00758878 0.0183158 0.00092319 0.0107748 -0.00988287 0.000294232 0.00447155 0.0106726 0.013657 0.0271513 0.0136935 0.0253783 0.0353696 0.050935 0.0703131 0.0382438 0.0202911 0.0168128 0.0344591 0.0201094 0.0124101 0.00224395 -0.0150516 0.00170771 0.00321898 -0.0191387 -0.0114639 0.00318959 -0.0171718 -0.00273951 -0.0234924 -0.0134991 -0.00291828 0.00420641 0.0182819 0.00633649 0.0325762 0.0355011 0.0290162 0.0289718 0.0332497 0.0556926 0.0706414 0.0476721 0.0122783 0.00792156 0.0279486 0.0129145 0.010418 0.00704715 -0.0182768 -0.0238997 -0.0115559 -0.0229654 -0.015439 0.00876719 0.00412595 -0.00955153 -0.0110376 0.0059991 0.00881265 -0.019451 0.00548447 0.0224145 0.0311249 0.00909832 0.0287546 0.031029 0.0511298 0.0549186 0.0470008 0.0152723 -0.0462471 -0.00208694 0.011531 0.0225227 -0.00878523 -0.00067524 -0.00874512 -0.00782227 0.00418352 -0.0253476 -0.0115761 -0.026258 -0.00929806 3.36122e-05 0.013611 -0.00464637 -0.00892579 -0.0104889 0.0122832 0.00683973 0.041358 0.0276152 0.00365202 -0.00160069 0.0296431 0.0283152 0.0122344 -0.00471794 -0.0419616 -0.00510652 0.00655551 0.0183926 -0.00172228 -0.00681542 -0.0178026 -0.0241171 -0.0188492 -0.027513 0.00254403 -0.0119558 -0.00498792 0.000884761 -0.00586074 -0.00229125 -0.00512235 0.0318306 -0.00499707 0.000160595 0.0355688 0.00449187 -0.00433997 -0.0072557 0.00671316 0.0185702 0.00402422 -0.0177719 -0.0364349 -0.00619175 -0.000473992 0.00325842 0.0064645 6.24828e-06 0.0096006 0.00630956 -0.0118698 -0.0107248 -0.00527981 0.00142472 -0.0088201 -0.0146847 0.0104579 -0.00853978 0.0215648 -0.00656002 -0.0054332 0.00262437 0.00880036 0.00365851 0.0021703 -0.0142704 -0.0162705 -0.0125863 -0.0074178 -0.0275905 -0.0133186 0.0206071 0.0136205 0.0273242 0.015233 0.00186825 0.009269 -0.00818509 -0.00991618 -0.0115547 -0.00602096 -0.00183433 -0.00392672 -0.0196362 0.0109988 0.008293 0.00273798 0.00823216 -0.00280788 0.00583926 0.00888784 -0.00129071 -0.00812012 0.00325531 -0.0244362 -0.0250156 -0.0250979 -0.0420188 -0.0322683 -0.00605911 0.00585001 0.0307649 -0.0198868 0.0135093 0.0213988 0.0125537 0.00322348 -0.0271655 0.00214404 -9.67855e-05 -0.0227199 -0.0112889 0.00811086 -0.0102558 0.00686628 -0.00994042 -0.0178714 -0.0217598 -0.0143895 -0.0143582 -0.00344932 -0.035227 -0.0419149 -0.0328423 -0.0413472 -0.0552049 -0.0283349 -0.030609 -0.00484283 -0.000883074 -0.00703802 0.000413138 -0.012465 0.0141522 -0.0163062 -0.00284645 0.0116044 -0.0231229 0.00152788 0.00326333 -0.00152438 0.000279508 -0.00776644 -0.0164699 0.00482506 0.00619312 -0.0322048 -0.0124776 -0.0142347 -0.0477278 -0.0620514 -0.064775 -0.0450419 -0.0573859 -0.0455116 -0.0267519 -0.031587 -0.000926422 0.00834827 -0.00334541 0.00728267 0.00252278 -0.0164423 -0.00743048 -0.0121683 -0.0211057 0.00664383 -0.0172397 -0.0113189 0.00164909 -0.00103914 0.0378231 0.00166361 0.0169878 -0.0155206 -0.0401684 -0.0488348 -0.052668 -0.0455375 -0.0443226 -0.0332312 -0.0155041 -0.0258714 -0.00665689 0.000166457 -0.0224222 -0.0042227 0.0128863 -0.00682349 0.00422048 -0.0048086 0.00961369 -0.00024764 0.00484523 0.0129048 0.00369295 -0.00522516 -0.00104699 -0.0104383 -0.0020234 0.0029604 0.0160976 -0.00690847 -0.0135034 -0.0231918 -0.0289683 -0.0216549 -0.00667834 -0.0114953 -0.00209663 -0.0169418 0.00010812 0.00438964 0.0139891 -0.00418684 0.0074811 -0.00291897 -0.0125544 -0.0144391 -0.0171086 0.000474691 0.00295821 -0.00480699 -0.00652547 0.00104754 0.0160441 0.00999684 -0.00567403 0.0036016 -0.0200256 0.0151352 0.00538667 -0.00200949 0.00706562 0.0139157 0.041272 0.010749 0.0437187 0.0227905 0.0329528 0.030319 0.0291964 0.00136334 0.00298443 -0.0179223 0.0133101 -0.0125903 0.00217029 -0.0059444 -0.0178711 0.00132548 -0.00865039 0.0115361 0.0123219 0.00782509 0.0122854 -0.00895456 0.00350387 0.00925142 -0.00156208 0.0106129 0.00185314 0.0201726 0.031337 0.0329102 0.0484906 0.01559 0.00271421 0.0200492 -0.00297566 -0.00230482 -0.0125041 0.00958999 0.00250841 -0.00707501 0.0147271 0.018057 -0.0111061 0.0128856 0.00783223 -0.00535543 0.00774394 -0.00606042 0.00532516 0.00333548 -0.00254711 0.0139152 0.00863913 0.0237047 0.0165028 0.0203201 0.0132737 -0.000819387 0.0278263 0.028016 0.0255953 0.0218436 0.0128786 0.0229637 0.00740501 0.00122118 -0.00926246 -0.00277295 -0.00929754 0.0104407 -0.00404964 -0.0032971 0.0125707 0.0057918 0.00817267 -0.0231957 -0.0113235 0.0171365 0.015691 -0.00669661 0.00977971 0.0128733 0.0164523 -0.000432352 0.000875624 0.027351 0.0118118 0.0130672 0.0134575 0.0137417 0.0169977 -0.00339839 0.00397713 -0.00132272 0.00425145 0.00747903 -0.00859666 0.00985089 0.00882582 -0.00581673 -0.00623001 -0.00754809 0.00699686 -0.0160545 -0.00558737 0.00929007 0.00493602 0.00184351 -0.00451743 -0.00622967 0.0220488 0.00442012 -0.00407034 0.000119568 -0.00189847 -0.00856468 0.00208022 -0.00751842 0.0198327 0.0116027 -0.0140483 0.00825835 -0.0211856 -0.000320824 0.00031774 -0.00126534 -0.0134512 -0.00461934 0.00967861 0.00993702 -0.00369762 -0.00693949 0.00898514 0.00580906 0.00906312 -0.0123806 -0.00340385 0.0142412 0.025065 0.0130927 -0.00860577 -0.00401558 -0.00551673 0.00520086 0.00483446 0.0100703 -0.00270953 -0.00463858 0.00103726 -0.000781234 0.0163724 -0.00751234 0.00515684 -0.00364308 0.00727721 -0.00878979 0.00446452 0.00520572 -0.00271544 0.000622462 -0.00324302 -0.0140675 0.00331924 0.000751775 -0.00429934 -0.0100199 0.00411456 -0.00192977 -0.00432863 -0.018512 0.011957 0.00912757 -0.00757788 -0.0146975 -0.00937883 0.0027948 -0.000870681 0.0148838 0.00920017 -0.00966363 -0.00428999 0.0275028 0.00672613 0.0108011 0.0112257 -0.00183104 0.0136871 -0.00719337 0.00502238 0.0135491 -0.00253792 0.00105798 0.0072816 0.0194123 0.0173404 0.000801708 -0.00907605 -0.0104714 -0.0250085 0.0231462 0.013095 0.00525222 -0.00641612 -0.0210328 0.00364719 -0.00421599 0.000921975 0.00196415 0.00311852 -0.0259885 0.00227899 -0.0123723 -0.00134882 -0.00900543 0.0052879 0.00742956 0.00565017 -0.00974237 -0.0122705 0.00998921 0.00488809 -0.0136415 -0.0180084 -0.00325629 0.00391515 0.0215459 -0.00482194 -0.00122755 0.0131903 0.018488 0.0197213 -0.0121443 0.0101122 -0.00668952 0.00187941 0.013539 -0.00253006 0.00173722 -0.0039749 0.00339629 -0.00560079 0.00792328 0.0210562 0.0187512 0.000977517 0.0180315 0.00100032 -0.000712013 0.00951005 -0.00323077 0.0164055 -0.00515602 0.0153903 0.0312265 0.0375772 0.0310018 0.0432163 0.0209801 0.0324906 0.00915912 0.0217741 0.0137617 0.00282218 0.000330447 0.00822656 0.0207309 -0.00392467 0.00385556 -0.0124496 0.0108563 -0.00483181 -0.00607633 -0.00106623 -0.000922589 -0.00169153 -0.00396046 0.00356741 0.0130072 0.0187718 0.0166808 0.0147975 0.0437534 0.0444541 0.0220054 0.039268 0.0320677 0.0259305 0.0376914 0.0373415 0.0165907 0.0170885 0.000138369 0.0114765 0.0107088 0.00247864 0.00515537 -0.0127947 0.00486246 -0.00333029 -0.00223736 -0.0078485 0.0114191 0.00236562 0.0102112 -0.0196858 -0.000551726 0.00671888 0.015895 0.0124102 0.0107735 0.0174771 -0.0201308 -0.0403908 -0.0715171 -0.0545201 -0.0274667 0.00171918 -0.0121014 -0.00151878 -0.0201283 0.00336688 -0.0137349 -0.0145782 0.00657755 -0.0116231 0.00940655 -0.0131552 -0.0117377 -0.0060702 -0.0126479 0.00651474 -0.00430114 -0.00912705 -0.0122444 -0.0327515 -0.00530943 -0.00869017 -0.00138903 0.00373158 -0.000609332 0.00894431 0.00531874 -0.00744613 0.00551919 -0.0108502 -0.0241321 -0.0327805 -0.029208 -0.0228533 -0.0331528 -0.00662023 -0.00461265 -0.00928903 0.00570713 -0.00933405 -0.0128434 -0.00830234 0.00294822 -0.0173463 -0.00840736 -0.0157831 -0.0205435 -0.0101906 -0.0317639 0.00140672 0.0318896 0.0454127 0.0736272 0.100094 0.0764743 0.0472881 -0.00466078 0.0110047 -0.0191164 -0.00585241 -0.0398757 -0.0666874 -0.0212176 -0.0268581 -0.00136642 0.00149073 0.0218207 0.00505615 -0.0102336 0.00743907 -0.0036143 0.00488446 0.0237889 -0.00629286 -0.0244869 -0.0300406 -0.0137601 0.00666377 0.0298423 0.0481727 0.0501838 0.0756236 0.0737159 -0.00829603 -0.02994 -0.0188751 -0.0234829 -0.017638 -0.0200671 -0.0406173 -0.0074403 -0.0182831 0.0326485 0.019868 -0.0169516 -0.00232461 -0.00918083 -0.0127992 -4.61583e-05 0.0207699 0.0211993 0.0199761 -0.0123783 0.0052863 0.0268046 -0.00390039 0.0160704 0.016405 0.0306407 0.0554378 0.0175214 -0.000414988 -0.0555581 -0.0446161 -0.0318772 -0.0155494 -0.0255317 -0.0167309 -0.00739485 -0.012105 0.000254683 0.00700354 -0.00691534 0.00142529 -0.00621978 -0.00495092 0.00622559 0.0118066 0.013715 0.011207 -0.00253156 0.00292385 0.0190811 0.00208502 -0.0258937 -0.00645905 0.0137178 0.022391 -0.0100339 -0.0263099 -0.0367282 -0.0165343 -0.0033396 -0.00506108 -0.0257428 0.0047132 -0.0177043 0.00542059 0.0248916 -0.00992 -0.00620734 0.00557057 -0.0047926 0.00262706 0.0258491 0.0264504 -0.00497061 0.0108594 -0.0042662 -0.0178139 -0.0264227 -0.0270143 -0.0684938 -0.0519955 -0.000833209 -0.00933383 -0.0177137 -0.0330312 0.0285364 0.0238978 0.0437399 0.0271795 0.00370047 0.0049059 -0.0214533 0.00853468 -0.00806685 0.00597335 0.00168115 -0.010499 0.0179257 0.0100428 -0.00332524 0.00915872 -0.0108285 -0.00705231 -0.0256297 -0.0315122 -0.0431411 -0.069008 -0.107708 -0.0789024 -0.0320282 -0.00990374 -0.0191508 0.00753418 0.0375541 0.0555355 0.050954 0.0116457 -0.00739595 0.00136802 0.00832143 0.00683198 -0.0110539 -0.007275 -0.00964681 0.00469523 0.00629213 -0.00888272 -0.00599126 -0.0142688 -0.0105165 -0.0273676 -0.0382408 -0.0650913 -0.0576045 -0.0562665 -0.0577566 -0.0325766 -0.0164008 -0.00618539 -0.0131873 0.0266473 0.0472098 0.0519713 0.0348918 0.000682347 -0.0203121 -0.0150903 -0.00584274 0.00300277 0.00359712 -0.0101767 0.00491772 0.00179747 -0.00249258 -0.0129523 -0.0201623 -0.0152093 -0.0418222 -0.0389799 -0.0681247 -0.0658178 -0.0205548 -0.0176919 -0.0543125 -0.0159457 0.00460624 -0.00992601 0.0357389 0.0378667 0.00568318 -0.0254556 -0.0119794 -0.0099625 -0.0255666 -0.0128874 0.00996452 0.0193092 -0.00278639 0.00561449 0.0179322 -0.0021511 -0.00609436 0.0014421 0.00425736 -0.0130505 -0.0169853 -0.0374062 -0.0374901 -0.0311829 -0.0245779 -0.0284831 0.00480751 0.0208064 0.00602086 0.0142886 0.0382737 0.0245604 -0.0303705 -0.0210298 0.00515555 -0.010487 -0.0121424 -0.00698475 -0.00178803 0.0145694 -0.0185914 -0.00703203 0.00528716 -0.00261594 0.0010441 -0.019676 -0.0215718 -0.0187096 -0.0166466 -0.0104245 -0.0261368 -0.00892118 0.00262171 0.0104392 0.0041432 0.000181155 -0.0169061 -0.0178953 0.0284151 -0.0135482 -0.0150665 -0.0403849 -0.00304109 0.00348868 -0.0230576 0.00421715 0.00794746 0.0224195 -0.00548217 -0.000967744 0.000916051 0.00523462 0.0106027 0.0122515 -0.0117007 -0.0242297 -0.0190842 -0.00733848 -0.00844457 -0.0373488 -0.000245453 0.0120004 -0.00290306 -0.022219 -0.0182374 -0.00818689 -0.0142393 0.00505641 -0.0398094 -0.00849349 0.00569822 0.0166571 0.00357373 -0.00521718 0.00368908 -0.000385219 -0.00130208 -2.8804e-05 0.018761 -0.0145889 -0.00239486 0.00379831 -0.0226436 -0.0080699 -0.0181705 -0.0029247 -0.0277583 -0.00885626 0.0135942 -0.00578744 -0.00355784 0.00967813 0.0167524 0.0117003 0.0210464 0.0215611 -0.0120336 0.000527595 0.00124214 0.0171865 -0.00590137 0.00273616 0.0234615 0.00742144 0.00993682 0.00975458 -0.00700159 0.00825327 -0.00392565 -0.00544776 0.00357317 -0.0177703 -0.0158426 0.018038 0.00514243 0.0160082 0.00831371 0.0275081 0.0312713 0.0276881 0.0539256 0.0406885 0.0270876 0.0169091 0.00708919 -0.00515724 0.00835304 0.00535893 0.00541594 0.00256342 0.00180683 0.00153511 -0.0171833 -0.00880258 0.00617106 -0.0163487 0.0113422 -0.00315242 -0.0120409 0.00139279 0.00200361 0.0112558 0.025181 0.0120511 0.0310778 0.0156998 0.0313681 0.0447228 0.0509326 0.0327012 0.0213913 0.0365775 -0.0160578 -0.0265812 -0.00676949 -0.000500641 0.0244699 0.032946 0.0198014 -2.90077e-05 2.38341e-05 0.00477212 0.00477722 0.00553104 0.00916577 -0.00860152 0.0129988 -0.0100791 -0.0140944 0.0102441 -0.00140113 0.00698305 -0.0117275 -0.00702649 -0.0129436 -0.00465695 0.0100681 0.0146174 0.00147189 0.00988334 -0.0158401 -0.014937 0.0172249 0.00362358 -0.0083278 -0.0083319 -0.00885667 -0.0076186 -0.00979869 0.0217949 -1.5634e-05 0.00204183 -0.0030115 0.00894061 -0.0100152 0.00363098 0.00774543 -0.000765757 -0.0134314 -0.0238735 -0.0491971 -0.0556974 -0.0517206 -0.0709501 -0.0235324 -0.0337166 -0.0144924 -0.00960931 -0.018401 -0.0263837 -0.046281 0.00204736 -0.0104644 0.0233718 0.0140372 0.0112379 -0.00797525 -0.00432666 0.00321143 0.000895121 -0.0105421 0.00115597 -0.0127084 0.00569067 0.00504159 -0.0112121 -0.0157822 -0.0249135 -0.0435572 -0.0345333 -0.0566801 -0.0556657 -0.0504735 -0.0417866 -0.0155297 -0.0146845 -0.00046781 -2.0535e-05 -0.0412165 -0.0143883 0.00986701 0.00534321 -0.0118749 -0.0013325 -0.0163987 -0.00191164 -0.00564324 0.00624401 0.00950146 -0.0136446 -0.00252278 -0.00422716 -0.013203 -0.0152121 -0.00410238 -0.0200298 -0.0101954 0.00243297 0.0173991 -0.00708525 0.000305099 -0.00391906 0.0110308 0.0353196 0.0258711 0.014464 0.00828087 0.0104722 -0.00338714 0.00116147 0.00706072 -0.00348611 0.0102916 -0.0280051 -0.0038194 0.0254098 -0.00720621 -0.00512805 0.00316132 0.0114072 0.0192585 0.00442685 0.0306057 0.040901 0.059098 0.0400377 0.0505922 0.0272016 0.0218576 0.0209484 0.0509863 0.07053 0.0545018 0.01315 0.0256955 0.00482228 -0.0214895 -0.00745561 0.00900717 0.0194961 -0.00114706 -0.00734654 0.023435 -0.0078323 -0.00502885 0.0234621 0.000711387 -0.0115161 0.00494429 0.00215026 0.00613643 0.0127926 0.0189838 0.0332495 0.0135765 0.0195297 0.0334162 0.0227777 0.0349118 0.00819745 0.0184881 -0.0036358 0.000392793 0.00131666 0.0128315 0.0128243 0.00795437 -0.00719176 -0.0258886 0.0127368 -0.0120499 0.000969438 0.010685 0.017256 0.00201878 -0.0021494 0.0019959 0.00810331 -0.00891326 0.00641733 4.09387e-05 -0.00668251 0.015996 -0.00605919 0.00063639 0.0142029 0.00653598 0.000315729 -0.00308844 -0.00320872 0.00323987 0.0132243 -0.00816698 0.0291264 0.000409133 -0.00576451 0.00452846 0.01368 -0.0257161 0.00295917 -0.013718 -0.00615685 0.0124569 -0.00315829 -0.00165016 0.00392041 -0.0199798 0.00527698 0.00283033 0.00770602 -0.0223552 0.00522273 -0.00550642 -0.00435268 0.00518841 -0.013392 0.00363743 -0.0146941 -0.00330652 -0.0125806 0.0047591 -0.011302 0.00706646 0.0100907 0.0126276 0.0014993 0.0212344 -0.00541245 -0.00266486 0.00659349 0.00488646 0.000740468 0.000920794 0.00464172 -0.0021614 0.000818225 0.0303184 -0.00134632 -0.00806344 0.0108992 2.80105e-05 -0.0234276 -0.0173081 -0.00480857 0.0114256 -0.00792455 -0.000301871 0.00306265 -0.00137821 0.010846 -0.0260603 -0.0113359 0.0130436 -0.0116857 0.000401663 -0.00370903 -0.00829366 -0.0167561 -0.000232168 0.0151126 -0.0183258 0.00374414 0.0111934 0.00279078 -0.0120526 -0.0100553 0.013189 0.00729795 -0.00658957 0.00387685 0.00891305 -0.0019678 -0.007817 0.0167309 -0.00495394 0.00834351 0.0184436 0.0206654 -0.00586367 -0.00265525 -0.0137642 0.00254644 0.00686986 -0.00161561 -0.000159501 -0.0111253 -0.00235609 -0.00745225 0.0150273 0.00406525 0.0144272 -0.011968 -0.00559346 -0.0242783 -0.0180288 3.01837e-05 -0.0108409 -0.0193151 -0.00442633 0.00328928 0.0041729 -0.00475061 0.00499833 -0.00333881 -0.000833568 -0.00985401 0.000589315 0.0166281 5.76059e-05 -0.00241958 -0.00195202 0.000437743 -0.00509165 -0.0169138 -0.00190537 -0.0301276 -5.11144e-05 -0.00884105 -0.0117824 -0.0514158 -0.0379532 -0.0337851 -0.0366521 -0.0438098 -0.0394535 -0.0507643 -0.03618 -0.0247844 -0.025292 -0.00738742 -0.00117271 -0.00503967 0.0137407 -0.00658746 -0.0116277 0.0224898 -0.00435858 -0.0108201 -0.00716556 -0.00276748 0.0190765 -0.00351376 -0.0125735 -0.00602868 -0.0234691 -0.0213791 -0.0336468 -0.0349747 -0.0493411 -0.0306873 -0.051996 -0.0194911 -0.016168 -0.0301251 -0.00493032 -0.0182332 -0.0151152 0.00423035 0.0259934 0.0182355 0.0253515 0.0144694 0.0173834 -0.00190534 -0.00329186 -0.00774351 0.0123864 0.00799034 -0.0135523 0.00649337 -0.00737302 0.0090111 -0.0240819 -0.0160786 -0.0403046 -0.027317 -0.0262995 -0.0251226 -0.00853718 -0.0143517 -0.00685231 -0.0301824 -0.0129463 0.0145189 0.0010978 0.0247442 0.00592758 0.00910095 0.0165573 0.0325867 0.0243498 -0.0173756 0.0164906 -0.00407568 -0.00886493 0.00853933 -0.00885225 0.0153247 0.00488258 -0.0227267 -0.0255104 -0.0276387 -0.0399648 -0.030906 -0.0380188 -0.0245676 -0.00557995 0.0178626 0.00698186 -0.00993882 -0.0189365 0.0323801 -0.00068116 -0.00977811 -0.0376093 -0.00115946 0.004116 -0.00127096 0.00861581 0.0148875 0.0212306 0.0109363 -0.00279914 0.0119643 -0.0126661 -0.0235097 -0.0122625 -0.0161856 -0.0456209 -0.0269352 0.0209929 -0.0257855 -0.0479153 -0.0434074 -0.0114738 -0.0164529 -0.0146753 -0.016214 0.00540425 0.025598 -0.00153403 0.000459959 -0.0192822 -0.00465268 0.0126174 0.0262538 0.0252433 0.0159926 0.00984401 0.0013944 0.0153479 0.00315436 -0.0155543 -0.000482937 -0.0132649 -0.0216333 -0.00915824 0.0145989 0.00936242 0.00336353 -0.0111445 -0.0184721 -0.00873769 -0.0150452 -0.0378678 -0.0215087 -0.0183991 -0.0151 -0.0255107 -0.0316802 -0.0133872 -0.00122503 0.0170021 0.038427 0.0215963 0.000972232 0.00357299 -0.00463984 0.0018091 -0.0119619 -0.000533046 -0.0103386 -0.0101405 0.0113376 0.00988091 0.0154483 0.0403555 0.0168465 0.021124 0.0129293 0.0213128 0.0309921 -0.00245608 -0.0253351 -0.0178697 -0.0281984 -0.0202917 -0.0316107 -0.0137959 0.0075721 0.0281879 0.0197854 -0.00772308 0.00998871 -0.00943808 0.0119631 -0.00195338 0.0151671 0.00170442 -0.00948006 -0.0095922 0.0168041 0.0294512 0.0417501 0.0536942 0.046896 0.0208636 0.0245099 0.036296 0.047544 0.0309722 0.00656239 0.000256044 -0.0206821 -0.034809 -0.0224252 0.0118564 0.0201718 0.0310412 -0.0015567 0.018253 0.000722722 2.59969e-05 -0.000849784 0.00874972 -0.0144567 -0.00579422 0.0122236 0.0195998 0.023387 0.0256584 0.0505096 0.0450089 0.0559837 0.0552488 0.0197022 0.00804941 0.0398227 0.0362838 0.00579698 0.00457679 -0.0245709 -0.0368035 0.00938578 0.0362378 0.0380941 0.0240412 0.0241168 -0.00903906 0.00674782 -0.00584178 -0.0202818 0.013379 0.00313125 0.00101078 0.00183204 0.00358378 0.0234046 0.0472419 0.0658023 0.0349249 0.0403587 0.0508325 0.0142754 0.00858645 0.0370135 0.0178447 0.0159962 0.00890827 -0.0143381 -0.0103364 -0.000749482 0.0169844 0.0178233 0.0273108 0.0110669 0.00475542 0.0130164 -0.0243742 -0.00842468 -0.00576779 -0.0079052 0.00141889 0.0106512 0.011646 0.0423828 0.0586962 0.0440321 0.0330299 0.0181043 0.0240044 0.0090204 0.0049987 0.0238541 0.0294704 0.0120476 0.0028683 0.00419365 -0.0157639 0.008921 0.0244517 0.00215718 0.0328744 0.0167799 0.0158339 -0.0142289 -0.0188163 0.0215991 0.00637782 0.0177525 -0.00369545 0.0117431 0.00193046 0.0172045 0.0143907 0.026207 0.0299658 0.0282031 0.00886685 0.00116221 -0.0089754 0.0187819 0.0400827 0.0236453 -0.0127532 0.00152846 0.00559089 -0.0202165 0.0118873 0.0106098 0.0205869 0.0111432 -0.0122674 -0.0145619 -0.00580501 -0.00843082 -0.00887686 -0.00969918 -0.0114365 -0.0134902 0.00667943 0.0214752 0.028055 0.00711761 0.0259783 -0.00626476 0.00658097 0.0228979 0.0211035 -0.00103708 0.0357405 0.00407052 -0.0117577 0.0150693 -0.014454 -0.0118478 -0.0138369 -0.00331637 0.00724412 0.00833791 -0.00110209 -0.0141634 -0.00267397 0.014227 -0.0066006 0.00842152 0.00810524 -0.0107855 0.0188038 0.00434282 0.0175775 0.0223153 0.00229818 0.00460455 0.0173467 0.0121863 -0.00519548 0.0121227 0.014902 -0.000846167 -0.0121245 -0.0285524 -0.014786 -0.0215595 -0.0193222 -0.00194424 -0.0314171 -0.0109388 -0.0231488 -0.014611 0.01075 -0.00232052 0.0109546 0.00200459 -0.00926016 -0.0188363 -0.00792123 0.00479182 0.0171614 0.0153826 -0.016121 -0.00325744 0.00855231 0.010929 -0.009522 -0.011917 0.0130443 -0.0206838 -0.0211592 0.00850246 -0.0266668 -0.0321223 -0.00666613 -0.0187183 -0.023728 -0.0476642 -0.0192747 -0.0158243 -0.00566138 0.000883714 -0.02787 0.0102365 -0.01339 -0.00989465 -0.0134852 -0.0185797 -0.00371353 0.00442396 0.000331215 -0.0129264 0.0103179 -0.0152861 0.00810748 -0.00417546 0.0101852 -0.00556445 -0.0208531 0.00368641 -0.00277746 -0.0164227 -0.00985366 -0.0293719 -0.0229113 -0.0294872 -0.0231566 -0.0134975 0.0199907 -0.00701397 -0.00316415 -0.0160836 0.00371812 -0.00491141 -0.0439492 -0.0195065 -0.0265262 -0.0418455 -0.0180627 -0.0098279 0.016081 -0.00287936 0.034139 0.00785168 -0.00161849 0.0140999 0.0348927 0.0298028 0.0224965 -0.0145173 -0.0132364 -0.0169273 -0.0201586 -0.0294623 -0.0190855 -0.0130934 -0.0127844 0.0132324 -0.00184318 0.00050719 -0.00140271 -0.0217372 -0.0417435 -0.0191264 -0.0387751 -0.0364431 -0.0268071 -0.0263866 0.0141079 0.0121787 -0.00899965 0.0208712 -0.00780143 0.0179265 0.0341609 0.00100604 -0.012547 -0.014507 -0.0144319 0.00111277 -0.00450433 -0.0109421 -0.0229887 0.00578305 -0.00481747 -0.0141458 0.00930613 0.00309883 -0.0093902 -0.0070602 -0.0175673 -0.0375671 -0.0417354 -0.0155571 -0.00220334 -0.00451023 0.00539985 0.0132377 0.013674 -0.0117486 0.00889417 0.0167415 0.00704748 0.012179 0.0082821 0.00306408 0.000306741 0.000862162 -0.025583 0.000614064 -0.00274708 -0.0103194 -0.00156818 0.00879137 -0.00356938 -0.0169027 0.0145848 -0.00366103 -0.0105064 -0.0290819 -0.0266235 -0.010671 0.00213984 0.00608966 0.031237 0.00345007 0.00763339 0.00740198 0.0238665 0.0159247 0.0355447 0.0254632 0.00738173 0.038648 0.0138994 0.00229676 -0.0127657 0.000904788 -0.00638464 -0.00251004 -0.0136567 -0.000526843 -0.0222099 -0.00253412 -0.0177389 0.00961382 -0.0192838 -0.00962041 -0.0103527 -0.0167323 -0.0142996 -0.000323978 -0.0267189 -0.0115042 -0.0163679 -0.0186342 0.00685759 -0.00242956 0.0189243 0.0299966 -0.00593319 0.0304455 -0.00133239 0.0043863 0.0296169 0.00903743 -0.00960118 0.00858881 0.00829076 -0.0139134 -0.000996787 -0.0138302 0.00278691 0.00551155 0.0136917 0.0164683 -0.0110442 -0.00939305 -0.0227296 0.00877081 -0.0157649 -0.00613317 -0.0369646 -0.0248661 -0.02135 0.00728322 0.0141464 -0.00302126 0.0123453 0.0178967 -0.00859108 0.000128452 -0.00921502 0.00336443 0.000412871 -0.00728799 0.00655962 0.000453704 0.00205256 -0.00763714 0.00619418 -0.00557481 0.00719762 -0.0094077 -0.00329523 -0.0254745 -0.0027802 -0.000457965 -0.0222638 -0.00805876 -0.00518601 -0.0233858 -0.0118258 -0.0038167 0.00214291 0.00595814 0.00275159 0.0039529 0.00662042 0.00576449 -0.00594098 -0.00810659 -0.00311327 0.00512535 -0.00471872 -0.0112786 0.0113336 -0.00339332 0.004969 0.000825441 0.00319839 0.00596307 0.0144995 -0.0158631 -0.00818489 0.00895587 -0.00437663 0.000888859 0.0106494 -0.0218681 -0.0168852 -0.012687 -0.00273674 -0.00358464 -0.0112945 -0.0039279 -0.00170465 -0.00961894 -0.00628422 0.00895587 -0.00911104 0.00513182 0.000715894 0.0107019 -0.00986181 -0.00602795 0.0188133 -0.0019305 -0.00162768 -0.00183815 0.00742599 0.00724084 0.0150285 -0.00554107 -0.00527669 -0.0122828 -0.0128398 0.0136875 -0.00622533 -0.00331695 -0.0231492 0.00524268 -0.0125263 -0.00537411 -0.0151691 -0.00419254 0.000954304 0.0172372 0.00960722 0.0219852 0.00731617 -0.000698269 0.00578846 -0.00282166 0.0111664 -0.00197775 -0.00578377 -0.00910246 0.00488427 0.00464491 0.00465858 -0.0128477 -0.0185915 -0.0115937 0.0115465 -0.00811458 0.00984163 -0.0047421 0.00648237 -0.00815978 -0.00516513 0.00218095 0.0155704 0.0130028 -0.00364756 -0.000439967 -0.00199505 0.0146641 -0.000169156 -0.0186677 0.00567978 0.00182375 0.0138705 0.00348263 -0.00775079 7.77847e-05 -0.0140911 -0.00955676 0.0079269 -0.00252915 0.0016761 0.00348595 0.00582217 0.0060843 -0.0138522 -0.0127687 -0.00755299 0.00291085 0.016832 -0.0110325 -0.0109351 -0.0125991 0.0020987 -0.000969097 0.00190208 -0.0203897 0.0135808 -7.35154e-05 0.0114506 0.00166723 -0.0123212 0.0133974 -0.00360563 0.0015911 -0.00190074 -0.0120109 0.0199845 -0.0195499 0.0147085 0.0176615 -0.0154461 0.0016417 -0.00432048 -0.00255558 -0.0206613 -0.00382589 -0.0226901 -0.0321015 -0.0119118 -0.00817954 -0.00762659 -0.00297775 0.0127697 0.0137828 0.00474461 0.0157596 -0.00629031 -0.014794 -0.0176239 0.0168031 0.00805616 -0.00655753 -0.00499584 0.00577858 -0.0120426 -0.00658415 -0.0029122 -0.000424442 0.0111884 0.0260061 0.0107874 0.00891117 0.0121228 -0.00830162 -0.0232857 -0.0176878 -0.025989 -0.0297252 -0.0149244 -0.0112333 -0.00055862 0.0188632 0.0272591 0.0113201 0.0198957 0.00713101 0.00349736 0.021246 0.0128162 -0.00436537 -0.00297599 0.00552917 -0.00600045 0.00486531 -0.000828159 0.0167929 0.0248024 0.033744 0.0452249 0.0399713 0.0539874 0.0436298 0.0287089 0.00622713 0.0168026 0.00878978 0.015842 0.00436777 0.00315429 0.00707585 0.00628618 -0.00272827 0.000713005 -0.00586505 -0.00258498 0.00468274 -0.00165491 -0.00834388 -0.0034306 0.000324705 -0.0117839 0.0041041 0.0191211 0.00163686 0.0165721 0.0233775 0.0243445 0.0195543 0.0237041 0.021176 0.0381116 0.0218396 0.0232359 0.0158709 0.014735 -0.00474901 0.00997435 0.0234976 0.00556054 0.0128382 -0.00794822 -0.0056693 0.00822075 0.0060178 0.0177025 0.00294806 0.0011228 -0.00522851 -0.00148838 -0.00537294 0.0120653 0.00726411 0.0104919 -0.000446478 -0.00155885 -0.00529397 0.0207415 0.0166902 0.0373178 0.0333503 0.0349159 0.0293832 0.0217526 0.0235751 0.00793786 -0.00297093 -0.011803 0.00465682 -0.00712631 -0.00748818 0.00394091 -0.00453574 0.0133568 0.0135746 0.0105666 0.00527062 -0.0087242 0.00155382 -0.00706864 -0.012938 -0.00918631 -0.0117744 -0.00611095 0.00991042 -2.46813e-05 0.000739547 0.0202383 0.0212163 0.024128 0.0103476 0.0181023 0.0141022 0.00203929 0.0184526 0.0197558 -0.000526216 0.00420795 -0.00615566 0.0135236 0.0109712 -0.00515659 0.0309999 -0.00761286 -0.0167724 -0.0199304 -0.00793857 -0.0230613 0.00251545 0.00135961 -0.0300062 -0.012234 -0.0118978 0.00888023 -0.0087633 0.00479082 0.0175919 0.0119835 0.0217744 0.015628 0.0206957 0.0294562 -0.000518318 0.00190753 0.00509596 0.00660765 0.00175999 -0.00448189 -0.00167183 -0.0108019 -0.0120244 -0.0138553 0.000717734 0.0037727 -0.000255199 -0.00639523 0.000849588 -0.0385872 -0.0144514 0.0021898 0.0187182 0.00059011 0.027601 0.00927494 -0.00452305 -0.0145007 0.0104852 0.00988733 0.0162526 0.0293007 -0.00127024 0.0058295 -0.00731769 -0.0287318 -0.00947689 -0.00567742 -0.00248639 0.00861432 -0.0070879 -0.0180044 0.0120991 0.00370837 -0.0154755 0.00748486 -0.0281734 -0.00450667 0.0174561 0.00952813 0.00378605 -0.00672431 -0.00664858 -0.0164413 0.00964956 -0.0112704 0.00257118 0.0187016 0.00877816 0.0391738 0.0174769 0.00367368 0.00262201 0.0146893 -0.0100354 0.0160638 -0.0129721 -0.00719777 -0.0104766 -0.00874558 -0.00995455 -0.0140676 0.00353792 -0.00995257 0.00724129 -0.00789393 0.00738105 0.00417291 0.00669966 -0.0298739 -0.0360993 -0.027148 -0.0310319 -0.0130139 0.0034698 -0.0204667 0.010826 0.0125411 -0.0202296 -0.00120111 0.00533554 -0.0168754 -0.00874712 -0.0033872 0.00790695 0.00255124 -0.0137048 -0.0134626 -0.00438307 -0.0132453 -0.000882151 -0.00159998 -0.0184563 -0.00686456 0.0112657 0.0248071 -0.0155674 -0.0425725 -0.0419206 -0.040458 -0.0183385 -0.0273031 -0.0052271 -0.0135939 -0.0116355 -0.0156451 -0.00196689 0.00222626 0.00864914 0.0134667 -0.00231848 0.00327764 -0.020475 0.00316744 -0.0155175 -0.0102433 -0.00248746 -0.00382038 0.00584776 -0.00901543 -0.0113739 0.015646 0.0168977 0.0226116 -0.0187723 -0.0312889 -0.0416433 -0.0148532 -0.0277087 -0.0190385 -0.0171467 -0.00760405 -0.018685 -0.0121849 0.00160591 0.0183153 -0.0163726 0.0095357 0.00815087 -0.00705751 0.00126107 0.0131024 0.00509162 0.000863155 -0.0269471 -0.0216059 -0.00935162 -0.0120995 -0.0138501 0.0177627 0.0239265 -0.00262782 -0.0185946 -0.015638 -0.0293346 -0.0182637 -0.0131865 -0.0283133 -0.0188885 -0.0205412 0.00109442 -0.00012826 0.0206646 0.00150607 -0.00894718 -0.00504358 -0.00319609 0.00357584 0.00579191 0.00500406 0.000192832 -0.0175616 -0.0194616 -0.00975454 -0.018545 -0.00762903 -0.00301055 0.0200447 0.0136782 0.00321087 -0.0392016 -0.0502987 -0.0121741 0.0048901 -0.0296528 -0.0296574 -0.0139388 -0.0318483 -0.0200892 0.0081834 -0.00302911 1.50826e-05 0.00118124 -0.00671968 0.000851125 0.00360328 -0.00752797 0.0301072 0.0172726 0.0051636 -0.0242711 -0.0120075 -0.0136801 -0.00744432 -0.00976454 0.00334503 0.00128856 -0.0160914 -0.0325965 -0.00225013 -0.017048 0.00500172 -0.0195324 -0.0122098 0.0179698 0.00764555 0.00517197 -0.00480438 0.00203562 0.000784776 0.00200308 -0.0109495 -0.00608039 0.0114992 0.00651254 0.00898693 0.0010007 0.0242592 0.000754706 0.016564 0.0123251 0.00333834 -0.00452533 -0.0215129 0.0037239 -0.0172422 -0.00022886 0.00218609 0.00189287 -0.0110065 0.00310167 0.00511439 -0.00589837 0.0144155 0.026592 0.0162717 -0.00496343 -0.0058726 -0.00516219 0.00592896 -0.0133565 0.00161908 0.00625687 0.0166694 0.0144382 0.037945 0.0525249 0.0108689 0.0148842 -0.00519623 -0.0269628 -0.00566011 -0.000762713 0.0203812 0.00250834 0.00920403 0.0221077 0.00296887 -0.0101855 0.00567884 0.0120003 0.0130098 0.0230782 0.00792445 0.00684771 0.0281458 0.00439359 0.00526254 0.0090381 -8.49125e-05 0.008189 -0.00400751 0.0197865 0.0204645 0.0405702 0.0313241 0.0515983 0.00894508 -0.00197023 -0.00934824 -0.00457601 -0.00215711 -0.0144961 -0.0176155 -0.0285389 0.022187 -0.00146827 0.00582548 0.0151934 0.00402281 0.0222363 0.0157189 0.00616395 0.00603639 -0.000739632 -0.000221923 0.00960187 0.0113767 -0.00590345 0.00919785 0.0249034 0.0301173 0.053583 0.0390733 0.0375283 0.0307167 -0.00726852 0.00595441 -0.0117413 -0.00651841 -0.0148672 0.00872082 0.00981676 0.0292007 -0.0140609 0.0171868 0.0150867 0.0113326 0.0216011 0.00180772 -0.00544414 0.00205848 0.00182673 0.0022315 0.0102542 -0.0105944 -0.00349999 0.0064483 0.0198566 0.0304235 0.0398721 0.0319835 0.0303041 0.0275538 0.0243541 0.0223835 0.0262457 0.00778953 0.019204 0.00355905 0.0274155 0.0169313 0.0212879 0.0203543 -0.000716372 0.0194361 -0.0062877 0.0046138 -0.00134164 -0.00750147 0.00206217 -0.00618838 -0.000129254 -0.00293097 -0.0143022 -0.0158149 0.00687793 0.000621277 0.0107202 0.0269894 0.0197983 0.0259372 0.0454175 0.0298998 0.031475 0.0529521 0.0448718 0.0351234 0.0120767 0.0107019 0.00324632 0.000948163 -0.004445 0.00945808 0.00248653 0.0162601 -0.00664182 -0.00554969 -0.000367907 -0.022952 -0.0019428 0.0102742 -0.0148979 0.00629324 0.0111037 0.000638458 -0.00667027 -0.0261744 -0.0127655 -0.0254866 -0.0019687 0.0095705 0.0237659 0.00711393 0.0151376 0.0218502 0.00514021 -0.0132187 -0.00547414 -0.0184028 0.00351026 0.00327573 -0.00806941 -0.015642 2.3798e-05 -0.00222969 0.0103276 0.000333829 0.00710464 0.00196553 -0.00492366 0.0143295 -0.000665812 0.00151559 -0.0156369 -0.0164414 -0.0403762 -0.0358803 -0.040783 -0.02331 -0.0246558 -0.0144084 -0.0233737 -0.00868677 -0.00444293 -0.0126386 0.00104319 -0.00906173 0.00191448 -0.00814803 0.000463923 0.000948568 0.00918266 0.00379711 -0.00216227 -0.0154297 0.00747299 0.00586171 -0.0123781 0.006995 0.0109226 -0.0171627 0.0138814 -0.021678 -0.0029551 -0.0295237 0.000971291 -0.0114108 -0.0145194 0.0113827 -0.0107455 0.000905645 -0.00911818 0.00198875 0.00645493 0.00490382 -0.0154281 0.00653763 0.0130518 -0.00168744 -0.0113467 -0.0120779 0.0158063 -0.00616458 -0.0154458 0.00878361 -0.00375155 0.00912212 0.00302989 -3.76294e-05 -9.83223e-05 -0.000237297 -0.00286132 -0.00387652 0.00838982 -0.0191703 0.00437362 0.00738104 -0.00516334 -0.00109993 0.00738392 -0.0160406 -0.0159343 -0.0329451 -0.00279389 -0.000916183 -0.0293214 -0.0112767 0.00735903 -0.00149419 0.00538987 -0.0127066 -0.00348278 -0.00971889 -0.00754967 0.00333586 0.00671537 0.0042864 0.00500564 9.32234e-05 -0.0018829 -0.0143841 -0.00799333 -0.00941163 -0.00473202 0.0177024 0.00023628 0.0143952 0.0139992 0.000450115 -0.000530032 0.0168183 0.00353109 -0.00356867 -0.00475355 -0.000335257 0.0162203 0.0133935 0.0235096 0.00396804 0.00128364 0.000372396 0.0129511 -0.00249985 -0.00147066 -0.00478783 -0.00511411 0.00913434 -0.00263417 0.00533863 0.00673586 -0.00782561 -0.000152445 -0.00963606 0.0112766 0.00235985 -0.0026323 -0.00225729 -0.000136417 -0.00402245 0.00830547 -0.00723199 0.00702744 0.0146979 0.00436912 0.0124869 0.00216617 0.0024589 -0.00813168 -0.00970575 -0.0102303 -0.00860194 -0.0018208 0.0116808 -0.0169561 -0.00543471 -0.0222766 0.0150733 -0.00122322 0.00529914 -0.0111348 0.00605016 -0.0129214 -0.00438902 -0.00117437 0.0225814 0.00954256 0.0156878 -0.00185841 -0.00831559 -0.0083418 -0.0100047 -0.00081657 -0.00230059 0.00463429 -0.0262075 0.0018778 -0.00301124 -0.0246553 0.0107915 0.00349577 0.00211463 0.00894074 -0.00907167 0.00936328 -0.00670934 0.0071313 0.00433075 -0.000405337 -0.00337872 -0.000618386 0.0107437 -0.00534241 0.00828079 0.0164711 0.00689205 0.00455025 -0.0395834 0.00849525 0.00471557 0.00224225 -0.0080411 0.0133957 0.00197868 -0.009354 -0.00132264 -0.00298897 -0.0145125 0.00327157 -0.0115459 -0.00711854 0.00828079 0.00162231 -0.00895086 0.00496992 -0.00252305 -0.00910437 0.0119522 0.00936961 -0.000724882 0.00353029 0.0211839 0.00540987 -0.017356 0.0178902 -0.00940908 -0.00201621 -0.00128098 0.000124653 0.00295812 0.000377164 0.00772522 -0.00803891 -0.00733471 -0.000934527 0.00348028 -0.00160985 0.0121468 -0.0100477 -0.000355342 -0.00208434 0.0102773 0.000975683 0.00715172 0.00120023 -0.00935501 -0.0153742 -0.00536688 -0.0031837 -0.0208723 0.0133774 -0.00123072 0.00118541 -0.0112055 0.0178123 -0.00675077 -0.00559822 0.00772612 -0.00778709 0.00671773 0.00128199 -0.00344518 -0.00440169 0.00497538 -0.0108005 0.0113609 0.000939386 0.0144038 0.0051708 0.0189083 0.00973713 0.00429073 0.00786507 0.00345711 0.00349046 0.00896553 -0.00784052 -0.00305947 0.00390518 0.0191397 -0.00364778 -0.00778488 -0.00544357 -0.0236095 -0.00374701 0.0110409 0.000568362 0.00211557 -0.00586528 -0.00746025 0.00404866 0.0152517 -0.0123334 0.00116991 0.00295694 0.0148689 0.0073197 -0.00448166 -0.0139606 0.0039152 0.0117541 -0.0018317 0.0177218 -0.00103509 0.0204544 -0.00493116 0.00403212 0.00363649 -0.00201902 0.00261815 -0.00179815 0.00400646 -0.00410563 0.00838809 0.0106876 0.0184389 0.00539011 -0.0069984 0.00050359 0.0160731 -0.00609631 0.00210359 0.013441 -0.00538342 -0.0155815 0.023898 0.0232698 -0.00894898 0.00437146 0.00626784 -0.00104083 0.0148248 0.00225174 -0.0115182 -0.00741168 0.0128638 -0.00274757 -0.00207764 -0.00168632 -0.00341149 -0.00465049 0.0131079 0.00661288 -0.0117048 0.012991 0.0216811 -0.0116635 0.0131712 -0.0118874 -0.0186139 -0.0150856 -0.0214595 0.0138195 0.0147669 -0.00407159 0.00595199 -0.013937 -0.00353889 0.000804527 -0.00242352 0.02343 0.00707657 0.00236298 0.00651716 -0.000947768 -0.0036371 0.0111968 0.0218294 -0.00020055 -0.0167727 -0.00872999 0.000224177 -0.0093053 0.0206599 -0.00258956 -0.00283434 0.0111289 0.0141007 0.000482621 0.00920403 0.00138976 0.0178234 0.0169561 -0.00628136 -0.00906539 -0.0103171 0.00222185 -0.0112199 0.00834389 0.00726852 0.0143446 -0.00878475 -0.00775141 0.0165355 0.01543 -0.00168834 -0.0124753 0.000499066 -0.0035463 -0.00902266 0.000797382 0.00629327 0.00727455 -0.0172298 0.00203372 0.00723561 -0.00634825 0.026147 -0.0188049 0.00142596 -0.0149674 0.00400122 0.0106243 -0.000919097 0.000681366 -0.00648822 0.00941799 -0.0050515 -0.00515965 0.003664 0.0147953 0.00827947 -0.00255404 0.0153964 0.0120608 -0.0152859 0.00347305 -0.00344207 -0.000527123 -0.00193377 0.00571456 -0.000515101 -0.0114018 0.0108151 0.0032508 0.000198884 0.0177436 0.00184606 -0.00279437 0.00523397 -0.00195379 -0.00485072 0.00966927 -0.0104121 0.0124029 0.00764199 0.00796477 0.00601095 0.00085625 -0.0022374 0.00388184 0.00810456 -0.00181099 -0.0121631 0.00118665 -0.00527792 -0.00678551 -0.0203488 -0.0106613 -0.0154067 -0.00929412 -0.00710215 -0.00200427 -0.00796575 -0.00251495 0.00559222 0.00224529 0.00440711 0.00280786 0.00460957 0.00912236 -0.0045633 0.00781769 -0.00541952 0.00760411 -0.0101948 -0.00300143 0.000321028 0.00214792 0.00149318 0.00680508 0.00215176 -0.0101957 -0.0197702 -0.00264524 0.00327419 0.00757323 -0.00385537 -0.0147103 0.00957095 0.0058405 0.00794007 0.00830914 0.0115312 -0.000385424 -0.010472 -0.00240898 0.00413133 -0.00590167 0.00331951 -0.00112977 0.00820918 0.00166683 0.00656286 -0.00639414 0.0119218 0.00898302 -0.0153944 -0.000459385 0.0126684 -0.0108 0.000175647 -0.00780146 -0.00539177 0.00222268 0.0162883 0.00190391 0.0163339 0.0064135 0.0105958 -0.00834574 -0.0136652 -0.00678403 0.00637002 0.00146689 -0.0154243 0.00428223 0.00162187 0.00550852 -0.00275362 0.0188339 0.0140918 0.00745042 -0.00670832 -0.00054335 0.0186223 -0.00101908 -0.00486082 -0.015266 0.00399258 -0.000985003 0.00688754 0.0219333 0.00706126 -0.00861874 0.013643 0.0137355 -0.00947143 -0.00077105 0.0203956 -0.00301603 0.0210568 0.0129807 -0.0066999 0.0133948 0.0229964 -0.0122127 0.0301869 0.00698208 -0.000565498 0.0093998 -0.0118367 -0.0132052 0.00475209 -0.00437808 0.0114702 0.000230239 0.021715 0.00196857 -0.000900616 -0.0189577 -0.0120286 -0.00133003 -0.00834611 0.0026623 0.00888397 -0.00975891 0.0201992 0.00822655 -0.00203186 0.006649 0.00193501 0.0298206 -0.00415029 -0.000528118 -0.00826591 0.00270518 0.0101744 -0.0104756 0.00650099 0.00986431 -0.00519429 0.00882332 -0.00742957 0.0149122 0.00466855 0.0116919 0.00185264 -0.0175421 0.00628422 -0.0111749 0.0188968 -0.00546542 0.0140684 -0.00137765 -0.0106185 0.00584684 -0.0226271 -0.00509279 0.0106881 0.0116028 -0.00437232 0.0109939 -0.000806601 0.00693502 0.00400446 0.00819199 0.00546309 0.00141911 -0.00513884 0.00977574 -0.0173301 -0.00477518 0.0126758 0.00855839 0.00974256 -0.015082 0.00554237 -0.00723896 -0.0142952 -0.00670041 0.0103986 0.00665289 0.0155513 0.00384707 0.00537852 0.0132871 -0.00882186 0.0250969 0.0105893 -0.0154972 -0.0062249 0.00413724 0.00487261 0.00914272 -0.00978476 -0.00405985 0.00381017 -0.0014561 0.00154105 -0.00185802 0.00864218 0.00476885 0.0178675 0.0104343 0.017771 0.0131744 -0.0126415 0.00785614 -0.0168132 -0.00851007 -0.00450145 0.0082298 0.000837561 0.00841282 0.0040499 -0.00715564 -0.0111189 -0.00378164 0.0047087 -0.0134315 0.000674351 -0.0161103 0.00505237 -0.00400017 0.0102201 -0.010895 0.00274991 0.00398606 0.00367954 -0.0256927 -0.0138976 0.0165086 0.00978851 0.00602317 -0.0222673 0.0106802 -0.00532033 0.00235106 0.00244103 -0.0066052 -0.00188376 0.00755854 0.0045747 0.0107495 -0.0131613 0.0127638 -0.00760601 -0.00742385 0.00116478 0.00590523 -0.00763116 0.0172944 -0.000789017 -0.00567721 0.00852515 -0.00581555 0.00358536 0.00496205 -0.00104423 0.00965171 0.00463152 -0.00161736 -0.0134631 0.0171349 0.00302715 -0.00716519 0.00469788 0.0251903 0.00140539 0.00912727 0.00886071 -0.00442528 0.0247916 -0.00957393 -0.00654024 -0.00459836 0.00231367 0.0216337 -0.0120081 -0.00290323 0.00473743 -0.0093428 -0.00461175 -0.0109342 0.00286705 0.004229 0.00113698 -0.0139235 0.013848 -0.0177428 0.00648326 0.00344725 0.00704781 0.000802796 0.0195847 0.0086728 -0.00305426 0.000527818 -0.0110859 0.0081559 -0.00094709 -0.00434448 0.0100611 -0.00207413 0.00975626 0.00127162 0.00386473 -0.0146672 -0.00746337 -0.0128808 -0.014358 0.00659267 -0.00267151 0.0131813 -0.0225222 0.000675991 -0.00227558 0.00254348 -0.00803997 0.00497533 0.00277415 -0.0132518 -0.00364091 -0.00296928 -0.0120514 0.022266 -0.00153312 -0.00823958 -0.00199206 0.0158263 0.0280306 -0.00910136 0.00910029 -0.0109729 -0.0104433 0.0216914 0.0102147 0.000409758 0.0142262 0.00606404 -0.000759953 -0.0043343 0.00230624 0.00177056 -0.00149989 0.0159371 0.00177355 -0.0170482 0.00540061 0.0186305 -0.00815167 0.00672791 0.00299232 0.00492757 -0.00168537 -0.0184394 0.0144639 -0.0144259 -0.0153197 0.0107099 -0.00644868 0.0108161 0.000392227 0.0141645 -0.0103359 -0.0133428 -0.00460139 0.0113064 -0.00528617 0.00694939 0.00721248 0.0046326 -0.010162 0.0020293 0.0130449 0.0233159 -0.00364346 0.0127801 0.00634017 0.00935203 0.00946827 0.00436545 -0.0125949 -0.0107717 -0.00516411 -0.00998316 0.00379907 0.00820519 -0.00122474 -0.00663631 -0.00666751 0.0256896 0.00505107 0.00193844 -0.00798056 -0.000427785 0.0184501 -0.00070992 -0.00419181 -0.00038193 0.00139184 -0.0168745 -0.00464512 0.00661363 0.00570162 -0.0125628 -0.0211471 -0.00131803 0.0105248 -0.0152623 -0.00793065 0.00263029 0.00633468 0.00610832 0.00443795 -0.0021645 -0.00789288 0.00785495 0.00851552 0.00560573 -0.0153106 -0.00294065 -0.00103693 -0.00312927 0.013417 0.00539341 0.00525757 -0.00323616 0.00584014 0.000383507 -0.00267926 0.0014659 -0.000114292 0.0137748 0.00343419 -0.00635029 0.0082894 0.00188633 0.00345837 0.0276611 -0.00330672 0.000317167 -0.00109123 -0.00690417 0.0188854 -0.0127573 0.000292594 -0.00999223 0.00799359 0.00646054 0.00887132 -0.00403854 -0.00775726 0.012008 -0.00172608 -0.00130432 0.0016895 0.00568587 -0.019681 0.00436583 -0.00992243 -0.0105273 0.0159677 -0.00389106 0.0102691 0.00349879 -0.00565307 -0.0280731 0.00348151 -0.00224449 0.00221726 -0.00873036 0.0122909 0.0101227 0.00214517 -0.0208476 0.0140458 -0.00730946 -0.0364238 0.00762065 0.00589063 -0.000335904 -0.000333948 -0.00059692 0.0098896 -0.00339822 0.0109017 -0.0165192 0.00304854 -0.0103158 0.002487 0.00585221 -0.000519882 0.00489662 0.00784709 0.00398809 -0.0016732 -0.00788146 -0.00609652 0.00564501 0.00536583 0.000975541 0.000668845 0.0228724 0.00540946 0.00307307 0.00587595 0.00664578 0.00854722 0.00912725 -0.000174055 0.00509138 -0.0178224 -0.00819025 -0.0109917 0.00112281 -0.0119548 0.0064689 0.00499511 0.0328487 0.0351362 0.00461551 0.0221427 0.0208446 0.00281971 0.0189983 -0.00591608 0.00348156 0.00236978 -0.0105912 0.000766311 0.0119164 -0.0112431 0.00113143 0.00419691 0.0142104 0.000593456 0.00442493 -0.00324072 -0.0159735 -0.0153257 -0.0011682 0.00454876 -0.0147227 -0.00290788 0.025856 0.0221456 0.0129745 -0.000829392 0.0109174 0.00254973 0.00488685 -0.0195583 0.00767816 0.00146297 -0.0220356 -0.0140689 -0.00247089 -0.0107724 -0.0144047 0.00680393 0.00278424 -0.00559201 0.00534499 0.00679685 0.0142132 -0.000282852 0.0180421 0.00370031 -0.00873599 0.00532546 0.00400075 0.0162902 0.0177102 0.022562 0.0236082 -0.0036238 -0.00164222 -0.00695661 -0.00566435 0.01779 0.0158297 0.00527452 0.0141649 -0.0105392 -0.0198803 -0.030111 0.00379344 0.00686116 0.00100407 -0.000164774 0.00484675 -0.00520639 0.00129497 -0.0117063 0.0105335 -0.00522338 -0.000880127 0.023978 0.0135498 0.0313792 0.0160976 0.0197685 0.00490953 0.0262769 -0.0360852 -0.00642903 0.030714 0.0106398 0.0177437 0.00321635 -0.0183705 -0.0126882 0.00363963 0.00278127 -0.00622698 -0.00696501 0.00185412 -0.0104075 -0.00578682 -0.00183533 0.00507049 -0.0083232 0.00107235 -0.018731 0.0207955 0.0124957 0.0255181 0.0194066 0.028542 0.0228106 0.0104292 0.00876321 0.0170731 0.0208571 -0.00263706 -0.00098795 0.0109686 0.00196855 0.00612863 0.0102039 -0.00457946 -0.00322582 0.00706869 -0.00885989 0.00621113 -0.00148431 0.024378 0.0221604 -0.00143054 0.00700022 0.0137101 -0.0021954 -0.0015541 0.022795 0.0180033 0.0195374 0.0305763 0.0265485 0.0219069 0.00833371 0.00788278 0.00552813 0.00304059 -0.0159322 -0.0039585 0.00758073 -0.00859348 0.006566 -0.000212472 -0.00232384 0.0365366 0.00658477 -0.00774817 -0.00471488 -0.0088292 0.0061803 0.00780837 0.00812868 -0.0127801 -0.0150113 0.00834117 0.00936509 0.0195069 0.00052706 0.0092273 0.0157427 0.0198318 0.0206536 -0.00372852 -0.00394617 -0.0348646 -0.0206447 0.00226353 0.0165176 0.0178576 -0.0145726 0.0255816 0.0122093 0.0165424 0.0122647 0.0196308 -0.00665924 -0.0124392 -0.0262815 -0.0146168 0.00384934 -0.00384858 -0.00689599 -0.0206092 0.0181744 0.000795285 0.0141802 -0.00291103 0.00651468 0.0141867 0.0160724 0.0235739 -0.0327279 -0.0528179 -0.01153 0.0190108 0.0198713 0.025975 0.0390637 0.0183343 0.00113108 0.0108965 0.0164619 0.010577 -0.00165004 -0.00013346 -0.0149806 -0.0127459 -0.0132962 -0.00332926 0.00436738 -0.00507454 0.00696099 0.0100076 -0.000579508 0.00799822 0.00854881 0.0243009 0.0236448 0.00910958 -0.0510837 -0.0629768 -0.0178621 0.0209695 0.0215658 0.00115763 -0.00838391 0.000404327 -0.0064185 0.00975918 0.00245393 -0.00640043 0.000448677 0.0106297 0.0138282 0.000375321 0.00476588 -0.00495604 0.00313992 0.00679301 -0.00292931 -0.00228931 0.013527 0.00019122 0.0102536 0.0190738 0.0277281 0.0118465 -0.0616067 -0.0399367 -0.00530774 -0.00245508 0.0166163 0.000384736 0.0196091 -0.0187034 0.0085054 0.00240495 0.00148728 -0.00168706 -0.0120564 0.00705761 0.0115775 0.00244235 0.00616918 0.0124006 -0.0123487 0.0010141 0.0147049 0.00124824 0.0110713 0.0211015 0.00249223 0.0318472 0.0118841 -0.0188975 -0.0312085 -0.0315227 -0.0120326 -0.00245272 0.0179367 -0.00153111 0.0106376 0.0268288 -0.00620833 0.00449361 -0.00810089 -0.0151062 -0.0148281 -0.0125065 0.00806453 0.0161234 0.0111926 0.00467385 0.00419611 -0.00246081 0.00759996 0.00230694 -0.010009 0.00630563 0.0257165 0.0346482 0.0116733 -0.0338111 -0.0358524 -0.00864175 -0.0275937 0.0143586 -0.00058213 0.00224434 0.0100497 0.00226283 0.00939622 -0.00162747 0.00306701 -0.0132647 0.00693923 -0.00200844 0.0177805 0.0243134 -0.00288012 0.00506983 -3.94757e-05 -0.0106354 0.00473209 -0.0126007 0.00177684 0.00552603 0.0209473 0.027185 0.00255718 -0.0210788 -0.0404744 -0.0303948 -0.0218325 0.00462494 0.0158665 -0.00488452 0.0267607 0.0232509 0.00801165 0.00453789 0.00561936 0.00985088 0.00245859 0.00361808 -0.00162657 -0.00603033 -0.0115517 0.0119608 0.000332397 0.00465047 0.00313222 -0.00275243 0.0252724 0.0206103 0.027933 -0.0112851 0.000662211 -0.0103043 -0.0375806 -0.0222856 -0.00264476 0.0214704 0.011317 0.0274718 0.00795865 0.000206276 0.0091471 -0.00148003 0.00346822 -0.00191661 -0.0157348 -0.00490354 0.00173648 0.0151994 -0.00144009 0.0106145 0.00638077 0.00071271 0.0157409 0.0250702 0.0220418 0.0230156 -0.00825961 0.0256806 -0.00955302 -0.0198783 -0.0209649 -0.000703341 0.0244573 0.0322334 0.0388389 0.0151599 -0.00687888 0.00736915 -0.00395292 0.0140927 0.0103952 -0.0121802 0.00481662 0.00228603 -0.0112164 0.00475059 -0.00846899 0.00142775 0.0115853 -0.00115015 0.0118018 -0.00624749 -0.00472171 0.00421458 0.0161344 0.00833747 -0.015467 -0.0340423 -0.0296886 -0.0025484 0.02167 0.0310211 0.0194763 0.0256301 0.0270187 0.00827003 0.00530375 0.00419428 0.0220344 -0.00442882 -0.00734207 -0.0225216 -0.00184165 0.00227645 0.00106086 -0.0021307 0.00243105 0.0190318 -0.000140328 0.0210983 0.0422809 0.0222214 0.00341852 0.00178347 0.0128998 -0.0194512 -0.0143139 -0.00648976 0.00651826 0.019289 0.0304569 0.0153995 0.017626 0.0201879 0.0234117 -0.00427526 0.0173151 0.0155316 -0.00598852 0.0141407 0.0111046 0.0101062 0.00849926 0.013967 0.0150707 -0.0086328 0.0177355 0.0165844 0.0165837 0.00630026 -0.00516928 0.0066017 0.0292482 0.0313066 0.00453576 -0.00173656 -0.0015791 0.0122582 -0.00269586 0.0346452 0.0195454 0.0104501 0.00773145 0.00392666 0.00607265 0.0103129 0.0067247 0.0153947 0.00560712 -0.00403685 -0.00531729 -0.0103244 0.0005644 -0.0141593 -0.00597871 0.011873 0.00739214 0.016542 0.0154789 0.0223917 0.0435557 0.014705 0.00175003 -0.00877212 0.00461497 -0.00325558 0.0124623 0.010807 0.0293183 0.0124176 0.00958102 0.0214481 -0.00870708 0.00682268 -0.00849401 -0.00436742 0.017017 0.00970888 0.0100755 -0.00279669 0.0114333 0.00326197 -0.0159931 -0.0135088 0.0130818 0.0155837 -0.00380722 0.0250484 0.0399494 0.00576926 -0.0100324 -0.00222504 -0.0121505 0.0153347 -1.88539e-05 0.0102253 0.00785399 0.00952575 -0.00705112 0.000993592 -0.0191475 -0.00202136 -0.000544439 -0.00699492 0.00191049 0.00294529 0.00263429 0.00779731 0.00647048 -0.016531 -0.0185272 -0.0182935 0.0148162 0.00484679 0.0096429 0.0342942 0.0127312 -0.0135451 -0.0179931 -0.00915981 -0.0195223 -0.00548368 -0.00812832 0.0297241 -0.00148334 0.00423829 -0.0102814 0.00356766 -0.00228895 -0.011282 -0.0176226 -0.0014727 0.00511427 0.00119842 0.013341 -0.000373447 0.00314352 0.00277347 -0.0150845 -0.00343339 -0.00239812 0.0240165 0.0262572 0.0309308 0.0389063 0.0174179 0.00984001 0.0073994 0.0101557 -0.00146637 0.00784947 0.000359667 0.00211203 -0.00300474 0.0115683 0.00503117 -0.0052798 -0.00400684 -0.00783057 0.00120964 0.00442348 0.00617756 -0.0146008 -0.00342401 0.00517281 -0.00776876 -0.0192728 0.00661285 0.00590771 0.0162928 0.0048441 -0.000479097 -0.000924768 -0.00190676 -0.00232493 0.00999666 -0.0162738 0.0101896 -0.00875788 0.0129423 0.0199582 -0.0150815 0.00366263 -0.00967097 0.00563882 -0.00153613 -0.00271041 -0.00840996 -0.00337412 0.0122476 -0.0121429 0.00203036 -0.00642617 -0.0154101 0.0101624 -0.0218162 -0.001592 -0.00373525 -0.00276977 0.0086684 0.0179608 0.0109284 -0.00974806 0.00370243 -0.00851177 -0.00321737 -0.00593249 -0.00597184 0.00217034 -0.0104667 0.00413194 -0.00177759 -0.00304645 -0.0136914 -0.0062479 -0.00160055 -0.0045293 0.0335301 -0.00635353 -0.00727929 -0.00861544 -0.000777473 0.00158502 -0.00334963 0.00108022 0.0122619 -0.0128802 0.0106787 -0.00186395 -0.00257597 0.0157081 0.00876129 0.0129482 0.0153021 -0.00453094 -0.00873531 -0.0141483 0.00270187 -0.00670206 0.00661969 -0.0133992 -0.00730588 0.00686016 -0.00749445 -0.0011952 0.00252275 0.0178966 -0.00678167 0.0107548 0.0171256 0.0214915 -0.0168129 0.019783 -0.0133387 -0.00760585 -0.00613767 -0.000104225 -0.00301932 -0.0197813 0.013801 -0.00302247 0.00441633 0.00392328 -0.00189089 -0.00544678 9.88186e-05 -0.00539544 0.00699613 -0.00127787 -0.0221634 0.0137914 -0.00420928 -0.00275419 0.00386219 -0.00509883 -0.0163917 -0.00480721 0.0185511 -0.00737794 -0.00883114 0.00239796 -0.00659351 0.00186339 0.00585004 0.000569008 -0.0089894 0.0022395 -0.00428938 0.0150336 -0.0107639 0.00522418 0.00798449 -0.01325 -0.0105176 -0.0130744 0.00569262 0.0019811 0.00547099 -0.0117987 -0.000877735 -0.00771965 0.00319727 -0.00566372 -0.0112519 -0.0110211 -0.000578637 -0.00989732 0.00918472 0.00598736 -0.00149916 0.0138273 -0.0164988 -0.0199227 -0.0243877 -0.0122635 -0.0246969 -0.00580318 -0.00866284 -0.0143495 -0.0120469 -0.014149 -0.0106473 -0.0041759 -0.0102883 -0.00987441 -0.00333931 0.00513598 0.0108029 0.0129089 0.0106403 -0.0023291 0.00175263 -0.00216211 0.0142321 0.0034162 0.00982664 -0.00297558 -0.00440383 -0.0052631 -0.0117851 -0.0269966 -0.00576679 -0.00217059 -0.00761504 -0.0289951 -0.0147666 -0.0404937 -0.0293064 0.00429329 0.00215954 -0.0162695 -0.011403 -0.0120817 -0.00388598 -0.00699103 0.00715783 -0.00444662 0.00731935 0.00756646 -0.00444646 0.0182652 -0.000562844 -0.00332286 0.00839294 0.0108445 0.0172501 0.00198264 -0.00530342 -0.011064 0.00684078 0.0121851 0.00759043 0.00842025 -0.0125076 -0.00704056 -0.0338134 -0.0280401 -0.0288802 -0.0118324 -0.00558374 -0.00173643 -0.0176418 -0.00774084 0.00615796 -0.00266697 -0.00988815 -0.00112191 0.00819962 0.00617005 0.0173611 0.00048811 0.014744 0.0329003 0.00612783 0.0252052 0.0032818 0.0128385 0.0111401 0.00774623 -0.00688402 0.00735908 0.0217246 -0.0334091 -0.00969873 -0.0273209 -0.0134203 -0.00107301 0.0063839 -0.0142381 3.4154e-05 0.00491904 0.00369016 0.00342579 0.00123523 0.00228833 0.0133853 0.0109193 0.0190548 0.0142612 0.0314757 0.018955 0.0350273 0.0190465 -0.00198158 0.000906292 0.0334492 0.0341373 0.0471103 0.044725 0.0253089 0.0146621 -0.00163493 -0.0146154 -0.00699635 0.00414378 0.00428625 0.00175514 0.000258109 -0.00659348 -0.00233431 -0.0149847 -0.0146692 0.0111029 -0.0135207 -0.000102161 0.0112431 0.000263731 -0.00973869 0.0276083 0.0149234 0.0307232 0.023963 0.0186996 0.0156246 0.0268972 0.0420902 0.050485 0.0358719 0.0269212 0.0109893 0.0171045 0.0259059 0.0288764 0.00568948 7.03517e-05 -0.000744447 0.0105742 0.00889088 -0.00299155 -0.0110889 0.00422279 0.00191501 0.00370523 0.0153179 0.0149281 0.012671 0.00673514 -0.00293845 0.0154063 0.00332837 0.0181043 0.0157931 0.0185888 0.0456082 0.0459514 0.0213445 0.0253735 0.0443434 0.0396877 0.0484707 0.0336868 0.0234391 0.000807862 0.00083479 0.00571047 0.00148478 0.00199739 -0.00737249 0.0149645 0.00970249 -0.00896189 0.0167722 0.0111617 0.00728515 0.00971135 -0.00329902 0.0162161 0.0164985 -0.00129714 0.0146331 0.00789028 0.0239459 0.0275139 0.0466074 0.044168 0.049497 0.0450517 0.0326573 0.0260978 0.0182098 0.00388775 -0.00198232 0.0162151 -0.00117912 -0.000145707 0.00642259 -0.00291831 0.0150552 -0.00211193 0.002577 0.0327382 0.00335737 -0.0128444 0.0162726 0.00248904 -0.0106214 0.000866677 -0.0139392 -0.0243056 0.00369521 0.0214771 0.0235395 0.0382784 0.0307545 0.0327882 0.0292273 0.0184893 0.0249534 0.00263296 -0.00313452 -0.00301477 -0.0163085 -0.00925511 -1.03547e-05 -0.00170628 0.00662239 0.00789439 0.00803516 0.00670105 -0.024481 -0.0260973 -0.00417421 -0.00373898 -0.00318411 -0.0123388 -0.0179467 -0.00919229 -0.0202817 0.0110444 0.016041 0.0232749 0.00719481 0.00994987 0.0147018 -0.0122998 0.00867804 -0.00779677 -0.021399 0.00736659 -0.00625319 0.00439623 0.00851731 0.00938476 -0.00399276 0.00101835 0.0284788 0.00681747 -0.0190437 -0.00598979 0.00952781 0.0161843 0.000984146 -0.0270133 -0.0147102 -0.0348408 -0.0201595 0.000611708 0.0160122 0.00560145 0.00692902 -0.00416984 -0.000363716 -0.00124607 0.00137777 -0.00195123 -0.00409881 -0.008177 0.00618318 0.00508909 -0.0103514 -0.00254868 -0.00737489 0.0175637 0.0016744 -0.00682413 -0.0252255 -0.00565065 -0.0210968 0.00135396 -0.0123458 -0.0169594 -0.00728758 -0.0287279 -0.0259387 -0.000431137 -0.013428 -0.0111532 0.000937685 -0.0176831 -0.0275096 -0.0306618 -0.0188074 0.0137887 0.00885182 -0.0121565 -0.0105692 -0.00619936 -0.00818912 -0.0222513 0.0071413 0.021692 -0.00736318 0.00122133 -0.00740955 -0.0163072 0.0202005 -0.00190924 -0.00148087 -0.00259929 -0.0129861 -0.0280686 -0.0343723 -0.00850959 0.0125004 -0.0118116 0.00305546 -0.0103062 -0.00654937 -0.012804 -0.00492525 0.00784085 -0.00593196 0.0109716 0.000267063 0.0199011 0.0129221 0.0123265 -0.00184052 0.00211807 0.0167413 0.0207431 -0.00757928 -0.00306705 0.0019577 -0.00315796 0.0163752 0.0211534 -0.0144772 -0.026565 -0.0162435 0.0209888 -0.00346229 0.00467172 0.0023624 -0.00948735 0.00140905 -0.0328376 -0.0153456 0.0102201 0.00724787 0.00914327 -0.00764372 0.00573793 -0.00268707 0.00198469 -0.0167834 0.0018955 -0.00796557 0.0252772 -0.000290174 -0.00790774 -0.00585706 0.00324075 0.0113812 -0.00925432 -0.0121017 -0.00910786 0.0154974 0.029962 0.0121653 0.00358032 -0.000952425 -0.0178903 -0.0201569 -0.0258235 -0.00473094 0.00969794 0.00359294 0.0122173 0.00649041 -0.000230383 0.0254358 0.0168559 -0.00807522 0.0222518 0.0160706 0.0290757 0.0208609 -0.00388572 -0.0398727 -0.0108649 -0.0177273 -0.024225 -0.024416 -0.00831517 0.0256105 0.041556 0.0119293 -0.0116177 -0.0152717 -0.0260441 -0.0136842 -0.0207807 0.0001674 0.0221345 -0.00168648 0.0150852 0.00524267 -0.00767237 0.00698147 -0.0160578 0.00938572 0.0212436 0.0172835 0.0272073 0.0377227 -0.00742397 -0.0191882 -0.0256549 -0.0230908 -0.0261895 -0.0294128 -0.00929227 0.0151773 0.0151863 -0.016339 -0.0117834 -0.0259159 -0.0166449 -0.00286 -0.0103479 -0.0016289 0.0232771 0.0166722 -0.0154142 -0.0153602 0.000815695 -0.0140046 0.00637343 -0.00907049 0.00521907 0.0265214 0.0237861 0.0288023 0.00311383 -0.00561361 -0.0351052 -0.0277735 -0.0262369 -0.00935451 -0.0247173 0.000435852 -0.0198497 0.0100678 -0.00706137 -0.00485978 -0.00726889 0.00328024 0.0205013 0.0122509 0.00376267 -0.00431078 -0.0175581 0.00600968 -0.0016904 -0.0063517 0.0103672 -0.008612 0.00241805 0.0108048 0.0216034 0.0244911 0.0189485 -0.0092683 -0.0113547 -0.0413793 -0.0349526 -0.0263033 -0.0294076 -0.0133099 -0.0138875 -0.00229973 -0.00550709 0.00368575 0.00725825 0.0149156 0.0162446 0.00781943 0.0146626 0.0121612 -0.0032745 9.21335e-05 0.00457421 0.01668 -0.0089955 0.00834311 0.00829717 0.0170747 0.0157123 0.0149621 0.0273592 0.0232266 -0.00651953 -0.00691827 -0.0122236 -0.0346644 -0.0274923 -0.0258557 -0.0162877 -0.0153674 -0.000964081 0.0141129 0.0200423 0.0140615 -0.00494034 0.0157399 -0.00325333 0.00211382 -0.0123753 0.00278692 -0.00437415 0.0126956 0.000207131 -0.00221163 0.0109745 0.0263015 0.00795624 0.00264406 0.00534749 0.020931 0.007342 0.0169296 0.0225763 0.00636784 0.00720857 -0.0111727 -0.00761278 0.0174654 0.0118906 0.0169551 0.0335428 0.00373215 0.0117765 0.00945562 0.00396901 0.00967395 0.00587139 0.0219672 -0.00888904 -0.0136994 -0.00459198 -0.0106312 0.0022279 0.0126416 -0.00040728 -0.0202635 -0.0181121 -0.0253554 0.0158896 0.0145985 0.00934301 0.0139371 0.0201306 -0.00601734 0.00135844 -0.00994113 0.0107023 0.0164419 0.0103539 0.00546171 0.00293356 0.0114487 0.00235462 0.000416196 -0.00587976 0.00697848 0.0197128 -0.0151792 0.00658242 -0.0130311 0.000610227 0.0144522 -0.00828963 -0.0115086 0.0157175 0.00404901 0.0152954 0.0120715 0.0215789 0.0245559 -0.00169323 0.0205695 0.0161589 0.00698352 0.0041625 0.0102724 0.0153742 -0.0110633 0.0162697 0.00017214 0.00712772 -0.0154802 -0.0215189 -0.00111453 0.00923909 0.0192041 0.00142764 -0.00434522 -0.00322696 -0.0100038 -0.00105438 0.00863544 0.00537173 0.012154 0.00441442 0.0065716 0.0144058 0.00638491 0.00501385 0.00632495 0.00350606 0.01341 0.000612707 0.00366306 0.0152292 0.00803884 -0.0212374 0.0120539 -0.00663681 0.0195204 -0.00731355 0.00947268 0.0109428 0.00157942 0.00446389 0.00217228 0.00629324 -0.0156547 -9.425e-05 0.0142686 -0.00820833 0.00916769 0.00907507 0.0104297 0.0232508 0.00361985 0.00350914 -0.00427366 0.0163105 0.0120808 0.0126741 -0.00728438 -0.00827754 0.00566914 0.0040913 -0.000518185 -0.00714479 0.011122 0.00238852 -0.0093036 0.00891273 0.00715094 0.0132079 0.0038134 0.00722218 -0.000857996 0.012614 0.0143106 -0.00643236 0.00393247 -0.0193951 -0.00755023 -0.00650381 0.0104053 -0.0120508 -0.0107317 0.00839876 -0.017219 0.00141253 -0.00312481 0.00496572 -0.00973015 -0.00734216 0.00160969 0.00214952 -0.0151836 -0.00370587 0.00353567 0.00332653 -0.00127647 0.0021509 -0.00917809 0.00175229 0.00726764 -0.00910486 -0.0035887 0.00367677 -0.00720258 0.000198061 -0.00295372 -0.00987834 0.00442622 -0.0115371 -0.0150652 -0.024124 0.0158409 -0.00127307 0.008233 0.00112113 0.0100109 0.00605511 -0.0108473 0.00248493 -0.000908882 0.00915248 0.0100233 -0.00135327 0.00013815 0.00468647 0.0180352 -0.0130165 0.0140394 0.00592812 -0.00453023 0.00121086 -0.00179523 -8.01935e-05 0.0160621 0.024058 -0.00689913 0.0030452 0.00477458 -0.00132279 -0.00274633 -0.00759223 0.00480647 -0.00220604 -0.00295417 -0.01531 -0.00714726 -0.00586785 0.0207371 5.26076e-05 -0.00627233 0.00685152 -0.00199188 -0.0162036 0.00182467 0.00712535 0.0156977 -0.0041455 0.00317917 -0.0153906 -0.0158182 0.0186681 0.00912402 -0.00467714 0.0134412 -0.011324 0.0155446 0.000447202 -0.00333694 -0.0150279 -0.0100168 -0.0227655 -0.00791059 0.0138475 -0.00426561 -0.0114052 -0.00611929 0.0202203 -0.00713407 -0.0110465 0.00382203 0.00194991 0.00218198 -0.00332068 1.66635e-05 -0.00654268 -0.00503086 0.0109623 0.00766617 0.00738796 0.00512707 0.0108923 0.0262933 -0.0033763 0.0111735 0.0116646 0.000615375 -0.00194987 0.0072333 0.00131815 0.0114002 -0.0115929 -0.0194338 0.00301876 0.0151563 0.00259753 -0.00228588 0.0119925 0.00639766 -0.00268765 -0.0204235 0.00519962 -0.00754607 0.0117934 -0.00617359 -0.000835543 -0.00836809 0.00207679 0.000267916 -0.019749 -0.00260663 -0.017037 -0.0190959 0.00386056 0.0138631 0.00177344 0.0148321 -0.00648849 0.0204445 0.0105429 0.0133978 0.000291863 -0.0170426 0.00189352 -0.0122207 -0.00131711 -0.00678385 -0.00196809 -0.00352027 -0.00972687 -0.00444723 0.0145296 -0.0101736 0.00360053 0.00245647 0.0276901 0.0280171 0.0160486 0.00516485 0.0122966 -0.00496677 0.0109733 0.00941413 0.0358119 -0.000793026 -0.00236877 -0.00432763 -0.00329759 0.0106788 0.00519065 -0.00794645 0.0208461 -0.0123305 -0.00288469 -0.0137107 0.0129105 -0.00954397 -0.0116841 -0.0184981 -0.00898553 0.00178897 0.00276831 0.0262976 0.00283036 -0.00891186 0.00473671 0.0171198 0.0292453 0.00603145 0.0105286 -0.00401484 -0.0118325 -0.000782909 0.017757 -0.00495695 -8.21195e-05 -0.0295631 -0.00884692 0.000715762 -0.00251194 -0.00801857 -0.0121245 -0.00192242 -0.00681825 -0.00834691 0.00600225 0.00573218 -0.0257497 -0.00631434 0.000807912 0.0153735 -0.0070309 0.0051363 0.0265851 -0.00251891 0.0283602 0.021528 0.0418398 -0.00693834 -0.0135572 0.00653659 0.000560936 0.015825 0.00137222 -0.0190044 -0.0122241 -0.0168638 -0.00568572 -4.44931e-05 0.00526855 -0.0067845 -0.00388281 0.00563274 -0.0141412 -0.00599045 -0.00370938 0.0217903 0.0289232 0.0177659 0.0303242 0.0314197 0.0181322 0.0217477 -0.00807991 0.0147617 -0.015667 -0.0146061 -0.0337243 0.0079972 -0.00157373 0.0101962 0.0211121 0.0123813 0.00192704 -0.00818655 -0.00761077 0.0127699 0.0114756 0.00301519 0.00784197 -0.00197827 -0.00176546 0.0125576 -2.17604e-05 0.0250855 0.0291706 0.0277778 0.0490165 0.0492164 0.0302325 -0.00516253 -0.0479247 -0.0173122 -0.010974 -0.0113312 -0.0102748 0.00583496 0.000146269 0.0330649 0.0226347 0.0186731 -0.00416678 -0.0102419 -0.0156027 -0.0135415 0.0174707 0.00881662 0.00603771 0.000930523 0.00737675 -0.0188124 0.0238789 0.0154386 0.0261403 0.0249253 0.0346971 0.0540305 0.0465545 -0.0136903 -0.0515349 -0.0204099 -0.0118722 -0.00350019 0.0334915 0.012939 -0.00186087 0.0362427 0.0262744 0.0141627 0.00852467 -0.00831858 0.00340211 0.00415439 -0.0153484 0.00113506 0.00137454 -0.00297554 0.0137102 0.0102594 0.0186461 0.0139412 0.0344648 0.00174986 0.00453086 0.00799163 0.00567761 -0.0247118 -0.0542272 -0.0253311 0.0133218 0.00827578 0.0105092 0.0200197 0.028043 0.0536464 0.023694 0.0194114 0.0121193 -0.00700459 -0.0213062 -0.00283562 0.000819393 0.0184397 -0.00594551 0.00294872 0.000656387 -0.00684226 0.00243478 0.00897259 0.020073 0.017566 -0.0147844 -0.00842411 -0.028103 -0.0408385 -0.0604571 -0.0270471 -0.0244465 -0.0130085 -0.0050309 -0.000284695 0.0200926 0.0210458 0.00651381 0.0132948 -0.00330321 0.0048493 0.0142346 0.000716703 0.00426269 -0.00283504 -0.000731335 -0.0146646 0.0119564 0.0123924 0.0340759 -0.00365356 -0.0107927 0.00123257 -0.0271838 -0.00743783 -0.0159103 -0.0521321 -0.0513737 -0.0209282 -0.00873255 -0.0306543 -0.0167898 -0.00120576 0.0244117 0.0100351 0.0195718 0.030187 0.00647889 0.00502527 -0.0175061 -0.000851327 0.00862546 0.0084913 0.00743619 -0.00459334 0.002379 0.0012973 0.0185891 0.0270598 0.0230363 -0.0205001 -0.0125083 -0.0222948 -0.0125393 -0.0488756 -0.029238 0.0196141 0.0313358 -0.00336381 -0.0142219 -0.0201579 -0.00496633 -0.0271496 -0.0134258 0.0100788 0.000457817 0.00764541 0.00423876 -0.0113417 -0.00345069 0.00344628 0.00300355 0.0073828 0.000425132 0.0224567 0.0119756 0.0431496 0.0215711 -0.00357448 0.00721973 -0.00398426 -0.00805085 -0.0085759 -0.0105663 0.0389697 0.0566376 0.0167271 -0.0186282 -0.00486561 -0.0295829 -0.0360466 -0.0187966 -0.000563577 0.0125919 0.0201937 0.00634133 -0.0130363 -0.0117535 0.00529909 -0.0251511 -0.00837066 -0.00545425 0.0339711 0.0086714 0.0408687 0.0374436 0.0307518 0.0144483 0.0438399 0.030612 -0.00722683 -0.0127075 0.0345874 0.0276238 0.0173568 0.0138862 0.00288278 0.00120724 -0.0097913 -0.0155346 -0.00442034 0.000700631 0.00403178 -0.00737952 0.00714686 -0.00781691 -0.00375508 0.00145688 -0.016217 0.00108879 0.0129463 0.0212925 0.0263997 0.0433002 0.062753 0.0780935 0.0683523 0.0500872 0.0123296 0.0310135 0.0336063 0.0212234 0.00548673 -0.00442126 -0.0171177 0.0144156 0.0100346 -0.00472664 -0.00581761 -0.00122075 0.00417819 -0.0174606 -0.00983687 0.00599239 -0.0112514 0.0159711 0.0007379 -0.010854 0.00235242 0.0113009 0.0222206 0.0305303 0.0556151 0.0683547 0.0545683 0.055129 0.0398124 0.0408031 0.0171788 -0.00414291 0.00438122 0.00980373 -0.0165648 -0.00138406 -0.0140998 -0.0156699 -0.00961075 0.000874184 0.001984 0.00521296 0.00517947 -0.00678433 0.00338646 0.00718374 -0.0234097 -0.00548531 -0.00739281 0.00402638 0.00914896 0.0191222 0.0417878 0.0589012 0.0528236 0.0314625 0.0405715 0.0457621 0.0107034 -0.00431996 -0.00589469 0.00518041 0.00567609 0.00152437 -0.0126427 -0.018346 0.00731359 0.00222975 0.00235796 -0.00764197 -0.00992222 -0.00897117 0.0138128 -0.000348864 -0.0317356 -0.0103501 -0.0182044 -0.0155725 -0.0163071 -0.00076267 0.0235485 0.0190174 0.0246405 0.0356766 0.00248314 0.0118042 -0.00657747 0.00389095 0.00391962 0.0225391 0.0206158 0.0251169 -0.0101077 -0.00650613 0.016547 0.0148393 0.0074019 -0.00259002 0.018139 0.0119197 0.00759955 0.00099136 -0.0133802 -0.0193194 -0.0263472 -0.0237091 -0.0329798 -0.0185355 0.0177905 0.00579183 0.00362223 -0.0203641 -0.00028618 -0.0145921 -0.00146099 0.0048844 0.0069899 0.00705226 -0.00153268 0.0360683 0.00121386 0.00891841 0.00715143 0.0147399 -0.00366189 0.00726232 0.00173587 -0.000328823 0.0105874 -0.0169645 -0.0104769 -0.0290922 -0.020821 -0.0281862 -0.0296733 -0.0340598 -0.025498 -0.0057671 -0.00788532 -0.00220167 0.00545889 -0.00316541 -0.0163353 0.00157368 -0.00192411 0.00427146 0.014624 0.00746397 0.0281 0.0266938 0.0115609 -0.0145579 0.00704001 -0.004331 0.00375624 0.00623098 0.024828 -0.0120967 -0.0184669 -0.0180967 -0.0203203 -0.0282618 -0.0483348 -0.0232837 -0.0396105 -0.0433436 -0.0292678 -0.00353923 0.00113021 0.0138434 0.0144802 0.00655723 0.0196217 0.0170398 0.0177238 -0.00589735 -0.00176699 0.0112024 0.00383994 0.0074106 0.00701985 0.00960759 0.000450586 -0.0129008 0.00217997 0.00251459 -0.0049373 -0.00227072 0.00676449 -0.0172574 -0.0383773 -0.044036 -0.0537421 -0.0245045 -0.0187266 0.0295682 0.0521333 0.0439422 0.0378276 0.0429271 0.00805515 0.00508175 0.00718146 0.00426538 0.00590011 -0.00929907 0.0150772 -0.000219548 0.0026977 -0.00337429 0.00348397 -0.0161511 -0.00376511 -0.0134393 0.0128503 -0.00674705 0.0077619 0.00720231 -0.0137774 0.00837384 0.000898204 0.00675676 -0.002267 0.031228 0.0131802 0.00433701 0.0183283 0.0128651 0.0132665 -0.00578149 -0.00667142 -0.00181802 0.00742149 0.0104078 -0.00545227 0.0244217 -0.00644009 0.00957421 0.0132431 0.00254531 0.0114037 0.00596703 0.00479441 -0.00475455 0.0134383 -0.00795316 0.00285942 0.00361494 0.000336115 -0.00303686 0.00119092 0.00981402 0.00892771 0.0192361 0.00583206 -0.00183684 0.0115751 0.014139 0.00693698 0.00179251 0.0114255 -0.0175671 0.0224078 0.0113987 0.0136357 -0.0210611 -0.0146372 -0.0181165 -0.00639934 0.00301593 0.00677204 0.00168102 -0.000280375 0.0156053 0.00159992 -0.00409099 -0.00779778 0.0153601 -0.0135803 -0.00170407 -0.0162555 -0.000259163 0.0109648 0.00080557 0.00605226 0.0123137 -0.0114381 -0.0105484 0.00232518 -0.0175544 0.0103689 0.028334 0.00515207 0.0050981 -0.0154313 -0.0166714 -0.0129079 0.0028618 0.0184148 0.000772951 -0.00931354 0.0063842 -0.00940185 0.00523337 0.010671 0.00491209 0.00765042 -0.00378353 -0.0037813 -0.00835364 0.0207896 -0.00702012 -0.0154584 -0.00563149 -0.00891942 0.0149582 0.00450357 0.0126029 -0.00784505 0.00683716 0.0172547 0.00116297 -0.011467 0.00730294 -0.00620376 0.0129292 -0.0260734 -0.00595785 0.00415266 0.00038906 0.00270442 0.0159145 -0.00183453 -0.00632728 -0.000216205 -0.00439799 0.008156 0.0158078 0.00543109 -0.00588593 -0.00166721 0.00644895 -0.00508215 0.0122869 -0.00678647 -0.00587666 -0.000354846 0.0161423 0.0024009 -0.00841576 0.00160787 0.00366169 -0.0171932 -0.000726201 0.0174809 0.00557279 -0.0139609 0.000444946 -0.00159732 -0.00437146 -0.0112644 0.0160024 0.0140579 -0.000293922 -0.00263219 -0.00918011 -0.00278458 0.0106274 -0.0234964 0.00643827 -0.00590271 3.78681e-05 0.00741071 0.0116669 0.00761194 -0.00276352 -0.00974672 0.000787204 0.00279556 0.00692233 0.0146553 -0.0109259 0.0235165 0.00408202 -0.0213653 -0.00459482 -0.00353746 -0.0124791 -0.00986424 -0.0225076 -0.0147924 -0.0193317 0.00265791 -0.0100231 -0.0143133 0.00264849 -0.00744719 -0.0128661 0.00397654 0.00175985 0.0119449 0.0102112 0.00221844 -0.0161857 0.0122214 -0.00723435 -0.0294441 -0.00709764 -0.00488945 -0.0036265 -0.00440942 -0.00325618 0.00159221 0.00323842 -0.000976147 -0.010964 -0.0189822 -0.0264961 -0.0361012 -0.0397469 -0.0299564 -0.0271778 -0.0146995 -0.0140476 -0.00523964 -0.019829 -0.00318171 0.0182761 0.00196407 0.0069154 0.00786034 -0.00567294 0.00475437 -0.00103529 0.00356633 0.0182586 -0.00601511 -0.00471159 -0.00654274 0.0098633 -0.0147988 -0.0241525 -0.00684208 -0.0169051 -0.0298559 -0.0386947 -0.0358967 -0.027598 0.000194285 -0.0114722 0.00303481 -0.00640545 -0.00070014 0.0151064 0.005927 0.0138824 0.00556252 0.020282 -0.00667104 0.0162184 0.00242067 0.00277314 -0.000817951 0.00206205 -0.0168571 -0.0110759 0.0159309 -0.0181832 0.0209051 0.00698739 -0.0154121 -0.0281196 -0.00916986 -0.015147 -0.0149392 -0.0179066 -0.00525286 0.00292394 -0.0215402 -0.00327429 -0.0148956 0.012425 0.016265 0.00921814 0.00327293 0.00618611 0.00148715 -0.00852945 -0.00123163 0.0102148 -0.0355835 -0.00732122 -0.00394427 -0.0154095 0.00165416 0.0100756 -0.0201616 -0.0115813 -0.0347865 -0.0204416 -0.032763 0.000366714 -0.0018773 -0.013414 -0.00518601 -0.00357891 0.00107485 0.00939563 0.00358308 -0.00411058 0.0058162 -0.01652 -0.0149174 -0.0134663 0.00549747 0.0143032 0.0184953 0.00479197 -0.000226431 -0.00837242 -0.00405557 -0.00461487 -0.00606325 -0.0116873 -0.0288514 -0.0193633 -0.0147078 -0.0206984 -0.00280422 -0.00112651 -0.0192165 -0.00841135 -0.00150293 0.0061168 -0.0223329 -0.0224056 -0.0415217 -0.0127571 -0.00404873 -0.0143945 -0.02424 -0.0229268 0.0168145 0.0113568 0.00975223 -0.0156038 0.0039194 0.000972364 0.00247009 0.00681892 -0.00382954 -0.0125934 -0.0211629 -0.0266559 -0.0166892 -0.00209226 0.0259901 0.00358102 0.0136071 0.0228447 0.00478827 -0.0357817 -0.0450925 -0.0703708 -0.0389602 -0.0477419 -0.00290421 -0.0141231 0.00091946 -0.00653233 0.00345686 0.0182261 -0.00029821 0.00460865 -0.00920984 -0.00874687 0.0187743 -0.0100028 -0.0018208 0.00091628 -0.00953739 0.00246355 -0.0142895 0.0278474 0.0337067 0.0204728 0.0377885 0.0390846 0.0126837 -0.0298299 -0.0519945 -0.0539929 -0.0685467 -0.0235795 -0.0261883 -0.00731384 0.000812309 -0.00431117 0.0125996 0.00628476 0.00907209 -0.00121682 0.00645308 0.000177403 -0.00910783 0.000794962 0.000838455 -0.00159032 -0.00260296 0.0128929 0.0277536 0.0515583 0.0472553 0.0383897 0.0393165 0.0231547 0.0383519 0.0054401 -0.0338195 -0.0424562 -0.0381723 -0.015253 -0.0152731 0.00788009 0.00947267 0.00952829 0.00892175 0.0178243 -0.00962851 -0.00600764 0.00969575 -0.0060404 -0.00475293 0.0038468 -0.0167254 -0.00959786 0.00152436 0.0244114 0.026749 0.0225252 0.0393926 0.0124499 0.0238272 0.0284569 0.0431865 0.0241762 0.0209226 -0.00150263 -0.000503402 0.00172548 0.00892427 0.00870255 0.0251864 0.0177207 0.0086445 0.0116014 0.00628495 -0.00120515 -0.00593144 0.00443311 0.00636343 0.0107284 -0.0102087 0.0147391 0.00619603 0.0212889 0.025237 0.0222288 0.0693991 0.0338769 0.013869 -0.0083463 0.00294079 0.0431824 0.0388198 0.0220557 -0.0251197 -0.0115284 -0.0127804 0.022897 0.00865323 0.0257189 -0.00102416 0.00866721 -0.00333988 0.0153215 -0.0323055 -0.0163989 0.00377879 -0.0188051 0.00578114 -0.0134934 -0.00547711 0.0151974 0.0235509 0.040181 0.0216195 0.0207769 0.0209402 0.00707871 0.0402345 0.0318155 0.0254978 0.000474538 -0.0105193 -0.025129 -0.0153546 0.0148425 0.00568128 0.00489515 0.0201327 -0.00103246 -0.0140008 -0.00221217 -0.0244806 -0.000442102 -0.00607238 -0.000655956 -0.000410906 -0.00980648 0.0214128 0.0339673 0.0231537 0.0385389 0.0243338 0.00249905 -0.00641452 0.0205314 0.0344003 0.0164946 0.00329001 -0.0217031 -0.0213172 -0.0178373 -0.0258808 0.00409375 -0.00558579 -0.0196331 0.0045555 -0.00291835 -0.00397135 0.0132946 -0.0213004 0.00555976 -0.0101979 -0.00108265 -0.0125902 -0.008439 0.000371351 0.011847 0.0349941 0.0169245 0.021793 0.00991193 0.0286132 0.0445563 0.0261151 0.0249717 -0.0060042 -0.0123326 -0.0317117 -0.0141662 -0.0118429 -0.0204392 -0.00861699 0.000684061 -0.000603797 0.014495 -0.00550369 0.000100498 0.0143072 0.0121329 0.00466671 0.00647639 -0.018088 -0.00656789 -0.0101422 0.0219765 0.00817586 0.0328243 0.0326371 0.0452311 0.0229815 0.0296929 0.00877723 0.0161111 -0.0135143 -0.0267915 -0.0334609 0.0039795 -0.0103905 -0.0137472 -0.00622971 -0.0190862 -0.0124596 -0.0067507 0.0159816 -0.0082224 -0.0115511 0.00898829 0.00653592 0.0148439 0.00724877 -0.0124626 -0.00709017 0.00461309 0.0154746 0.0362158 0.0299004 0.0288073 0.0258435 0.0432032 0.020321 0.00301994 -0.0302014 0.0102134 0.00937303 -0.0114039 -0.0138076 -0.0223931 -0.0193706 -0.0235735 -0.0240032 -0.0107271 -0.0146604 0.0135952 0.00700356 0.0120027 0.000357323 -0.00339231 -0.0140062 -0.0220544 -0.0148826 0.00131582 -0.00388628 0.0132344 0.0151073 0.0267958 0.00859534 0.00392525 -0.0116513 -0.023059 0.00101082 -0.0362627 -0.00262189 0.00329153 -0.00393644 -0.00500151 -0.0210613 -0.00967376 -0.00608551 0.0086175 0.00533557 0.000956895 -0.0139518 0.0134974 -0.00735736 -0.0144056 -0.00900132 -0.0218681 -0.013531 -0.0255554 -0.0194189 -0.0204547 -0.013442 0.00202935 -0.00169103 -0.0138535 -0.00663873 -0.00348376 -0.00424818 0.0155716 0.0259536 -0.00343457 -0.00874653 -0.0353014 -0.0166262 0.0102605 -0.0154937 -0.00691145 0.012045 -0.00136724 0.0157018 -0.0103035 -0.0195901 -0.00974167 -0.0130922 -0.0248424 -0.019603 -0.0157492 -0.00430244 -0.0209773 -0.0166064 -0.00754117 0.00635041 -0.0148653 -0.00257636 -0.00405533 -0.000469374 -0.00357493 0.00907564 0.00964893 -0.0141994 -0.0289644 -0.00944768 0.0253707 0.00729507 0.00244078 0.00713327 -0.000739891 0.00531485 -0.00465596 -0.000944893 -0.000258809 -0.00951567 -0.00831807 -0.0238346 -0.0274008 -0.000950586 -0.00194271 -0.0293837 -0.0031668 0.00378727 0.00382564 0.0192071 -0.00368559 0.0109867 -0.00677128 0.000903285 0.00656183 0.00335362 0.000210531 -0.0068828 0.00994937 0.0249433 0.00475208 -0.00684578 0.00169676 -0.00339177 0.00153827 0.00646843 -0.00946836 -0.0156372 -0.0235246 -0.0187122 -0.0416074 -0.017196 0.00325804 -0.0100248 -0.00873989 0.0168876 0.0251132 -0.00664552 0.0145582 -0.00416441 0.00939272 0.0142507 0.0392182 0.00541417 0.0112475 0.015118 -0.00975533 -0.000425331 -0.00479859 -0.00369334 -0.00148877 -0.0180436 0.0148364 -0.00881661 0.00978492 -0.0174844 0.00735191 -0.0255071 -0.0304129 -0.0240881 -0.0325213 -0.0187267 0.0108735 -0.00724969 -0.0134952 -0.021219 -0.0202531 0.0106811 0.00498853 0.0186723 0.0117471 0.0068806 0.00863165 -0.00123393 0.0115865 0.00219797 0.0203812 -0.0118605 -0.0140453 0.011413 0.00633623 0.0167401 -0.00576012 0.00645216 0.0064863 0.00817731 0.00904816 -0.0121304 -0.0168331 -0.0281192 -0.0312846 -0.0174615 -0.01136 -0.0380144 -0.0284366 -0.0224103 -0.00754897 0.0175194 0.00714541 0.0267968 0.00410937 0.00439818 -0.00632211 -0.00477713 -0.0170721 -0.0109639 -0.0114579 -0.00633236 -0.011232 0.019645 -0.0082272 0.00185032 0.00208877 -0.0040683 -0.0187356 -0.00404608 0.0196085 0.0038465 -0.0148945 -0.00986591 -0.0214699 -0.0140131 -0.0125175 -0.00744963 -0.0062191 0.00896129 -0.0140382 0.0117847 0.00309834 -0.00146151 0.00149151 -0.00365549 0.0131962 0.015704 -0.00206026 0.015447 0.00275359 -0.00409794 0.00144871 -0.0188426 0.00835493 -0.0150591 0.00561328 0.00842595 0.0140086 -0.00764204 -0.0196165 0.00174652 0.00147017 0.0016709 -0.0114834 0.0105432 -0.00880203 0.00378292 -0.000934099 -0.00444908 -0.00419101 0.00333991 -0.0113299 0.00494695 -0.011143 0.00401179 -0.0128927 -0.00446361 0.0044478 -0.0162812 -0.0112346 0.00400089 0.00751785 0.00858113 0.00172825 -0.0037368 -0.0106608 0.0091731 0.0180158 0.0133636 -0.00917016 0.00744323 0.00539788 0.0117874 0.00571228 -0.006077 -0.013186 -0.00543267 0.00836483 0.000620529 0.0105888 -0.0110121 -0.0153301 -0.00959545 0.000366683 -0.00518031 -0.00379205 -0.00409191 -0.000594692 -0.00118615 -0.0089444 0.0161486 0.0159254 0.00620131 -0.0054267 -0.00188872 -0.00892922 0.00828425 0.0206152 0.00450931 -0.000909535 -0.00770331 0.00804047 0.00684259 0.00590886 0.00408403 0.0118849 -0.0112441 -0.0102793 4.7181e-05 -0.00821783 0.000773989 -0.00668157 -0.0187337 0.0240821 -0.0182117 0.00867533 0.00865138 0.000858192 -0.00335298 0.00763279 0.00504386 -0.00733499 -0.00134621 0.0187495 0.00167649 -0.00859444 -0.00225611 -0.00420788 0.00844139 0.000914905 -0.00614079 -0.00974861 -0.0196978 -0.00260267 -0.000432159 -0.00333525 0.00551756 0.00164223 0.00310614 -0.0137738 -0.0130258 -0.0119198 -0.011862 0.000400822 -0.00906662 0.012169 0.00281547 -0.0169466 0.0189 0.00835258 -0.0029921 -0.0138897 0.00395221 -0.0120065 0.00640614 -0.0114608 -0.00789486 0.0195007 0.0016216 0.00203763 -0.00878264 0.00514222 0.0070184 0.00213195 -0.00275964 0.00459577 -0.00491961 -0.00149386 0.0126406 -0.00225945 0.0179609 -0.00169647 -0.00132975 0.00236741 -0.00707167 -0.000103341 -0.0153852 -0.00382555 -0.00249483 -0.00821535 -0.0295568 -0.00186532 0.0021893 0.00028322 0.00334403 -0.00384677 0.0071698 -0.015083 0.0199378 -0.00648327 -0.0102829 -0.00083976 -0.00780336 -0.0157494 0.00456912 0.00425663 0.00379913 0.00636012 -0.00754348 0.00730173 0.00228722 0.00282186 -0.00206375 0.00486688 -0.0100422 -0.00233781 -0.00652246 0.00901762 0.0261562 0.0139555 -0.00275365 -0.0204499 -0.0104992 -0.0205479 -0.0262116 -0.0261012 -0.0102353 -0.00713518 0.00940365 0.00777489 0.00329814 -0.014474 -0.000459564 0.0111193 0.00979378 0.00467937 0.0119613 -0.0090732 -0.0020691 0.0045412 0.00575769 0.0140819 0.0180502 0.0121837 0.0139046 0.0137188 0.0300219 0.0361171 0.0363291 0.0268684 0.0285239 0.0135881 -0.00249991 0.0100065 -0.0239587 -0.033067 -0.0163715 0.00510695 -0.0132054 0.00932074 0.00687686 0.0108691 0.00211164 0.00315227 -0.00460061 0.000411443 0.00151649 -0.00262254 0.0214584 0.0168013 0.0244168 0.0105024 0.0115535 0.0154511 0.0342826 0.0359559 0.0601895 0.0811372 0.0603797 0.0536725 0.0337877 0.0241604 0.0252574 -0.00400096 0.00492878 -0.00105906 -0.00081616 -0.00665456 -0.00419072 -0.00405815 -0.00567025 0.00143065 0.00363665 0.00770435 0.00977042 -0.000390628 -0.0136231 0.00255518 -0.00587886 -0.0132426 0.00128379 0.0104367 0.0179252 0.0306938 0.0488329 0.0496727 0.0590108 0.0428013 0.0238867 0.0330225 0.0236895 0.00763208 -0.00093796 -0.00822613 -0.0228526 -0.0100804 -0.0116084 0.00469832 0.0164823 -0.01244 0.00999796 0.0133514 -0.00440841 0.00594808 0.0174245 -0.0284302 -0.0186685 -0.0119753 -0.00434415 0.0138857 -0.0021007 0.0102241 -0.00549007 0.0231088 0.0151308 0.00995527 0.0161419 0.0181182 0.0121597 -0.01269 -0.0164419 -0.0264507 -0.00965987 0.00619778 0.0167353 0.00686893 -0.0113198 0.00503481 -0.00889488 -0.00783618 0.00667702 0.0166541 0.00370624 -0.0106052 -0.0135994 -0.0298775 0.00515679 -0.00803508 -0.0112862 -0.0288995 -0.0191288 0.0117237 0.0371797 0.0161968 0.0149322 0.0136728 -0.00275026 -0.0206231 -0.00393941 0.0079513 0.0147466 0.0148815 0.011287 0.0225528 0.00113829 -0.0021258 0.00315823 0.000443079 -0.0180909 -0.000668265 0.00812306 -0.00610176 0.00396755 0.00612345 0.00516954 -0.0161333 -0.00258884 -0.0183114 0.00550819 0.0188154 -0.000181505 0.00151236 -0.000124946 -0.00193797 -0.00962459 -0.0226737 -0.00592664 -0.0056374 -0.0141415 -0.00309276 -0.000306224 0.00353394 -0.00777556 0.00920222 0.0101724 0.00989784 -3.41942e-05 -0.00733895 0.00309426 0.00765226 0.00241171 0.0128647 -0.00570761 -0.00516945 0.0180426 0.0048364 0.00926475 -0.006846 -0.00362388 -0.0115965 -0.0289371 -0.0266575 -0.0114478 0.0059594 -0.00925697 0.0151955 0.0101671 -0.00195469 -0.00498626 -0.0100149 0.0013155 0.00157567 0.00399219 0.00586663 -0.0118614 -0.0111754 0.0172957 0.0108749 0.0196087 -0.00282701 0.00981668 -0.00297407 0.0106906 0.0132769 -0.0208596 -0.0169989 -0.0277867 -0.00152341 -0.00822838 -0.0311085 -0.0238165 0.018942 -0.00348072 -0.00295089 -0.00632237 0.0233748 0.00392791 -0.0164239 -0.00981999 0.00919338 0.00447135 0.00481944 0.0106573 0.00362268 -0.00294569 0.00312494 -0.000679251 -0.000245612 0.0068745 0.00300673 -0.00400063 0.00596396 -0.0485476 -0.0369563 -0.0366002 -0.0151493 -0.0273715 -0.009013 -0.00648915 -0.00671255 0.00219902 0.000618205 0.00619907 0.0143667 -0.00693123 0.00425723 0.00706985 -0.00261157 -0.00459544 -0.0194423 0.0141229 0.00671457 -0.00868957 -0.00412563 -0.0125501 -0.0153129 -0.00529242 -0.0120472 0.00573644 -0.0293253 -0.0597591 -0.0729174 -0.0550166 -0.0222604 -0.00533668 -0.00414776 0.00589679 0.0165666 0.0015914 0.0135446 0.0226493 0.0075481 0.00976516 0.00543394 0.0209652 0.0105477 0.00819167 -0.0119861 0.00666092 -0.00448401 0.00103954 -0.012432 -0.0253606 -0.0447105 -0.0106471 -0.0307931 -0.0309054 -0.0478251 -0.0672381 -0.0578846 -0.030121 -0.0171142 -0.00376977 0.00559558 0.0340817 0.0012423 0.00160998 -0.0234638 0.00795105 0.00244559 0.00484657 0.00263906 -0.0133864 -0.015236 0.0103446 0.00780788 -0.00397046 0.0180279 0.00627789 -0.00946898 -0.0123515 -0.0563116 -0.0418259 -0.0426315 -0.0543695 -0.0606057 -0.037131 -0.0469726 -0.0330615 0.00442434 -0.00310891 0.00170896 0.0275948 0.00117823 0.00722112 0.00825538 -0.0130855 -0.00527289 0.00171781 0.00312062 0.00907675 0.00287619 0.0112679 -0.0150145 0.00701179 0.0117474 0.000926881 0.00937504 -0.0104067 -0.0380009 -0.0414274 -0.0926929 -0.088743 -0.084205 -0.0478243 -0.0481037 -0.026393 -0.00822321 0.0215828 0.0368881 0.028499 0.00499352 0.00346129 -0.0170748 0.0141438 0.00261013 -0.00832968 0.000182228 0.0145195 0.00670641 -0.0025959 -0.00230383 -0.00988389 -0.00455954 0.00812565 0.0032911 -0.00952378 -0.00565482 -0.0325631 -0.0445884 -0.0716856 -0.0571781 -0.037358 -0.0223213 -0.0217754 0.0114055 0.00399775 0.0166086 0.0209484 0.00246023 -0.00561742 0.00503859 0.00334522 -0.0104255 0.00996222 0.00899171 0.00321003 0.0125304 -0.00577202 -0.00447751 -0.00311978 -0.00412714 -0.000776378 0.0192024 0.0219829 0.0150591 -0.0157892 -0.0357501 -0.0383913 -0.00120962 -0.00798203 -0.0189328 0.00189839 -0.00612819 0.00340118 0.00909449 0.0102546 0.00702835 -0.0194696 -0.0149537 -0.00579703 0.00169711 0.00764986 -0.00592412 0.00857253 -0.0140379 0.0161683 -0.0126628 -0.0129675 0.0195459 0.000745395 -0.00539447 -0.002904 0.0192755 0.0227572 -0.00292601 -0.00243625 0.00974687 0.01695 0.000374247 0.000489824 0.00469535 0.0103463 -0.011448 -0.0232187 -0.00826983 0.0124186 -0.00347718 -0.00844034 0.0128732 -0.0183379 -0.00209856 -0.0146068 -0.0103909 -0.015751 -0.039912 -0.0151633 -0.000101265 -0.00233902 0.00140261 -0.0011058 0.00803214 0.0155655 0.0293151 0.0390015 0.0118802 0.013477 0.00185546 0.0181438 0.0225908 0.00285912 -0.0108119 -0.019992 0.0182375 -0.0204608 0.00917081 -0.00815713 -0.013434 -0.0011757 0.0162516 -0.00246262 -0.00531633 -0.00369709 0.00831416 -0.0132212 0.00654104 0.00442656 -0.00556789 0.00478896 0.00201233 0.0171124 -0.0159552 0.0127126 0.0122511 0.00489016 -0.0112111 0.00472624 0.00658381 -0.0194735 -0.00922738 0.00343594 -0.00856677 -0.0235605 -0.00992504 -0.0178236 -0.0119851 -0.0110619 0.0213243 -0.0025489 -0.00572602 -1.80911e-05 0.0159429 -0.00994995 0.00745055 -0.00221113 0.0282245 0.0062478 0.0322878 0.0397963 0.0201706 0.0263275 -0.0131568 -0.00453581 0.00887529 -0.00501582 0.00124911 0.00327016 0.0148946 0.00752878 -0.00935947 -0.000381373 0.00271263 -0.0102222 0.00669759 -0.015349 0.00440233 -0.0124329 0.0167893 -0.000663168 0.00238282 -0.00186018 0.00771196 0.0192076 0.0121004 0.0147222 0.0165974 0.0227442 0.0187917 0.0447113 0.030758 0.0366033 0.0349758 0.0412314 0.0273119 0.0173186 0.0155584 0.00504654 0.0106336 0.0111962 0.00316218 0.000174716 -0.00599327 -0.0125663 -0.01152 -0.0118997 0.01411 -0.00784806 -0.00489692 0.0107025 -0.0213331 0.00316866 -0.0014719 0.0151914 0.0136259 0.00694975 0.0115906 0.0154602 0.0170543 0.0164569 0.00622796 0.0069122 0.00389714 0.0285198 0.00280417 -0.00501093 0.000509809 0.0180755 0.0195787 0.0054609 -0.0102622 -0.0108654 0.00274984 -0.0203979 0.00423465 0.0111164 0.0116197 0.0145794 0.0027945 -0.00834502 0.000934062 0.00127373 0.00231739 -0.000188687 -0.00877767 0.0193317 -0.0164713 0.00297931 -0.021358 -0.0163848 -0.00894312 0.027908 0.000139381 -0.0101205 -0.00366877 -0.00894319 0.014155 -0.0020602 0.013469 0.0032217 -0.00751198 -0.00166062 -0.00389007 0.0191205 0.00882982 0.0105267 0.00560199 -0.00286697 -0.00928459 0.00762485 0.0206933 0.00149304 -0.0012223 0.0132418 -0.0039361 0.00894615 0.00127359 -0.00103743 -0.00469541 -0.00521665 -0.00392581 0.0107113 -0.00449671 0.0037132 -0.00903309 0.00397975 -0.00252723 0.0126168 -0.0178499 -0.00491041 0.00152411 0.00653198 -0.0102854 -0.0103735 7.5115e-05 -0.00387027 -0.00788458 0.00131526 0.00643929 -0.00367512 0.00351295 0.00215802 -0.0126052 -0.0015153 0.0103811 -0.0104748 0.0133487 0.0070041 -0.00393856 0.00197439 0.0156854 0.00703855 0.0115908 -0.00290724 -0.0132556 -0.00683335 -0.0113284 0.00582623 -0.017495 0.00822763 -0.012324 -0.0114538 -0.00372353 -0.00541256 -0.00565827 0.0140833 -0.00536067 -0.00663336 -0.00591431 0.00385657 0.00563503 -0.00740082 -0.013014 0.0101154 0.00266525 -0.00663328 -0.0173222 0.00602564 0.00458451 0.00242394 0.00698759 0.00408663 0.00593729 -0.000995749 -0.0026102 -0.00088982 -0.00957876 -0.0104855 0.0025843 -0.000955917 -0.00232601 0.00372837 -0.00237972 -0.00549212 0.0111195 0.00786167 -0.0173432 -0.00510409 0.000972887 -0.00164234 0.00288559 -0.00147051 -0.00261025 0.0050044 -0.0160235 0.00654629 -0.000164546 -0.0099633 0.000255861 0.00333446 -0.0187467 -0.00085211 0.0101859 0.0075082 0.016019 -0.0110952 0.00318277 0.00417796 0.0158695 0.00572136 0.0155767 0.00517002 0.0243574 -0.0168786 0.00171733 -0.00629965 0.00191741 0.00800422 -0.00371696 0.0201947 0.00108677 -0.00383296 -0.0103393 -0.00985105 -0.0039578 0.00825553 0.0027689 0.00243948 0.00741491 0.000944777 -0.00295304 0.00473623 -0.00796349 0.00796599 0.00347594 -0.00726456 0.00925603 0.00554116 -0.00537328 -0.0160315 -0.0012126 0.00718793 -0.0107522 0.0020274 0.0095883 0.00478342 0.00557021 0.0116095 -0.000536785 0.0116134 0.00358983 0.0108937 0.0130487 -0.00511295 -0.00207955 0.0145845 0.00966926 -0.0011212 0.00713473 -0.00177136 -0.00435049 -0.0105904 0.0172465 0.0148322 -0.0088977 0.00345729 0.0167751 -0.0091969 -0.0150802 -0.00297499 0.00129553 0.0053184 -0.00749526 -0.0173011 0.0154536 -0.00501346 -0.000678101 -0.00472394 0.0239516 -0.0115588 0.00130348 -0.0108883 0.00967951 -0.00619529 -0.0297388 -0.00460519 0.0155558 0.0172613 0.00329344 0.00740941 -0.00667461 -0.0295157 0.00160037 0.0027376 -0.00373053 -0.00660835 0.0207386 0.00887593 -0.000536761 0.000114604 0.0169586 0.00834922 -0.00666566 0.0136363 0.00843872 0.0142475 0.0244525 -0.00241155 0.00117266 -0.0168329 -0.0300082 0.00378657 0.0122556 -0.0114302 -0.00931111 0.00510887 -0.0101545 -0.00449067 0.00822038 -0.00016644 -0.0111847 -0.0196783 -0.0130314 0.00205744 -0.01565 0.0142153 0.0039216 -0.0138495 -0.00420576 -0.017032 0.0105297 0.00570566 -0.00281586 0.00603038 0.00713101 0.0146795 -0.00481001 0.0136046 0.00070552 0.0102116 -0.0149316 0.00821071 -0.00587283 -0.0147292 -0.020534 -0.00142092 0.0190004 0.0165709 -0.00353163 0.00413507 -0.00317207 -0.00910862 0.0244073 -0.00272488 -2.63283e-05 0.0118479 0.00422941 0.0091314 0.0175761 0.000574466 0.0108081 0.00083073 0.00527822 -0.0158398 0.00292887 0.0120036 0.0185335 0.00836025 -0.0101117 -0.0144162 0.00573472 0.00495263 0.00989351 -0.00644766 -0.0195973 0.00446864 -0.0143409 0.0178797 -0.0102798 0.0118219 0.00545834 -0.0126135 0.00903485 -0.00165122 0.00413034 0.0173451 -0.00517165 0.0129635 0.0117736 -0.000105171 0.00159313 0.0205163 0.00211377 -0.0157582 0.0145728 0.00466251 -0.00186998 -0.0114363 0.0131984 -0.0095977 -0.000714533 0.00249522 0.00528143 0.0024285 -0.0160111 0.00675984 0.00997554 0.0122745 0.00088013 0.00382016 0.0052889 -0.00872906 0.00155519 0.00209808 -0.00347527 -0.000780405 -0.00571611 0.0145306 -0.00128602 0.0178204 0.0158997 0.0104416 0.00604724 0.000974245 0.00810636 0.00900359 -0.0121627 -0.000378141 -0.00339643 0.0135171 0.00422086 -0.000830543 -0.0150954 -0.00185729 -0.0144665 -0.0116491 -0.0045434 -0.00600646 0.00429282 -0.00293295 0.0241574 0.00914577 -0.00131244 -0.00772221 0.014037 -0.00894361 -0.0147368 0.00899439 0.0128128 0.00916877 0.00387953 -0.00628821 -0.0124194 0.00879484 0.00127079 0.00205216 -0.000934614 0.0157363 -0.0234232 -0.00796084 0.010662 0.00921263 0.00382264 0.00553812 0.0122087 0.0157929 -0.0117682 0.00898235 0.0105121 0.00730032 0.0117536 -0.00780719 0.0051791 0.00760207 0.0031316 0.00773665 0.0101408 0.00356515 0.00515828 -0.000100307 -0.00272644 0.01968 0.00914316 -0.000980905 0.000853812 0.00872674 0.00913404 0.00522944 -0.00590834 -0.00338902 -0.019367 0.00851627 0.00533935 0.00709259 0.0149838 0.00148575 0.00565389 0.0128572 -0.00256889 0.0111201 0.005389 0.00336656 0.00402881 0.0050894 -0.00286473 0.0161877 0.00225348 0.0032018 0.000215579 -0.0063333 -0.025382 -0.00826203 0.0122638 0.0138704 -0.00163297 0.0032574 -0.00548843 -0.0162071 0.00870775 0.00487696 0.00617222 0.000903732 -0.00838026 0.000625278 -0.00242778 0.0146926 0.0105165 0.00750472 -0.00175489 0.0105868 0.0123171 0.00881489 0.0213569 -0.000849637 -0.0171379 0.00661571 0.00412377 -0.00266458 -0.0107448 0.00896683 0.0190929 -0.00918282 0.00343456 -0.00857639 -0.00803113 0.0252644 0.0135092 0.0131055 0.0193735 0.00436323 0.000569603 0.00463604 -0.00714648 0.00367162 -0.00411654 0.00435775 -0.00938474 0.00465263 -0.0103611 0.00519986 -0.00123748 -0.00573697 0.00311885 0.00575394 -0.000819999 -0.00589124 0.00313917 0.0025866 0.00520227 -0.00456812 -0.00447281 0.000530029 -0.00451967 0.00443675 0.0144483 -0.00387682 -0.000885402 0.00692598 -0.00537612 -0.0175887 0.0040375 -0.0068282 -0.01024 0.000797454 0.00719892 -0.00861321 -0.00648074 -0.00858945 0.00648004 0.0129746 0.0131275 0.0231355 -0.00749083 -0.00162263 