-0.00259093 0.0160159 -0.0149896 0.00174768 0.00119264 -0.00302023 0.00458181 0.00188985 0.00394975 -0.0236984 0.000441968 -0.00664492 -0.00636256 -0.00171248 0.0173126 -0.00764852 0.00703151 0.0014535 0.000936702 0.0120412 0.00261021 -0.0069196 0.0168143 -0.00702026 0.00175199 0.00274173 -0.00863064 0.0118623 0.0131654 0.00681032 0.00942564 0.00828367 -0.00589718 0.00209104 0.00860456 0.00294421 -0.00466873 -0.0166878 -0.00131742 0.0157662 -0.00595 -0.00776224 -0.0104732 -0.00456871 0.00952195 -0.000522811 5.21486e-05 0.00919759 -0.0200411 0.00180425 -4.06748e-05 0.00328624 -0.00421684 -0.00240951 -0.0241841 0.000147597 0.00437689 -0.00235778 -0.0236553 0.0197919 0.00767131 0.00742458 -0.000991213 0.000719624 0.00287334 0.00947372 0.00822346 0.00801658 0.00445646 0.00354372 0.00439027 -0.0171723 0.0267577 0.0220743 0.0345944 -0.000784128 -0.00849331 -0.0173285 -0.0205381 0.0226949 -0.00857277 -0.005622 0.00238523 -0.0115269 -0.00144153 0.0326738 0.00964104 0.0013468 0.0105483 0.00368459 -0.00437321 -0.00528312 -0.00881644 0.0183442 0.0304767 0.0429146 0.0298737 0.0349363 0.0741759 0.0856977 0.0859715 0.0577255 0.0111773 -0.00671803 -0.032327 -0.0248387 0.00348388 0.00185216 0.00559789 0.00105752 -0.0114965 0.00183454 -0.000475864 0.0025208 0.00200894 -0.0110875 -0.000791751 -0.016329 0.00407673 -0.00498924 -0.00265984 0.0215536 0.0420208 0.0427598 0.035636 0.0482849 0.0858137 0.0799553 0.0716637 0.0337876 0.0372943 0.0307437 -0.00251772 -0.0197853 -0.0225014 0.00422256 0.000389771 -0.0037245 -0.00586318 -0.00398649 -0.00232575 0.0147349 -0.00648918 -0.0204765 -0.0109314 0.00885801 -0.00463765 -0.00281435 0.0125696 0.00809781 0.0425023 0.0249335 0.075736 0.0830476 0.0569686 0.0533841 0.0304693 0.0538889 0.0874534 0.0546346 0.0527973 0.0163813 -0.00349703 0.00908033 0.0101533 0.032379 -0.000379002 -0.0089315 0.0100537 0.00204822 0.0168162 -0.00361121 0.00833675 0.00945739 -0.000386257 -0.00527066 -0.00611113 0.0104281 0.00792292 0.00670508 0.00849674 0.0668237 0.0608918 0.011892 -0.00970299 0.0286824 0.0113246 0.0494537 0.0420559 0.0016194 0.0104505 -0.0188582 -0.00223981 0.0123297 0.0184718 -0.00146399 -0.0121701 -0.00568854 0.0157949 0.01891 0.0172304 0.0207824 -0.0167982 -0.0579753 -0.0310429 -0.0125954 -0.023836 -0.0235899 0.0044583 0.0147762 0.00269993 -0.00537068 -0.00244673 -0.015994 0.0158869 0.0493213 0.032193 0.0280702 -0.0201755 -0.000823689 0.00136657 0.015064 -0.0113841 -0.00588956 0.00697458 -0.00558326 -0.00170214 -0.00889216 -0.00429701 0.00919627 -0.0351106 -0.0551649 -0.0756108 -0.0858377 -0.049868 -0.0278766 -0.00498888 -0.0363236 -0.0516476 -0.0409739 -0.0457807 -0.000613312 -0.00568411 0.0449603 0.0461368 0.0276136 -0.0222059 -0.00985614 0.00430956 0.0257337 0.0222731 0.0131257 0.0122079 -0.0104905 -0.00203932 -0.000775578 0.0122539 -0.00818399 -0.0291832 -0.0301751 -0.0844188 -0.083095 -0.0754766 -0.0524297 -0.0748345 -0.102322 -0.125714 -0.0740746 -0.0816666 -0.053207 -0.038307 0.0223686 0.0171504 0.0258487 -0.0378042 -0.00461469 -0.00411904 -0.00148574 0.0138519 0.0117533 0.0176392 0.000127409 0.000418934 -0.00463586 -0.00218547 -0.014986 -0.0448292 -0.0584486 -0.0280537 -0.0889124 -0.103937 -0.11574 -0.133047 -0.0633329 -0.0682662 -0.0414422 -0.0640135 -0.0881921 -0.00497759 0.0316593 0.0295186 -0.00423784 -0.0464415 0.00393026 0.000373243 -0.00985978 -0.00562001 0.0175285 0.0151509 0.00485482 0.00893318 -0.0191716 -0.0196997 -0.0171589 -0.0372484 -0.0530797 -0.069981 -0.123175 -0.142027 -0.105333 -0.131783 -0.0819978 -0.101826 -0.0764078 -0.0935348 -0.081062 -0.0105426 0.0428507 0.0239742 -0.00541221 -0.0461223 -0.0198371 -0.0182164 0.0122112 0.0158008 0.00121417 -0.00953786 0.0104179 -0.000341921 -0.0212631 -0.00636765 -0.0637027 -0.0686283 -0.0641336 -0.0677124 -0.0950919 -0.0799108 -0.080895 -0.0978954 -0.0543296 -0.102755 -0.127676 -0.0944025 -0.0910448 -0.061958 0.0459633 0.0294442 -0.0504211 -0.0662627 -0.0312234 -0.00366246 0.00535285 0.0146201 -0.00433178 -0.00471503 -0.0158642 0.00801577 -0.0231011 -0.0315259 -0.0263678 -0.0587933 -0.0679492 -0.0413921 -0.0584684 -0.0575583 -0.048712 -0.00124792 0.0312385 -0.0195894 -0.0780433 -0.0881628 -0.0941152 -0.0488671 0.0109587 0.00967892 -0.0635032 -0.0607673 -0.0346101 0.00547691 0.0183251 -0.00519472 -0.00702731 0.0194853 0.00799244 -0.0152372 -0.00119282 -0.0350944 -0.0446846 -0.0498757 -0.0460988 -0.00756274 -0.0218725 -0.0393682 0.00411181 0.0485559 0.0495019 0.0808773 0.0222694 -0.0737908 -0.0645274 -0.0341595 -0.00931631 0.00516488 -0.0756604 -0.100111 -0.0518874 -0.00110758 -0.00100526 -0.00524424 -0.00471497 0.00570179 -0.001653 -0.0123293 -0.0201715 -0.0295037 -0.00765319 0.00669294 0.0314116 -0.0150904 -0.0212616 0.00270361 0.00297586 -0.0262294 0.0726042 0.0800051 0.0128184 -0.0530142 -0.0911954 -0.0485136 0.0187467 -0.0625046 -0.0404179 -0.0722765 -0.0379501 -0.00180536 -0.00391593 -0.016227 -0.000654011 -0.0019443 -0.00270812 0.00186486 0.00268065 0.0162327 0.0543163 0.0912116 0.0496376 0.0167785 -0.0285195 -0.0174186 -0.0663395 -0.000259003 0.0755602 0.0457857 -0.0371176 -0.0470309 -0.0517544 -0.0349938 -0.00858283 -0.0140886 -0.048526 -0.0225417 -0.012421 0.0070256 -0.0149461 0.00397941 0.00365669 -0.00906416 0.0120336 0.00683015 0.0198877 0.0430465 0.084017 0.101206 0.0682312 0.0343518 -0.0107799 -0.0345134 -0.00878915 -0.00235902 0.0673012 0.0285317 0.0207261 0.0234762 0.0184894 0.0351686 0.0121969 0.0270112 0.0159904 0.0275067 0.034042 0.00490753 0.0198074 0.00298096 -0.0155369 -0.0194622 -0.0140047 -0.00679369 0.010464 0.073312 0.0822944 0.114422 0.100087 0.0463816 -0.0309861 0.00941662 0.0255857 0.0652763 0.0534466 0.0960252 0.0839334 0.0625477 0.0453137 0.0308074 0.0346159 0.0693922 0.0700585 0.0469204 0.0763352 0.0578377 -0.00100973 0.0107045 0.0077411 -0.00415502 0.00210062 0.0105927 0.00385857 0.0648907 0.0830217 0.1417 0.127475 0.111484 0.0410051 0.0571121 0.10638 0.0856905 0.0873575 0.100668 0.0341613 0.0112329 -0.0124486 -0.0126816 0.0408099 0.0941771 0.0879766 0.111512 0.0719302 0.0742509 0.0052787 -0.013703 0.0207548 7.82768e-05 -0.012002 -0.000518677 -0.0108315 0.0318375 0.0700523 0.103036 0.113086 0.0982238 0.0494125 0.0772102 0.0719174 0.0148248 0.0621349 0.0368274 0.00886131 -0.0293354 -0.0387172 0.0136873 0.00111491 0.0490073 0.0902147 0.0873306 0.0455778 0.0157617 0.0220226 0.0181029 -0.0153934 0.00960138 0.00542556 -0.0158411 1.17905e-05 0.0235375 0.0419876 0.0912127 0.0918116 0.0673596 0.0440034 0.0696537 0.00543155 -0.0413946 -0.0488009 -0.0561862 -0.110443 -0.0928378 -0.0381316 -0.0278244 -0.0112835 0.0393158 0.040271 0.06286 0.0144989 -0.0109671 0.000946898 0.000364865 0.0112316 0.0117146 -0.00509465 -0.00283636 -0.00127183 -0.0123365 0.0178638 0.0359939 0.0731031 0.086829 0.0143495 -0.00931442 -0.0521362 -0.147425 -0.126917 -0.117345 -0.109543 -0.0783251 0.004266 -0.0288446 -0.0113337 0.00557421 0.0517354 0.0689661 0.0214147 0.00852115 0.000635132 0.0172352 -0.0172566 0.00513667 0.0033609 -0.0105847 -0.00200392 0.023785 0.0329657 0.0362976 0.0240068 0.00509054 -0.0100457 -0.0557378 -0.139328 -0.119985 -0.086756 -0.0444111 -0.0881088 -0.0721934 -0.0433796 -0.0153967 -0.0214504 -0.0290386 0.0102106 -0.00675177 -0.00547811 0.0153105 -0.00958257 -0.000725016 -0.0115662 -0.00990607 0.00788717 0.00301122 0.00209883 0.020571 0.0258226 0.012535 0.00672826 -0.0143135 -0.0113123 -0.0237377 -0.0307149 -0.0388077 0.000483124 -0.0135002 -0.0867741 -0.0531596 -0.0369743 -0.0368456 -0.0188882 -0.0142183 -0.00587462 -0.020138 0.00364017 -0.00262138 -0.0031982 0.00865672 -0.0184027 0.0205306 -0.0143138 -0.019669 -0.0100172 0.0136324 -0.0177627 -0.0146167 -0.0125725 -0.0252914 -0.00507536 -0.0143105 -0.0029025 0.0114989 0.00908762 -0.0142468 -0.0634361 -0.0299605 0.014249 0.00754213 -0.00316494 -0.0209487 -0.017074 -0.0238299 -0.0122787 -0.0080871 0.00440879 0.00989794 -0.0123667 -0.00438057 0.0083773 0.00302725 -0.0105357 0.00332143 -0.0238554 -0.015089 -0.012258 0.00481033 -0.00720993 0.00183732 -0.0112018 -0.000898021 -0.014767 -0.0245608 -0.020976 -0.00298241 0.0120592 -0.0179875 0.00555593 -0.0155693 -0.00439984 0.0193636 0.00120498 -0.00461963 0.00589365 -0.022286 -0.006158 0.00305476 -0.0137339 -0.0028206 0.0120739 -0.00498156 0.00817313 -0.00488494 -0.0109338 0.00140206 0.0068008 -0.00619429 -0.0219592 0.00532873 0.00144863 -0.0061289 -0.00192948 0.0207444 -0.0123054 0.00555508 0.0039444 0.00973884 0.00482908 0.0180778 0.00926553 0.000252222 0.00511301 0.00968624 -0.00974835 0.0115821 0.00310814 0.00471109 0.0098617 0.00824845 0.0132901 0.00489443 -0.0211167 -0.0125107 0.0116304 -0.00166473 0.0106646 -0.00218271 0.00408495 0.0117414 -0.00293181 -0.000874553 0.00242119 0.0251494 0.0183126 -0.0119097 0.00755538 0.0013614 0.00621323 -0.00357912 -0.00528984 -0.00158911 0.00202272 0.00313764 -0.0031474 0.0164095 0.013635 0.00474349 0.00935938 0.00972686 -0.00284102 -0.00769654 0.00335073 -0.00803978 0.0186676 -0.00455458 0.000951423 0.00975296 -0.00393677 0.0146756 -0.0117425 -0.00662044 0.0011499 -0.0086593 0.00960027 -0.0127576 -0.00226214 0.0275276 -0.00507685 -0.00153312 0.00926287 -0.0100136 0.00636202 -0.0176518 -0.00141797 -0.000316082 0.006216 -0.00379187 0.00479241 0.00985639 0.0187346 -0.00363578 0.00641526 -0.00274499 0.0181911 -0.0132123 -0.00400054 -0.00202184 0.00458754 -0.0130188 -0.0225087 -0.00308192 -0.0171432 -0.00501981 -0.00342601 0.00848847 0.0130878 0.00443128 -0.00379699 -0.00502443 -0.011276 0.00721077 0.00919942 0.00872671 0.0179304 -0.00989678 -0.00433667 -0.00870837 -0.00807598 -0.00260826 -0.0236116 0.00223509 -0.0107188 -0.0368478 -0.0233734 -0.0156436 -0.023143 -0.00584765 -0.0106716 -0.0194227 -0.00241789 -0.00810939 -0.00530785 -0.00785432 0.00061706 0.014539 -0.00398557 -0.00327634 -0.0142035 -0.00302015 -0.00509089 0.014597 -0.000540582 -0.00588605 -0.0030445 -0.00974906 -0.0121551 0.00405425 0.0181011 -0.00852819 0.000261501 -0.0206333 -0.0376181 -0.0161846 -0.00104345 -0.00656233 -0.0108321 -0.0243329 -0.0262584 -0.0153655 -0.0108123 -0.00640527 0.0131864 0.00760946 0.00527837 0.0047712 -0.0016899 -0.0139253 -0.0129495 0.00169002 -0.00377233 0.011937 0.0119063 0.0245832 0.019746 0.02453 0.0712018 0.0130495 -0.00224504 0.00740636 -0.0109897 0.013136 -0.01654 -0.0320518 -0.0317382 -0.0295593 -0.039747 -0.0237125 0.0100718 -0.00555605 0.00785755 -0.00717078 -0.00328303 -0.00584981 -0.00372506 0.00830878 -0.00510558 0.00395468 0.000735897 0.0144247 -0.00406986 0.0182067 0.0498255 0.0594155 0.0625988 0.0797841 0.0470548 0.0646494 0.0723441 0.0356414 0.0164819 0.0425129 0.0515375 0.0209811 0.00630974 0.00695111 0.0286459 -0.000749283 -0.00507842 0.00880322 -0.00142862 0.000120631 -0.00426746 0.0108903 -0.00156176 0.0139209 0.0309129 0.0186784 -0.00208284 0.0354037 0.0661444 0.049754 0.0629144 0.0343466 0.0556469 0.0850507 0.110422 0.0906374 0.0817563 0.0728355 0.0735512 0.0583634 0.0177909 0.0209126 0.0397424 0.0326165 0.0115353 0.000319042 0.0121104 0.0138051 0.0101154 -0.00135083 0.014318 0.0053184 0.00305914 0.011535 0.0256724 0.01561 -0.022881 0.00182135 0.0174669 0.0413209 0.0379321 0.0727066 0.0711895 0.0828582 0.0666584 0.0637553 0.0854195 0.040971 0.0403236 0.0270495 0.0227859 0.0264365 0.0143724 -0.0145374 0.0122531 -0.00899459 -0.0324845 -0.0196604 0.00434502 -0.0130822 -0.00565907 0.0251518 0.00920619 -0.00705501 -0.0051559 -0.0106329 0.033246 0.0533482 0.073679 0.0305003 0.05599 0.084985 0.0826363 0.0620885 0.0411645 0.0046726 0.0426511 0.00897403 -0.0101534 0.011827 -0.00892972 0.0125623 -0.0115266 -0.00358558 0.00803392 0.00442515 -0.00590919 -0.0104431 0.0200723 0.0206398 0.021509 0.0161055 -0.00673586 0.0180804 0.0686049 0.0298368 0.0668868 0.0227735 0.0584155 0.0561509 0.0466611 0.00363712 -0.00312409 0.0319634 0.0305627 -0.00832895 0.020784 0.000932694 -0.00526806 0.00633108 0.0182978 0.00092319 0.0107754 -0.00991608 0.000240292 0.00313107 0.00727117 -0.0155624 0.0117644 -0.00437563 0.0100332 0.0675675 0.0744544 0.0629521 0.0306555 0.0199106 0.0332586 0.0258494 0.00991031 0.0128448 0.0358484 0.00664613 0.00969876 0.00333986 -0.000228479 0.00571039 0.00765695 -0.0178546 -0.0027395 -0.0234924 -0.0134991 -0.00292457 0.00615633 0.0176063 0.00223157 0.0169288 0.0337319 0.0288049 0.0357418 0.056119 0.0578549 0.0656579 0.0656715 0.0334877 0.0365851 0.00555416 -0.0144301 0.0102947 0.037424 0.00277329 -0.0082233 0.00291999 0.000416693 0.00100359 0.010058 0.00409726 -0.00945075 -0.0110376 0.00599908 0.00910429 -0.0195593 0.0020812 0.0201599 0.0198134 0.0187145 0.0380637 0.0689039 0.0713439 0.0341122 0.0415999 0.0621469 0.0351184 -0.00812862 -0.0264803 -0.0108661 -0.0175811 0.0210943 0.0319898 0.0181856 0.0321877 -0.00243826 0.0122586 -0.0250465 -0.00893226 0.000558946 0.013611 -0.00464645 -0.0089336 -0.0133041 0.00373448 0.00565671 0.0298028 0.0276402 0.0221884 0.0492677 0.0640232 0.0619454 0.033795 0.034256 0.00155865 -0.0240478 0.00948411 0.00839485 0.0154128 0.0196571 0.00425353 0.0030826 0.0167299 0.00267509 0.0205788 -0.0131815 -0.00454766 0.0010084 -0.00586074 -0.00229125 -0.00613659 0.0182862 -0.0221885 -0.0062147 0.0243355 -0.00429137 0.0192541 0.0320075 0.0421102 0.0345285 0.00749246 -0.0156882 -0.0275053 -0.00321591 -0.00494932 0.0365478 0.0627331 0.0299425 0.014208 0.0416187 0.0273969 0.013554 0.00735515 0.00574589 -0.00728936 -0.0139323 0.0104579 -0.00854006 0.0206121 -0.0217216 -0.0186689 0.00391249 0.0256143 0.0124634 0.0155289 0.00723295 0.0264453 0.0112832 -0.00835596 -0.0191898 -0.0145234 -0.0202381 -0.0274361 0.0417157 0.0508897 0.0325236 0.0205412 0.0349451 0.0276052 0.00298136 0.0072302 0.00893331 7.73685e-05 -0.0176201 0.0109988 0.00829298 0.00391808 -0.00168005 -0.0119826 0.0188574 0.0388057 0.0157062 -0.0265613 -0.0131818 -0.0358967 -0.049427 -0.0329967 -0.0113663 -0.0443942 -0.00948511 -0.0142598 0.047844 0.0310874 0.0533907 0.0285447 0.0278603 0.0342553 -0.0206514 0.00472805 0.00654737 -0.0222849 -0.011225 0.00811086 -0.0102558 0.00831878 -0.00601725 -0.013675 -0.0176607 -0.00619519 -0.000419065 -0.031434 -0.0384616 -0.0299504 -0.0132623 -0.00140201 0.00330363 0.00284692 -0.00222006 -0.00362797 0.0330464 0.0559349 0.0441129 -0.0227115 0.0135164 -0.0160004 0.00113883 0.011974 -0.020706 0.00148803 0.00329769 -0.00152438 0.000279508 -0.00827452 -0.00778082 0.0145052 0.0365508 0.0216608 0.0484147 0.00684536 -0.01638 0.00908811 -0.0111833 -0.0034971 -0.0322738 0.0091993 0.0321766 -0.021919 0.0456084 0.0433011 0.0266096 -0.00146569 0.00570693 -0.016921 -0.0014301 -0.00798914 -0.0196799 0.0066452 -0.0172362 -0.0113189 0.00164732 -0.00288485 0.0418588 -0.00688162 0.0151573 0.0105458 0.0162647 -0.00112227 0.0200478 0.0235213 -0.00705213 -0.0256144 -0.011134 0.0308118 0.0113044 0.00457967 0.0144126 0.0131379 0.0305289 -0.0129537 -0.00254293 0.0011884 0.0184894 0.00374139 0.0053591 0.0129061 0.00369295 -0.00522516 -0.00105025 -0.0120069 -0.00121419 -0.00154039 -0.00328588 -0.0217646 0.0209913 0.0601699 0.0626514 0.0541428 0.0428222 0.0276524 0.042141 0.0304956 0.0202279 -0.00391271 0.00146745 -0.0207972 -0.0111147 0.00131481 -0.000435911 -0.00407941 -0.00375029 0.0066182 0.0028586 -0.00485754 -0.00652547 0.00104754 0.0160441 0.00994906 -0.0088326 0.00315627 -0.0192449 -0.0151321 0.0171691 0.0512853 0.063719 0.0442456 0.0832052 0.0647004 0.0873008 0.0678558 0.062711 0.00937574 0.00976457 -0.0246224 0.00760289 0.00311763 0.03071 -0.00186798 0.00984893 6.31651e-05 -0.0168728 0.00132049 -0.00865039 0.0115361 0.0123219 0.00782287 0.012486 -0.00710485 0.0179141 0.0226242 -0.000261434 0.00944875 0.00147903 0.02211 0.0449642 0.0693281 0.0643172 0.0187363 0.00645558 0.0254043 0.00167771 0.0119768 -0.0053129 0.0154728 0.0133623 -0.000831658 0.0121305 0.014841 -0.0115008 0.0128856 0.00783223 -0.00535543 0.00774394 -0.00606042 0.00531433 0.00995994 0.0188927 0.0226531 -0.000703857 0.0103524 0.00532046 0.000888883 -0.00903446 -0.00977246 0.00980636 0.0128238 0.0151201 0.0263618 0.0111421 0.0270997 0.0113671 0.00287664 -0.00595755 0.00162701 -0.00915716 0.00718178 -0.00475578 -0.00329709 0.0125707 0.0057918 0.00817267 -0.0231957 -0.0113318 0.0357715 0.0210046 -0.00668476 0.00821141 0.0132865 0.0171964 0.000233107 0.00878691 0.0334238 0.00513696 0.00108124 0.00295209 0.0211329 0.0276592 0.00841591 0.0119445 0.006178 0.00941577 0.0094695 -0.00685234 0.00985156 0.00882584 -0.00581672 -0.00623001 -0.00754809 0.00699686 -0.0160545 -0.00558739 0.00929459 0.00490195 0.00144571 -0.00582871 -0.00584755 0.0210918 0.00396468 -0.00539273 0.00213147 0.00395339 -0.00290123 0.00508791 -0.00578311 0.0242752 0.0151118 -0.0134256 0.0078543 -0.0216711 -0.000489073 0.000315235 -0.00126534 -0.0134512 -0.00461934 0.00967861 0.00993702 -0.00369762 -0.00693949 0.00898514 0.00580906 0.00900874 -0.01243 -0.00335628 0.0142935 0.025065 0.013089 -0.00865847 -0.00396139 -0.00557727 0.0049189 0.00460399 0.00999676 -0.00269361 -0.00438507 0.00115435 -0.000788505 0.0163725 -0.00751361 0.00515684 -0.00364308 0.00727721 -0.00878979 0.00446452 0.00520572 -0.00271544 0.000622462 -0.00324302 -0.0140675 0.00331924 0.000751775 -0.00429934 -0.0100199 0.00411456 -0.00192977 -0.00432863 -0.019052 0.0107746 0.00912757 -0.00757788 -0.0146975 -0.00937883 0.0027948 -0.000870681 0.0148838 0.00920017 -0.00966363 -0.00428999 0.0275028 0.00672613 0.0108011 0.0112257 -0.00183104 0.0136871 -0.00719337 0.00502238 0.0135188 -0.0026269 0.00105798 0.00721711 0.0189227 0.0167735 0.000278917 -0.0100179 -0.0120015 -0.0259484 0.0238372 0.0121744 0.00458197 -0.00713839 -0.0212466 0.00349378 -0.00443113 0.000832973 0.00196415 0.00311852 -0.0259885 0.00227899 -0.0123723 -0.00134882 -0.00900543 0.0052879 0.00742956 0.00565017 -0.0097613 -0.0123235 0.00998162 0.00463428 -0.0157443 -0.0203313 -0.00666256 -0.000961762 0.0168434 -0.0101303 -0.0125356 0.00136472 0.0100886 0.0139635 -0.02073 0.00402118 -0.00800516 0.000908637 0.0127058 -0.00342058 0.000407943 -0.00472906 0.00339629 -0.00560079 0.00792328 0.0210562 0.0187512 0.000977513 0.0180305 0.000986727 -0.00143935 0.00552314 -0.00965398 0.00871307 -0.014779 0.00373084 0.0178558 0.0189938 0.0077478 0.0207929 0.00594298 0.0163008 -0.00534981 0.00942355 0.0102222 -0.00182958 -0.00364146 0.00841728 0.019704 -0.00465842 0.00385556 -0.0124496 0.0108563 -0.00483181 -0.00607633 -0.00104271 -0.000402517 0.00054551 -0.00448957 0.00509382 0.00974323 0.0114645 0.00738837 0.0144095 0.0412161 0.0195682 -0.0147445 0.011567 0.00716844 0.00674262 0.0154251 0.0190944 0.000162438 0.0052804 -0.00981585 0.0108395 0.00980669 0.00177334 0.00515537 -0.0127947 0.00486246 -0.00333029 -0.00223737 -0.00747966 0.013017 0.00571363 0.0187374 -0.00164176 0.00889416 0.012167 0.0105656 0.0121843 0.0123736 0.0220965 -0.00204537 0.00764806 0.00361379 0.0109934 0.00816962 0.0255141 0.0011696 0.0023839 -0.0190789 0.00808389 -0.0136051 -0.0130786 0.00693519 -0.0116171 0.00940655 -0.0131552 -0.0117201 -0.00424142 -0.00749493 0.0129206 0.000797015 0.00721128 0.00448629 -0.0113411 0.017542 0.0107132 0.0225568 0.00933274 0.00835419 0.0171779 0.0333485 0.0096507 0.0238563 0.0125169 0.0101887 -0.00681453 0.000109167 -0.00562995 -0.0245442 -0.00216349 -0.00369025 -0.0092481 0.00570713 -0.0071231 -0.0128998 -0.00702744 0.00772836 -0.0134896 -0.0114785 -0.0105942 -0.000165633 0.00937076 -0.00462836 0.0134634 0.0108526 0.017491 0.0327338 0.0271269 0.0217703 0.0224953 -0.00909434 0.02332 -0.00115852 0.0088128 0.00269278 -0.0381274 0.000316931 -0.0212901 0.00030542 0.00146097 0.0218207 0.00411682 -0.0117461 0.00484965 -0.00798662 -0.000169449 0.0104068 -0.00444382 -0.0084831 -0.016538 -0.00607137 0.00820493 0.0131571 0.012286 0.00806224 0.0189042 0.026723 -0.000259072 -0.00660911 -3.15098e-05 0.00393701 0.000250505 0.0131843 -0.0134673 0.00761868 -0.0110444 0.0366267 0.0199155 -0.0169516 -0.00307937 -0.0112499 -0.0225652 -0.0153004 -0.0013491 0.000726644 0.0134747 -0.00554076 0.00436314 0.0110412 -0.01454 -0.00342867 6.23326e-05 0.0103369 0.0236191 0.00700977 0.019416 -0.015724 -0.00613804 0.000130727 0.00212042 0.010822 0.00612427 -0.00215809 -0.0094632 0.00192479 0.00701388 -0.00691536 0.0017918 -0.00778479 -0.0142367 -0.0106103 -0.0107908 -0.01182 -0.0120072 -0.00602067 -0.0144173 0.00255447 -0.00571129 -0.0300741 0.00714205 0.020444 0.0486912 0.0101127 0.00924974 -0.014099 -8.55043e-05 -0.00635237 0.00321115 -0.00839115 0.0167881 -0.0135186 0.00786769 0.0257691 -0.00979787 -0.00620992 0.00556572 -0.00603364 -0.0046809 0.00929566 0.0155261 -0.0149968 -0.00728638 -0.0085111 -0.0173704 -0.0122012 -0.0249107 -0.0179512 -0.000678173 0.0443301 0.0284941 0.0198383 -0.00194792 0.0302332 0.0130213 0.00509605 0.0211576 0.00664672 0.010135 -0.022278 0.00947575 -0.0073446 0.00612367 0.00168115 -0.0104954 0.0172588 0.00593485 -0.0152643 0.00666635 -0.0107455 -0.00587978 -0.0106983 -0.0119645 -0.0133356 -0.0223679 -0.0176717 0.00284672 0.0196769 0.0311878 0.00668244 0.000424017 0.00882542 -0.000702291 -0.00146545 -0.0016236 -0.0099575 0.00084215 0.00251356 0.0060611 -0.0104048 -0.007275 -0.00964681 0.00470419 0.00628879 -0.00976516 -0.00597979 -0.00652237 -0.00455168 -0.00161796 -0.00435642 -0.012867 -0.0187273 -0.0101928 0.00934411 0.019232 0.0104539 0.0121826 -0.0148382 0.00761847 0.00285115 0.0122626 0.0185323 0.00154452 -0.00992853 -0.00673923 -0.010783 0.00159876 0.00432256 -0.0101767 0.00491772 0.00180183 -0.00248416 -0.0136225 -0.0112507 0.0025487 -0.019536 0.00487096 -0.0036932 -0.00155561 0.00776266 -0.00464078 -0.0333531 0.00745058 0.0317656 -0.00456917 0.0131915 -0.00359879 0.0101519 -0.00845004 0.0114847 0.00922377 0.00168768 0.00657575 0.00923811 0.0189656 -0.0027108 0.00561449 0.0179321 -0.00215088 -0.00607634 0.00143349 0.0151786 0.0165726 0.0110179 0.00803816 0.0195937 0.0280848 -0.00471209 -0.0283845 0.00374283 0.0330503 0.02567 0.0143687 0.0135513 0.00869383 0.00601193 0.0302446 0.0293855 0.00430147 -0.000991822 -0.00377338 -0.0044803 0.0137059 -0.0185916 -0.00703203 0.00528714 -0.00261538 0.00104276 -0.0198633 -0.0115242 0.0128197 0.0171681 0.0200486 0.0172482 0.0165276 -0.00343109 -0.0126499 0.00354957 0.0236735 0.0187032 0.00315822 0.0314927 0.0084099 0.0377131 0.0113469 0.016685 0.00835767 -0.0254483 0.00160283 0.00413539 0.0187443 -0.00548753 -0.000967741 0.000916051 0.00523692 0.0106266 0.0131783 0.0016144 0.0080331 0.010865 0.0189447 0.0223923 -0.00670158 0.0128628 0.0143819 0.0130014 0.0188885 0.0278411 0.0152685 -0.00169068 0.0184942 0.00959495 0.0355659 0.0208727 0.0182148 0.00710199 -0.00470889 0.00372012 0.000781556 -0.00123337 -2.88101e-05 0.018761 -0.0145883 -0.00248765 0.00607736 -0.0108613 0.0228639 0.00777709 0.012095 -0.0073139 8.80466e-05 0.0220243 -0.00486565 0.0219565 0.0310665 0.0160379 0.00447065 0.00667115 0.0217881 0.0102856 0.0153632 0.00705129 0.0207528 0.00553265 0.004668 0.0231688 0.00789925 0.00983955 0.00975412 -0.00700159 0.00828453 -0.00380942 -0.00211804 0.0198683 0.0118768 0.00596705 0.0202572 0.00202272 0.00827673 0.00172306 0.0151371 0.0226512 -0.00651828 0.0201648 0.0264698 0.0297045 0.0234166 0.0166548 0.00558474 0.0123269 0.00710942 0.00742133 0.0016846 0.000643276 0.000111223 -0.0173951 -0.00880293 0.00617106 -0.0162839 0.0117962 0.0047484 0.00417121 0.0178718 0.0169141 0.0180021 0.00290695 -0.0123871 0.0132753 0.0268151 0.0252925 0.015585 0.0233834 0.0349605 0.0312777 0.0274496 -0.0105227 -0.00269216 0.00998449 -0.0037132 0.0285469 0.0317451 0.0238627 -0.000923816 -0.000151371 0.00477212 0.00477722 0.00557346 0.0099895 -0.00219333 0.0221299 0.00222411 -0.0125424 0.013251 -0.0183926 -0.00658198 0.0121015 0.0262035 0.01337 0.014355 0.000224092 0.015466 -0.00610762 -0.00199793 0.00214417 0.000979398 0.0388394 0.00522904 -0.0091374 -0.01145 -0.00822388 -0.00754695 -0.00930735 0.0217949 -1.5634e-05 0.00204328 -0.00202765 0.0135758 -0.00512065 0.00783756 0.00611022 -0.000637659 -0.0167356 -0.00858578 -0.00355486 -0.00487549 0.000394315 -0.0199612 0.00766677 -0.00311236 -0.00577162 -0.0136599 0.00302983 -0.0090846 -0.0200275 0.0109942 -0.00782334 0.0212954 0.0123692 0.01044 -0.00797413 -0.00432666 0.00321143 0.000895121 -0.0100349 0.00361394 -0.00535107 0.00287546 0.000561314 -0.00777241 -0.00558045 0.0057024 -0.00958134 -0.00918112 -0.0286996 -0.00259346 -0.00288667 -0.00399118 -0.00533194 -0.0186363 0.00293781 0.00693525 -0.0145175 -0.00181503 0.0107696 -0.000540765 -0.0146791 -0.00361609 -0.0163987 -0.00191164 -0.00564324 0.00624401 0.00950146 -0.010683 -0.00252069 -0.00703846 -0.00648376 -0.00300898 0.00716052 0.000957183 -0.00696683 -0.000422545 0.00130305 0.000328686 -0.00178657 -0.00481814 -0.0157943 -0.00160482 7.92328e-05 0.00793051 0.0116511 0.0120747 -0.00406781 -0.00263879 0.00584032 -0.00408034 0.0102916 -0.0280051 -0.0038194 0.0254098 -0.00720621 -0.00499628 0.00232278 0.00831128 0.0175282 -0.00122291 0.0130265 0.0112769 -0.00401934 -0.0148141 -0.00265031 -0.00715294 -0.00335554 -0.0179052 -0.00561397 0.0188941 0.00965129 -0.0148179 0.0134022 -0.00672761 -0.0259418 -0.00857924 0.00946927 0.0194961 -0.00114706 -0.00734654 0.023435 -0.0078323 -0.00502885 0.0234621 0.000508741 -0.012 0.00348793 -0.00101272 -0.00108574 0.00255633 0.00565774 0.0083745 -0.0141072 0.00502313 0.0160619 -0.00506607 0.01024 -0.0092839 -0.00180256 -0.0210161 -0.00449118 -0.00052468 0.0125713 0.0127881 0.00795437 -0.00719176 -0.0258886 0.0127368 -0.0120499 0.000969438 0.010685 0.017256 0.00201878 -0.0021494 0.00183022 0.00734148 -0.00971369 0.00637208 -0.000202269 -0.00726334 0.017399 -0.00617813 -0.00168724 0.0115923 0.0041523 -0.00258042 -0.00674662 -0.00541008 0.00246647 0.0131515 -0.00817604 0.0291263 0.000409133 -0.00576451 0.00452846 0.01368 -0.0257161 0.00295917 -0.013718 -0.00615685 0.0124569 -0.00315829 -0.00165016 0.00392041 -0.0199798 0.00527698 0.00283033 0.00770602 -0.0223555 0.00522213 -0.00550642 -0.00435268 0.00518841 -0.013392 0.00363743 -0.0146941 -0.00330652 -0.0125806 0.0047591 -0.011302 0.00706646 0.0100907 0.0126276 0.0014993 0.0212344 -0.00541245 -0.00266486 0.00659349 0.00488646 0.00098132 0.00564752 0.010575 -0.00110203 0.000648502 0.029801 -0.00174482 -0.00843178 0.0100311 -0.000542962 -0.024395 -0.0180443 -0.00527978 0.0111681 -0.00801298 -0.000443518 0.00300408 -0.00138988 0.0108297 -0.0260603 -0.0113359 0.0130436 -0.0116857 0.000401663 -0.00370903 -0.00829366 -0.0167561 -0.000232168 0.0159817 -0.0113989 0.0107156 0.0134467 0.00410738 -0.0121194 -0.00765373 0.0140753 0.00492108 -0.00276925 0.0102575 0.00969262 4.90506e-05 -0.00590407 0.0165371 -0.00098801 0.0132123 0.0210141 0.0208413 -0.00586367 -0.00265525 -0.0137642 0.00254644 0.00686986 -0.00161561 -0.000159501 -0.0111253 -0.00264553 -0.00384846 0.0226637 0.0124223 0.0201334 -0.0100356 -0.00100231 -0.00869007 0.00626319 0.0193108 0.0238204 0.0266714 0.0284617 0.02098 0.0265977 0.0141429 0.012502 -0.00147912 0.000712853 -0.010092 0.000317707 0.0166281 5.76059e-05 -0.00241958 -0.00195202 0.000437743 -0.00509042 -0.0169131 -0.00236103 -0.027458 0.0121488 0.0093914 0.0104209 -0.026393 -0.00465306 0.00778194 0.00409771 0.0126677 0.0425525 0.0395244 0.0165794 0.00925537 -0.0043786 0.0148104 -6.37436e-05 -0.0197008 -0.00242921 -0.0160762 -0.0161652 0.0226052 -0.00435858 -0.0108201 -0.00716556 -0.00276748 0.019077 -0.00349807 -0.0106604 0.00541953 0.00116014 0.0161602 0.00698703 0.00490706 0.00148625 0.0163976 -0.000666553 0.0612799 0.0711313 0.0593871 0.0745643 0.0540689 0.0295596 0.0205036 0.0229206 -0.000681745 -0.00310292 -0.00142841 0.0106501 -0.000932066 -0.00287192 -0.00774336 0.0123864 0.00799034 -0.0131968 0.00761738 -0.0033224 0.0239197 0.00445619 0.023762 0.00700416 0.0192284 0.0162331 0.0140131 0.0547405 0.0614586 0.0774025 0.0598247 0.0374884 0.0165718 0.0131698 0.0281779 0.0144136 -0.00542494 0.000710498 0.0215335 0.0279352 -0.00765046 0.0191195 -0.0040682 -0.00886493 0.00929007 -0.00491341 0.0206617 0.0096623 -0.00861416 0.00617412 0.0218444 0.0110666 0.00223289 -0.000415833 0.0357696 0.0429152 0.0640715 0.0468384 0.0362336 -0.00642993 0.012662 0.00877754 0.0128048 -0.0177365 -0.0204548 -0.00279355 -0.0178405 0.0116212 0.0214157 0.022105 0.010932 -0.00279914 0.012591 -0.00689176 -0.0129472 0.00146975 0.00556665 -0.0090217 0.0113169 0.0383073 -0.0116435 0.00211197 0.006313 0.0327085 0.0237118 0.0498714 0.0518378 0.0293014 0.0394627 0.0529929 0.0360959 0.00253742 -0.00607857 0.0165718 0.00974405 0.0265881 0.0230032 0.0102018 0.0013944 0.0153479 0.0043405 -0.0117566 0.00760357 -0.00246595 -0.00288801 0.0213108 0.0133833 0.000875002 0.0153073 -0.00855023 0.0204316 0.0140784 0.0311582 0.0424526 0.0335968 0.0162 0.0291416 0.0439169 0.0141061 0.0162381 0.00229544 0.00701791 0.0293022 0.0133584 0.00112093 0.00358675 -0.00463984 0.00180911 -0.010864 0.00879431 -0.00670944 -0.00523118 0.0156328 0.0142542 0.000319514 0.0120253 -0.0185802 0.00227641 0.0078431 0.0190545 0.0374194 0.0372553 -0.0104286 -0.00173506 0.00506378 0.0337992 -0.00331813 -0.00293601 -0.00105807 0.00593249 0.0236167 0.00283391 0.0155109 -0.00723279 0.0123324 -0.0019526 0.015343 0.00560817 -0.00971246 -0.0118597 -0.000560534 0.0116786 0.0237642 0.0201244 0.00178852 -0.012663 0.0148745 0.00930783 0.0339737 0.0502607 0.0235443 0.0133952 0.00939242 0.00190343 -0.0116866 -0.00970263 -0.0173674 -0.000238617 0.000494052 0.035918 0.00928072 0.00710433 -0.000395306 0.00874972 -0.0142699 -0.0036688 0.0110395 0.00483227 -0.00399544 -0.0238457 0.0153152 0.0236358 -9.59109e-05 0.0169303 0.0193142 0.022557 0.0478269 0.0645403 0.0385702 0.0176776 0.0232409 -0.00135168 -0.0232299 -0.0222143 -0.00460743 0.0158177 0.0361665 -0.00263249 0.00688558 -0.00550155 -0.0202818 0.013379 0.00313944 0.0011813 -0.000478164 -0.0160697 -0.00639641 -0.00854026 0.0325674 0.0237453 0.000784171 0.0333399 0.0642626 0.0506103 0.0707361 0.0417921 0.0188219 -0.0110385 -0.00254804 -0.00604166 -0.0457273 -0.0430478 -0.0189175 0.0391855 0.0250804 0.0117242 0.0160252 -0.0221285 -0.00842468 -0.00576779 -0.00790098 0.00144998 0.00979344 -0.00175437 0.0120012 0.008945 0.00621225 0.010896 -0.00875713 0.0298595 0.0543728 0.0460408 0.0333103 0.00910311 -0.0179919 -0.0250023 -0.0197635 -0.026465 -0.0376527 -0.0236299 -0.00500881 0.0370567 0.0272827 0.0157606 -0.00706601 -0.0132559 0.0215991 0.006378 0.0177525 -0.00276679 0.0137286 -0.00689709 -0.0283252 -0.0395598 -0.0236934 -0.00517082 0.0328993 0.0146561 0.0592869 0.0509971 0.0561681 0.0409102 -0.0193358 -0.0498463 -0.0428339 -0.000336481 -0.0295762 0.0101339 0.0180437 0.0285243 0.0212423 -0.00451502 -0.00185869 0.000832713 -0.00843082 -0.00887581 -0.00969918 -0.00943957 -0.0100994 0.00620716 -0.014354 -0.00886949 -0.0181047 0.00695847 0.0100155 0.0200085 0.0498013 0.0932241 0.0378886 0.0144994 -0.0246641 -0.0322098 -0.00870114 0.00363137 0.0424013 0.023383 0.0259411 0.0264149 0.0396365 0.0114735 -0.000892225 0.00188885 0.0142271 -0.0066006 0.00842152 0.00880649 -0.00501903 0.0195709 -0.0112555 0.00165332 0.00999115 -0.00492043 0.00903815 0.0330444 0.0429934 0.0265399 0.0337343 0.0293146 -0.00102554 0.0190411 0.00898617 0.0476162 0.0609647 0.0203329 0.0315566 -0.000976738 0.0150665 -0.0106193 -0.00548215 0.0124353 -0.00232046 0.0109485 0.00200459 -0.00905263 -0.0135442 -0.00480221 0.0142142 0.0147132 0.0205138 -0.00853365 0.0116307 0.0467379 0.0525394 0.00848882 0.0299614 0.0409917 0.0143206 0.016395 0.07591 0.0527763 0.0519177 0.0544768 0.0278646 0.0113855 -0.0141534 -0.00106062 -0.0105559 -0.00564095 0.000883715 -0.02787 0.0102487 -0.0128457 -0.00781903 -0.00296479 -0.000695021 0.0159132 0.0421466 0.0318498 0.00642176 0.0577899 0.0338627 0.0468965 0.0360758 0.0425632 0.028713 0.0165963 0.0772347 0.0826908 0.061811 0.0512124 0.0186652 0.0175806 0.00528833 -0.00895572 -0.00771741 0.0201766 -0.00701397 -0.00316415 -0.0160833 0.00483094 0.00206956 -0.0219603 0.00691301 0.0302841 0.0254999 0.0496617 0.0459329 0.0602505 0.0621149 0.101049 0.0630534 0.0377074 0.0209505 0.0564683 0.0755154 0.0902484 0.0387277 0.0518362 0.0311015 0.0120176 -0.0119458 -0.0104087 -0.00997129 -0.0126052 0.0132324 -0.00184318 0.000512702 -0.000847993 -0.014075 -0.015352 0.0182292 0.0273404 0.0305176 0.0445102 0.0354031 0.0812147 0.112251 0.0788371 0.0900766 0.0208121 0.0183757 0.0803489 0.0570917 0.0520978 0.0330192 0.0291654 0.0313294 0.00796133 -0.00965096 -0.0203901 0.00671027 -0.00463111 -0.0141458 0.00930613 0.00309883 -0.00752114 0.00364242 0.0125833 -0.00217413 0.0180109 0.0357443 0.0394083 0.0225093 0.0472351 0.0849079 0.0826037 0.0604836 0.0557621 0.0391247 0.043199 0.0481166 0.0416831 0.0259885 0.0213761 0.0130595 -0.0229949 -0.00410038 -0.00127859 -0.00905324 -0.00129123 0.00879137 -0.00356938 -0.0169027 0.0156979 -0.000111367 0.00657742 -0.00216385 0.00604618 0.0241104 0.0221338 0.00332063 0.0413836 0.0374065 0.0705137 0.0744651 0.0631762 0.0405745 0.0458508 0.0295486 0.00724862 0.0289564 0.0138465 0.00108925 -0.0157757 -0.00378906 -0.00652472 -0.00249242 -0.0135794 -0.000526843 -0.0222099 -0.00253412 -0.0177086 0.00977086 -0.0109295 0.00423466 -0.00475292 -0.00747932 0.00283646 0.0119053 -0.00685613 0.0119829 0.0252984 0.0464647 0.0452469 0.0155096 0.0149652 0.00703805 -0.017864 0.00875027 -0.00469632 -0.00217014 0.0279236 0.00696241 -0.0102002 0.00858888 0.00829076 -0.0139134 -0.000996787 -0.0138302 0.00278691 0.00551199 0.0147671 0.0191522 -0.021696 -0.0192517 -0.03177 0.0144677 -0.0138517 -0.0186755 -0.0381119 0.0085302 -0.00453518 -0.00029868 -0.00663884 -0.0280376 -0.00683468 0.00661394 -0.0114475 0.000869722 -0.0108099 0.00285546 0.000251786 -0.00728799 0.00655962 0.000453704 0.00205256 -0.00763714 0.00619418 -0.00557483 0.00684459 -0.0109837 -0.00480718 -0.0258749 -0.0011529 0.0022611 -0.017091 -0.000891724 0.00609422 -0.00910636 -0.00446683 -0.00808907 -0.00716147 0.00667318 0.00662992 0.00809603 0.0103359 0.00799122 -0.00600572 -0.00817321 -0.00311327 0.00512535 -0.00471872 -0.0112786 0.0113336 -0.00339332 0.004969 0.000825441 0.00319839 0.00589044 0.0144166 -0.0158335 -0.00807942 0.00922982 -0.00349907 0.00124191 0.0106789 -0.0212979 -0.0143857 -0.00931753 -0.000245658 -0.00133851 -0.0102816 -0.00387544 -0.00161736 -0.00955785 -0.00627045 0.00895587 -0.00911104 0.00513182 0.000715894 0.0107019 -0.00986181 -0.00602795 0.0188133 -0.0019305 -0.00162768 -0.00183815 0.00742599 0.00724084 0.0150285 -0.00554107 -0.00527669 -0.0122828 -0.0128398 0.0136875 -0.00622533 -0.00331695 -0.0231492 0.00524268 -0.0125263 -0.00537411 -0.0151691 -0.00419254 0.000954304 0.0172372 0.00960722 0.0219852 0.00731617 -0.000698269 0.00578846 -0.00282166 0.0111664 -0.00197775 -0.00578377 -0.00910246 0.00488427 0.00464491 0.00465858 -0.0128477 -0.0185915 -0.0115936 0.0115466 -0.00811458 0.0098416 -0.00489219 0.00585113 -0.00851548 -0.00511343 0.00250732 0.0167279 0.0151304 -0.0034788 -0.000439967 -0.00199505 0.0146641 -0.000169156 -0.0186677 0.00567978 0.00182375 0.0138705 0.00348263 -0.00775079 7.77847e-05 -0.0140919 -0.00914564 0.00944148 -0.00266368 -0.000622904 0.00245461 0.00543536 0.00246329 -0.0404448 -0.0482368 -0.0213589 0.00190115 0.0201812 -0.00544023 -0.0049594 -0.00805946 0.00520777 -0.000426061 0.00191935 -0.0203897 0.0135808 -7.35154e-05 0.0114506 0.00166723 -0.0123212 0.0133974 -0.0036056 0.00159115 -0.00168237 -0.0132976 0.0119102 -0.0250605 0.0244673 0.0180136 -0.026561 -0.0134278 -0.0298218 -0.0426264 -0.0616243 -0.0299172 -0.0218025 -0.0201455 0.00270224 0.00203941 0.00240278 0.00637597 0.0170089 0.0138415 0.00474461 0.0157596 -0.00629031 -0.014794 -0.0176239 0.0168031 0.00804 -0.00613079 -0.00336227 0.00409969 -0.0454957 -0.0379426 -0.00724425 0.00600955 0.0394795 0.0364019 0.0245184 0.033659 -0.0538466 -0.0894872 -0.0488544 -0.0282889 -0.0282262 -0.0152119 -0.00041192 -0.00750573 -0.00153508 0.0179362 0.0271966 0.0113201 0.0198957 0.00713101 0.00349736 0.0213628 0.0123891 -0.00198161 0.00311481 0.0194921 0.0367071 0.0354556 -0.0217526 0.0343714 0.0232526 -0.0209389 -0.0401408 -0.0808707 -0.0922526 -0.136249 -0.132376 -0.0845107 -0.0312183 -0.0281893 -0.00867188 -0.0159661 -0.00702441 0.00219278 0.00621513 -0.00272827 0.000713005 -0.00586506 -0.00277823 0.00392128 0.00517745 0.00706303 0.0307372 0.0340651 0.0126187 0.0195032 -0.0246574 -0.0665258 -0.0566118 0.00214922 -0.0154421 -0.00356758 0.0374329 0.0199773 0.0419133 -0.00945145 -0.0259404 -0.079665 -0.0658906 -0.0562933 -0.00292329 0.0180688 0.00308057 0.0127107 -0.00794822 -0.00566959 0.00842925 0.00684464 0.0291584 0.0240034 0.0305697 0.0217427 0.0282657 -0.0387065 -0.0808211 -0.013999 0.0797868 0.115166 0.173139 0.161318 0.207112 0.162462 0.240229 0.163458 0.0674585 0.0133053 -0.0305171 -0.0411763 -0.00528 0.000571436 -0.0131247 0.00436684 -0.00712631 -0.00746669 0.00397593 -0.00463157 0.0306776 0.0262023 0.0398444 0.0281065 -0.00428812 -0.0280779 -0.0451088 -0.0233623 0.0937012 0.119907 0.222853 0.229401 0.160756 0.12317 0.177445 0.150313 0.0389873 -0.0223575 -0.050812 -0.0544391 -0.0174818 0.0224068 0.0214692 -0.000755981 0.00420795 -0.00626681 0.0134937 0.0124128 0.0108143 0.0494224 0.0176235 -0.0278709 -0.0253903 0.0148378 -0.104431 -0.000669866 0.104662 0.122427 0.170291 0.20377 0.194515 0.192631 0.117 0.0663948 -0.00662529 -0.0658905 -0.0743231 -0.0582595 0.00238286 -0.00409604 0.00214521 0.00590921 0.00660765 0.00175722 -0.000697879 0.00425916 -0.00541903 0.000497131 -0.0107511 0.0156021 -0.000735428 -0.0572877 -0.138636 -0.0723006 -0.0156714 -0.0156238 0.107945 0.200086 0.164915 0.218268 0.0815535 -0.000158121 -0.0481155 -0.0842296 -0.0692225 -0.0534364 -0.0219234 -0.0164252 0.0105753 -0.0073244 -0.0287318 -0.00947944 0.000373823 0.00651697 0.025463 0.0277517 0.00484153 0.0113841 -0.0612015 -0.121702 -0.123949 -0.0512641 -0.0593799 -0.0403416 0.0638253 0.165567 0.135393 0.143602 0.0491076 0.00374544 -0.053064 -0.0752797 -0.0135534 -0.0676548 -0.0178517 0.00576288 0.00284972 0.00261972 0.0146893 -0.0100353 0.018473 -0.0075642 0.0178792 0.0313507 0.0478279 0.0135967 -0.0682985 -0.0894468 -0.0735012 -0.0287075 -0.184818 -0.148214 0.0294479 0.0588778 0.0144484 0.0676891 0.0361028 -0.0539644 -0.0399575 -0.0254771 -0.0589299 -0.0415991 -0.0158535 -0.0257679 -0.00300596 0.00530775 -0.0168754 -0.00874658 -0.00247245 0.0138251 0.0429733 0.0352423 0.0430805 0.0136602 -0.0563971 -0.073301 -0.135031 -0.122894 -0.105666 -0.0390676 0.094569 0.0517262 0.0535787 0.065925 0.0537524 0.00685294 -0.101951 -0.0703952 -0.0695901 -0.0553888 -0.035634 -0.00604908 0.000639344 0.00863497 0.0134667 -0.00231773 0.0037765 -0.0157099 0.0395686 0.0188212 0.00822181 -0.0358705 -0.08372 -0.0871098 -0.0489403 -0.0144757 0.053956 -0.0118436 0.060346 0.0294371 0.0339632 0.0732688 0.0526598 0.00657143 -0.0745247 -0.106034 -0.0508125 -0.0523032 -0.029659 0.00205336 0.017789 -0.0163726 0.00953605 0.00815087 -0.00666598 0.0033504 0.0325045 0.0128057 -0.00357296 -0.0853111 -0.133916 -0.0421652 -0.00149259 -0.00127967 0.0383848 0.0282865 0.0916159 0.0691571 0.0812715 0.0800062 0.0389221 -0.0193748 -0.0301979 -0.0503003 -0.0694604 -0.040836 -0.0296837 0.0221601 0.00105339 -0.00894718 -0.00504149 -0.00319939 0.00374658 -0.00164439 -0.00222728 -0.0210424 -0.08582 -0.131195 -0.116856 -0.0801672 -0.0230839 -0.0178308 -0.0217463 -0.0223475 0.0763102 0.0718337 0.117792 0.146311 0.0487529 -0.0613803 -0.0415753 -0.0366339 -0.0792235 -0.0469246 -0.00697702 -0.00180188 -0.000203572 0.00118124 -0.00671968 0.000850936 0.00341494 0.00133225 0.0387778 -0.0494673 -0.131865 -0.167369 -0.179069 -0.21547 -0.227243 -0.174847 -0.155241 -0.0935296 -0.00603191 0.0161998 0.010306 0.0707448 0.0946752 0.0074231 -0.0804193 -0.0447569 -0.0270589 -0.0111119 -0.0127311 -0.00205829 0.00071876 0.00200308 -0.0109495 -0.0060804 0.0121993 0.0211679 0.0357413 -0.0484237 -0.110389 -0.159187 -0.209417 -0.268178 -0.307188 -0.279901 -0.234327 -0.0921263 -0.0186495 -0.0368054 -0.0516483 -0.00803215 0.0486118 0.0974299 -0.00422675 -0.0921815 -0.0782057 -0.0514374 -0.0409062 -0.0511713 -0.0169808 -0.0051622 0.00592896 -0.013363 0.00321832 0.0420094 0.0661968 0.00961093 -0.106723 -0.12224 -0.179423 -0.269208 -0.280016 -0.302706 -0.239166 -0.0400989 0.0811321 -0.00214773 -0.0345037 -0.0553455 0.0269493 0.0656191 0.0102796 -0.0494848 -0.0734077 -0.0873592 -0.0706427 -0.0331368 0.0221817 0.00439359 0.00526254 0.00902189 -0.000109384 0.0681019 0.0617565 0.0532424 -0.0244514 -0.113348 -0.156797 -0.163611 -0.178917 -0.203179 -0.129508 0.0276213 0.038286 -0.073348 -0.0679285 -0.0765257 0.0365583 0.0313158 -0.0181052 -0.0232781 -0.0678931 -0.042588 -0.0161848 -0.00943206 0.0060065 -0.000741537 -0.000221923 0.00960187 0.0119712 0.0403637 0.07893 0.0750188 0.094999 0.00940205 -0.0511731 -0.0351066 -0.0814091 -0.0907836 -0.00241254 0.0237716 -0.09547 -0.103968 -0.023049 -0.0517396 0.0193878 -0.0268739 -0.00702587 0.00469975 -0.0255558 0.00409372 -0.00249463 -0.00739191 0.00203706 0.00182673 0.0022315 0.0102542 -0.00850138 0.0343905 0.0644949 0.0646528 0.059531 0.0271574 0.0464224 0.0811925 0.108476 0.0436067 0.0134356 -0.0537371 -0.168306 -0.0842452 -0.023433 0.013372 -0.0307351 -0.0401161 -0.0197384 -0.0122146 0.0111357 -0.00775649 0.00353028 -0.00225812 -0.0075019 0.00206217 -0.00618838 -0.000129254 -0.0020586 -0.00920717 0.0181936 0.0351252 0.0229437 0.0257458 0.0632153 0.0955713 0.0998369 0.021372 0.0399598 -0.0798097 -0.0402915 0.0487077 0.0850714 -0.0138651 -0.0754404 -0.0367279 -0.0303671 -0.0293638 0.00699103 0.00869254 0.0173643 -0.00709593 -0.00494145 -0.000367907 -0.022952 -0.0019428 0.0102742 -0.014928 0.01038 0.0154332 0.00601761 0.0309693 0.039975 0.0848938 0.0379914 0.0290737 0.0350511 -0.033225 -0.0300543 0.000410727 0.0331497 0.010512 -0.0158439 0.0236066 0.0115835 0.0236164 0.0173101 0.00474845 -0.0142492 -0.00030821 -0.00222969 0.0103276 0.000333829 0.00710464 0.00196553 -0.00503792 0.0133348 -0.00134152 0.0117025 0.0284552 0.0408207 0.032647 0.0583836 0.0943085 0.132693 0.0606372 0.070213 0.0541096 0.0839997 0.041707 0.0445253 0.0642185 0.0316253 0.0202808 0.0110421 0.0115398 0.0026261 0.00918266 0.00379711 -0.00216227 -0.0154297 0.00747299 0.00586171 -0.0123781 0.00684604 0.0120913 -0.0126289 0.0222272 -0.00859255 0.0186856 0.00158833 0.0295769 0.0257066 0.0287422 0.0520084 0.0175503 0.0182908 -0.00984735 0.0078016 0.0143616 0.0124705 -0.00930827 0.0128381 0.0164771 -0.00168744 -0.0113368 -0.0120779 0.0158063 -0.00616458 -0.0154458 0.00878361 -0.00375155 0.00912219 0.00303128 0.000131214 0.000160529 -0.000182921 -0.00250799 -0.00297063 0.00962658 -0.0161877 0.0120117 0.0157195 0.00920266 0.00275193 0.00765523 -0.0152949 -0.0156756 -0.0329399 -0.00277423 -0.000902849 -0.0293214 -0.0112767 0.00735903 -0.00149419 0.00538987 -0.0127066 -0.00348278 -0.00971889 -0.00754967 0.00333586 0.00671537 0.0042864 0.00500564 9.32234e-05 -0.0018829 -0.0143841 -0.00799333 -0.00941163 -0.00473202 0.0177024 0.00023628 0.0143952 0.0139992 0.000450115 -0.000530032 0.0168183 0.00353109 -0.00356867 -0.00475355 -0.000335257 0.0162203 0.0133935 0.0235096 0.00396804 0.00128364 0.000372396 0.0129511 -0.00249985 -0.00147066 -0.00478783 -0.00511411 0.00913434 -0.00263417 0.00533863 0.00672883 -0.00924643 -0.00100461 -0.0100862 0.0113067 0.00210021 -0.00232434 -0.00225675 -0.000136296 -0.00402223 0.00830549 -0.00723199 0.00702744 0.0146979 0.00436912 0.0124869 0.00216617 0.0024589 -0.00813168 -0.00970575 -0.0102303 -0.00860194 -0.00164933 0.0125717 -0.0157578 -0.00478098 -0.0234492 0.0156756 0.00220135 0.00580337 -0.0122745 0.00335507 -0.0133466 -0.000925959 0.0111474 0.0373931 0.0193794 0.0205238 -0.0014701 -0.0079486 -0.00822794 -0.00953173 -0.000460257 -0.00230059 0.00463429 -0.0262075 0.0018778 -0.00301124 -0.0246553 0.0107915 0.00448105 0.00342875 0.0149594 -0.00427682 0.0108491 -0.000970306 0.00816521 0.0062399 0.0137164 -0.000646192 -0.0205007 0.00570515 0.0156371 0.0460853 0.055752 0.0234722 0.0108168 -0.0376135 0.0135874 0.00955717 0.0035698 -0.0078929 0.0133957 0.00197868 -0.009354 -0.00132264 -0.00298917 -0.0145126 0.00492714 -0.00972949 -0.00168265 0.0105348 0.00308952 -0.0133764 -0.004659 -0.0183927 -0.0212528 -0.0466067 -0.0718186 -0.0556849 0.0011177 0.0607244 0.0315516 -0.0111684 0.0340158 0.00438359 0.0100833 0.00580592 0.00387808 0.00300503 0.000377164 0.00772522 -0.00803891 -0.00796683 -0.00132484 0.00289477 -0.000270622 0.0117051 -0.00512139 0.00669242 0.00434572 0.00782309 0.011933 -0.0117955 -0.0632442 -0.101868 -0.0989626 -0.0459984 -0.019482 -0.0333538 -0.0188429 -0.0335636 -0.00404136 -0.0126811 0.0347212 0.00643505 -0.00718142 0.00654558 -0.00778709 0.00671773 0.00128199 -0.00355652 -0.00309195 0.00477547 -0.00524496 0.0222315 0.0139517 0.0273568 0.0184131 0.0262589 -0.00406237 -0.0276042 -0.0524008 -0.086762 -0.0726788 -0.0293681 -0.00361759 -0.0274235 -0.0645297 -0.0546587 -0.0293528 -0.0311648 -0.0394761 -0.0522565 -0.0224356 0.000634643 0.000567804 0.00211557 -0.00586528 -0.00734172 0.00725581 0.0179413 -0.000178779 0.0237089 0.0469035 0.0587848 0.0178151 -0.0217738 0.0135839 0.0558091 0.00968328 -0.0311551 0.00138966 0.0163956 0.00768055 -0.0792868 -0.105998 -0.0812027 -0.0696325 -0.066566 -0.0783311 -0.0479545 -0.0342238 -0.00447091 0.0106779 0.0184389 0.00539011 -0.00825521 0.00406497 0.0250346 0.00844024 0.0382884 0.0862285 0.0574679 0.0022837 0.058261 0.0561279 0.0478011 0.0210018 -0.0224149 -0.0745661 -0.0506284 -0.0519778 -0.1315 -0.106675 -0.0657662 -0.0633528 -0.05465 -0.071747 -0.0534504 -0.0296333 -0.00553443 0.00653203 -0.0117048 0.0134232 0.0201455 -0.0113229 0.0205674 0.000773902 0.0263953 0.0557443 0.0291371 0.030127 0.0691235 0.0317186 0.0292088 -0.015437 -0.0654555 -0.0988354 -0.0695893 0.0310546 -0.107078 -0.078887 -0.0056266 -0.0105705 -0.0383435 -0.0474423 -0.037668 -0.0349018 -0.0328122 -0.00873238 0.000224177 -0.00856123 0.0205232 0.0006257 0.0091993 0.0167062 0.0411039 0.043207 0.0246922 -0.024301 -0.00635109 0.0510219 0.0237857 0.00349033 -0.0822532 -0.0525808 -0.0017695 0.0322436 -0.0915271 -0.0170204 0.025355 0.00619068 0.0234246 0.00510583 -0.0206471 -0.0200229 -0.00366401 -0.0035463 -0.00902266 0.000894652 0.00231411 0.00897133 -0.0151354 -0.00552703 0.00684987 -0.0161914 -0.00477629 -0.0474316 -0.0177726 0.0294625 0.0181168 -0.0399862 -0.0736286 -0.0169987 0.0593236 0.0251254 -0.0514398 0.00558557 0.00886522 0.0236728 0.0205959 0.0101054 0.0193565 0.0112489 -0.0167385 0.00347132 -0.00344207 -0.000527417 -0.0113848 0.00330782 -0.00768106 -0.0233273 -0.000801576 -0.0297639 -0.0367741 0.000748257 0.0369548 0.0414945 -0.00593632 -0.0882836 -0.107528 -0.00999631 0.0374976 0.0105338 -0.0188003 -0.00114422 -0.00348154 -0.00236972 -0.01483 0.0175779 0.0270008 0.00611069 -0.0121383 0.00118021 -0.00527792 -0.00678565 -0.0205232 -0.00926098 -0.0227846 -0.0114371 0.00683706 -0.0317865 -0.0598553 -0.0177691 0.0544008 0.0152843 -0.0239219 -0.0750234 -0.0857594 -0.00931618 0.0432822 0.0285082 0.00484508 0.00685415 -0.0252496 -0.0337873 0.000675762 0.029274 0.0320248 0.0144496 0.00194713 -0.0101957 -0.0197702 -0.00264524 0.00329326 0.00865509 -0.00892285 -0.00666136 0.0310467 -0.0133067 -0.069215 -0.0332097 0.0120996 -0.0206144 -0.0370768 -0.0515519 -0.0220736 0.0394299 0.077046 0.0112683 0.0473566 0.0352256 0.0199708 -0.00333843 0.00951484 0.0194682 0.0125846 0.0057028 0.0113402 -0.0108 0.000175647 -0.00780146 -0.00536021 0.00335739 0.0137954 0.0171571 0.0438702 -0.00748064 -0.0191925 -0.0293048 -0.0213745 -0.00749761 -0.0148918 -0.0101098 0.0508197 0.12001 0.0665669 0.0144709 0.0162786 0.0900078 0.0694832 0.0399591 0.0252187 0.00337131 0.00853726 0.00192238 -0.00546236 -0.015266 0.00399258 -0.000985003 0.0068882 0.0221554 0.00494091 -0.00611685 0.00550542 0.0231054 0.0348816 0.0575746 0.050802 0.0219467 0.0148362 0.0301613 0.05914 0.131107 0.125984 -0.00496394 0.0523142 0.0945817 0.0513904 0.049928 0.0171496 -0.0147627 -0.0160175 0.000113036 0.0109561 0.000230239 0.021715 0.00196857 -0.000899952 -0.0227285 -0.0134594 -0.0194504 -0.0276967 -0.00854905 0.0268721 0.0250531 0.0789226 0.0315903 -0.0234687 0.0230735 0.0737914 0.16743 0.10381 0.00854953 0.0199318 0.0491216 0.0212884 0.00499463 0.0146913 0.00481386 -0.010281 0.0188483 -0.00768281 0.0149122 0.00427257 0.0116919 0.00185268 -0.0209754 -0.0124783 -0.0754668 -0.0243618 -0.0422746 -0.0170812 -0.0063309 0.0197025 0.0221807 -0.0251383 0.037423 0.12452 0.15308 0.0563688 -0.0128875 -0.00380109 0.0228476 -8.7444e-05 0.00130578 0.00764078 -0.00494874 0.00949258 0.0206028 -0.0173642 -0.00520322 0.0126758 0.00855839 0.0102208 -0.0150986 -0.00803287 -0.0703707 -0.0852191 -0.0778876 -0.07845 -0.0806208 -0.0282903 -0.0126047 0.0194833 0.0853256 0.127227 0.141999 0.0239134 -0.0691405 -0.0453588 -0.0118622 -0.0391031 -0.00890291 -0.018966 0.00116724 0.0124867 -0.000178134 0.00141213 -0.00204146 0.00864218 0.00476885 0.0188742 0.0136694 0.018809 0.00343441 -0.0592406 -0.0870291 -0.137843 -0.140746 -0.0855486 -0.0571928 0.0453562 0.118179 0.140532 0.100693 -0.0175633 -0.0742062 -0.0414598 -0.0549903 -0.0410156 -0.0308502 0.00321255 -0.00288678 0.0114902 -0.0134742 0.00172684 0.00398606 0.00367954 -0.0256927 -0.0135591 0.0228952 0.0203198 0.00668951 -0.0393208 -0.0412038 -0.12097 -0.122954 -0.110009 -0.0759819 0.0300427 0.109861 0.114452 0.0339924 -0.0863988 -0.10054 -0.070624 -0.0516166 -0.0202312 -0.010727 -0.0152131 0.0104162 -0.00371719 -0.00919659 0.00715654 -0.00581555 0.00358536 0.00496205 -0.00104423 0.00976617 0.00738602 0.00414676 -0.0133906 -0.0124245 -0.0704918 -0.106286 -0.0859178 -0.0426735 -0.0539247 -0.0060831 0.0139245 -0.0459033 -0.0680676 -0.116793 -0.0515639 -0.0319189 -0.011055 0.0167702 -0.015004 -0.00639864 0.0032187 -0.0118217 -0.00482042 -0.0109342 0.00286705 0.004229 0.00113698 -0.0239256 0.00644456 -0.0169824 0.0110575 -0.0172099 -0.0491817 -0.0631408 0.00768032 -0.0163142 -0.0153178 -0.0344964 -0.0645597 -0.0402713 -0.105463 -0.0915371 -0.0243674 -0.0277816 0.00280347 0.00382266 0.00667251 -0.0131112 -0.0058867 -0.0128808 -0.0149147 0.00659267 -0.00267151 0.0131813 -0.0225222 -0.00426415 -0.0104063 -0.00321442 -0.0110814 0.0111109 -0.00159351 -0.00158975 0.0394099 0.0585633 0.0515078 0.0500477 0.0237403 0.0263841 -0.051596 -0.0343166 -0.00162232 -0.0298441 6.16592e-05 -0.0118731 -0.0130998 0.0174596 0.010143 0.000409758 0.0142262 0.00606404 -0.000759953 -0.0043343 0.00230624 0.00491901 0.00541821 0.0234035 0.00723891 0.00100213 0.041054 0.0536834 0.0159956 0.0257067 0.0421418 0.034812 0.0245283 -0.0109428 -0.00513529 -0.0454381 -0.0342118 -0.00327371 -0.00995056 0.0096183 -0.00211951 0.00974775 -0.0104837 -0.0133428 -0.00460139 0.0113064 -0.00528617 0.00694939 0.00721248 0.0046326 -0.010162 0.00166628 0.0116992 0.0293596 0.00996482 0.0342702 0.0296055 0.0306336 0.026021 0.0128103 0.00855693 0.00293514 -0.0158397 -0.0161137 -0.00418575 0.00257208 -0.00023949 -0.00604889 -0.00676291 0.0243903 0.00505107 0.00193844 -0.00798056 -0.000427785 0.0184501 -0.00070992 -0.00419181 -0.00038193 0.00139184 -0.0168745 -0.003568 0.00821248 0.00581943 -0.0125117 -0.0209199 -0.000950684 0.0125206 -0.0107869 -0.00146927 0.00270203 0.00634736 0.00672958 0.00443385 -0.00217069 -0.00791719 0.00784585 0.00851552 0.00560573 -0.0153106 -0.00294065 -0.00103693 -0.00312927 0.013417 0.00539341 0.00525757 -0.00323616 0.00584014 0.000383507 -0.00267926 0.0014659 -0.000114292 0.0137748 0.00343419 -0.00635029 0.0082894 0.00188633 0.00345837 0.0276611 -0.00330672 0.000317167 -0.00109123 -0.00690417 0.0188854 -0.0127573 0.000292594 -0.00999223 0.00799359 0.00646054 0.00887132 -0.00403854 -0.00775726 0.012008 -0.00172608 -0.00130432 0.0016895 0.00568587 -0.019681 0.00436545 -0.00994073 -0.0105415 0.0144204 -0.00715984 0.00835829 -0.000174334 -0.0072852 -0.0283926 0.00340451 -0.00227522 0.00213427 -0.00875275 0.0122884 0.0101225 0.00214517 -0.0208476 0.0140458 -0.00730946 -0.0364238 0.00762065 0.00589063 -0.000335904 -0.000333948 -0.00059692 0.0098896 -0.00339822 0.0109017 -0.0165265 0.00302138 -0.0105104 -0.00072544 0.00131838 -0.00773839 -0.00161044 0.00506545 0.00276761 -0.00437187 -0.0121124 -0.00996994 0.000371829 0.00298548 -0.000163945 -0.000182144 0.0228677 0.00540735 0.00307307 0.00587595 0.00664578 0.00854722 0.00912725 -0.000174055 0.00509138 -0.0178224 -0.00819025 -0.0110128 -0.000180328 -0.0140427 -0.00789109 -0.0111057 0.00483132 0.00246087 -0.0236576 -0.0120262 -0.00520845 -0.0215305 -0.00292212 -0.0321803 -0.0172175 -0.00937086 -0.0170477 -0.00666113 0.00244339 -0.0231971 0.00113141 0.00419691 0.0142104 0.000593456 0.00442493 -0.00324072 -0.0159735 -0.0153457 -0.00292047 -0.00595992 -0.0300166 -0.0167601 -0.00653088 -0.021455 -0.0278048 -0.0627613 -0.0642349 -0.0636314 -0.0456956 -0.0297377 0.00211905 -0.00611196 -0.0485142 -0.0523523 -0.0601918 -0.0648974 -0.059431 -0.0392583 -0.0075557 -0.00390547 0.00534499 0.00679685 0.0142132 -0.000282847 0.0180403 0.00359577 -0.0160103 -0.0203736 -0.0453333 -0.0382418 -0.0568797 -0.0537148 -0.0451704 -0.11002 -0.106689 -0.0787939 -0.0456045 -0.0303018 -0.0387698 -0.0312005 -0.00746857 0.0011761 -0.0103048 0.0235492 0.0446448 0.00309819 -0.0221374 0.00247198 0.00484675 -0.00520639 0.00129497 -0.0117081 0.0099184 -0.00677294 -0.0100282 -0.00186921 -0.0138122 0.0203455 -0.0147773 -0.0193368 -0.0120468 -0.00598525 -0.0539511 -0.0102928 -0.0119285 -0.0574977 -0.0447132 0.00827843 -0.00657167 0.0592887 0.10435 0.122852 0.0851826 0.0443718 0.0112569 -0.000386913 -0.00359983 -0.00183533 0.0050594 -0.00924918 -0.00142337 -0.0239751 0.00929643 0.00705592 0.0159918 0.0182946 0.00178764 0.00886616 0.00747672 -0.00618468 0.0510873 0.0571361 -0.0244766 -0.0337671 0.00690213 0.0534177 0.116062 0.140726 0.157378 0.115174 0.0738325 0.0219351 0.0219475 0.00450654 0.0246101 0.0221604 -0.00147241 0.00445388 0.00677069 -0.0256594 -0.0311824 -0.00192788 -0.00422085 0.0243291 0.0612782 0.0453234 0.0756155 0.0193085 0.0429998 -0.0157229 0.000371674 -0.0186814 -0.0633948 -0.00739813 -0.00208243 -0.000333729 0.0466853 0.0152764 0.0306974 0.0112236 -0.00516706 -0.00155299 -0.00883034 0.0061803 0.00791365 0.0072845 -0.036921 -0.0391409 0.00884018 0.0196244 0.0228384 0.0210191 0.110466 0.111851 0.0793616 0.0275066 -0.0405599 -0.0995607 -0.129703 -0.106261 -0.139213 -0.112929 -0.0964341 -0.111102 -0.0160565 -0.00249346 0.0205779 0.0124819 0.025537 -0.00646704 -0.0147099 -0.0262815 -0.0145803 0.00380267 -0.0294314 -0.00450347 0.020049 0.0337769 0.00926885 0.0660593 0.159434 0.0540688 -0.00377964 -0.0718845 -0.0622186 -0.123566 -0.157212 -0.118425 -0.166224 -0.155135 -0.100432 -0.0424472 -0.0540583 -0.0414401 -0.00819318 0.00550777 0.0124913 -0.000569313 -0.000745471 -0.0149806 -0.0127459 -0.013308 -0.0155481 0.032858 -0.00107641 -0.012761 0.0105192 0.0642998 0.0614051 -0.00791224 -0.0145024 -0.0969831 -0.110718 -0.0952595 -0.0816733 -0.0875335 -0.134315 -0.0854526 -0.0950675 -0.0707721 -0.0549851 -0.0634481 -0.0174666 6.20433e-05 -0.00397705 0.00174072 0.0106297 0.0138282 0.000375318 0.00477107 0.0131124 0.0284113 0.0248284 0.0271398 0.0555444 0.117549 0.0313451 -0.00626021 -0.0442953 -0.00663358 -0.0272545 -0.0350442 -0.00969202 -0.0374969 -0.0862483 -0.0574893 -0.0792728 -0.0562108 -0.0719741 -0.0493357 -0.0309547 -5.70773e-05 -0.00113052 -0.012058 0.00705761 0.0115775 0.0023537 0.00545595 0.0356439 0.0144262 0.0238694 0.0741822 0.0767423 0.145858 0.0919039 -0.0261852 -0.00386984 0.00831071 -0.0453712 -0.0673381 -0.0351351 -0.00215852 -0.0196163 0.0275755 -0.0166068 -0.0325218 -0.00165649 -0.0398457 -0.0190251 -0.0100721 -0.0122683 -0.0148771 -0.0125065 0.00806453 0.0159934 0.0102352 0.0155932 0.0224503 0.00907276 0.0158487 0.0251905 0.0691534 0.0554162 0.0477255 0.0262184 0.00405579 -0.0404025 -0.0505644 0.0112521 -0.0141 0.0118788 0.0075904 -0.00705337 -0.00101389 0.00540579 0.0265284 0.0292832 0.0133905 -0.010118 0.00679627 -0.00200844 0.0177805 0.0243134 -0.00288012 0.00561288 -0.00031005 -0.0246468 -0.00656834 -0.00936365 0.0346283 -0.0295219 0.0190319 0.0485196 0.0295561 0.0131519 -0.0453418 -0.0687649 -0.0683497 -0.0777463 -0.0345348 -0.0416528 -0.0378001 -0.00996402 0.0224026 0.0403056 0.0551436 0.0114826 0.00184975 0.00360559 -0.00162657 -0.00603386 -0.0114285 0.00862813 -0.00153435 -0.00507899 -0.0330413 -0.0231906 0.0212956 -0.0398956 0.00427129 -0.0473315 -0.0684755 -0.083972 -0.126978 -0.0937982 -0.0581636 -0.0697966 -0.0303971 -0.0397983 -0.0685572 -0.0338586 0.0137596 0.00627581 0.0496284 -0.00488969 -0.0160485 -0.00491723 0.00173648 0.0151992 -0.00131204 0.00623626 -0.00761143 -0.0311096 -0.0438885 -0.0455483 -0.0537844 -0.080406 -0.110569 -0.0930949 -0.115185 -0.117657 -0.122904 -0.138566 -0.0866109 -0.0304038 -0.0024561 -0.0532128 -0.0795953 0.0113535 -0.00105677 0.0409194 0.0549982 -0.0176786 0.00473107 0.0022615 -0.0112164 0.00475059 -0.00846583 -0.00508512 -0.01398 -0.0478583 -0.0433218 -0.0561119 -0.0769072 -0.12233 -0.124238 -0.126681 -0.17291 -0.153737 -0.161065 -0.17257 -0.124291 -0.0911458 -0.0459394 -0.059584 0.00625312 0.0527605 0.030195 0.0403784 0.032256 -0.00835722 -0.0077205 -0.0230605 -0.00184165 0.00227642 0.000994102 -0.0170546 -0.0300075 -0.0285571 -0.0358218 0.00235113 0.0141392 -0.0660725 -0.134344 -0.154125 -0.155079 -0.144339 -0.1313 -0.154561 -0.0892963 -0.0775523 -0.0615936 -0.0571505 -0.0102918 0.103087 0.0914072 0.0134422 0.0033407 0.00795018 -0.0061205 0.013914 0.0111046 0.0101062 0.00830217 -0.00146324 -0.019527 -0.0267523 0.00298796 -0.0322725 -0.0449234 -0.0341423 -0.117258 -0.124439 -0.0765334 -0.0763728 -0.125588 -0.107142 -0.0833174 -0.060522 -0.0263117 0.0306208 0.0266588 0.0448064 0.0697015 0.028743 -0.00250165 0.00839214 0.00666914 0.0153947 0.00560712 -0.00403685 -0.00665611 -0.0255261 -0.0284014 -0.0216099 -0.0302167 -0.0468756 -0.0623388 -0.0405902 -0.0581024 -0.0909922 -0.0777396 -0.090942 -0.110472 -0.115956 -0.0753306 -0.0346246 0.0533632 0.0489328 0.0621754 0.0153253 0.0344579 0.0462746 -0.0104687 0.00655776 -0.00853202 -0.00436742 0.017017 0.00970888 0.00768619 -0.0119301 0.00201178 0.0105322 -0.00530769 -0.0242307 0.00502907 0.00768352 0.00157888 0.0306105 0.0768124 0.050825 -0.00289779 -0.0440041 0.00885248 0.0935546 0.128973 0.0918368 0.0345657 0.0107792 0.0143948 0.0109143 -0.0196093 -0.00204472 -0.000544439 -0.00699492 0.00191049 0.00294529 0.00154636 0.00555807 0.0125522 0.0147595 0.0268584 0.00100786 0.0111469 0.00494494 0.0694524 0.0857131 0.0888709 0.0613967 0.0862926 0.114503 0.110004 0.157225 0.0884993 0.0397602 -0.0329182 -0.0187027 -0.011327 0.00558868 -0.00229832 -0.0112841 -0.0176226 -0.0014727 0.00511427 0.00119842 0.0132972 -0.000714226 0.0052904 0.0295341 0.0224572 0.0351789 0.00039224 0.00808929 0.00203581 -0.00387489 0.0103512 0.0296188 0.10028 0.125055 0.120888 0.0531475 0.0164925 -0.0260857 -0.00881158 -0.00586559 0.0121544 0.00594188 -0.00519878 -0.00400696 -0.00783057 0.00120964 0.00442348 0.00617756 -0.0146008 -0.00342689 0.00482501 -0.00822397 -0.020776 0.000983751 -0.00782644 0.000706836 -0.0140695 -0.00781567 0.0148798 0.0151318 0.0287778 0.0458561 -0.00671749 0.00510273 -0.0162827 0.0094907 0.0241242 -0.0130153 0.00444706 -0.0100685 0.0055949 -0.00153613 -0.00271041 -0.00840996 -0.00337412 0.0122476 -0.0121429 0.00203012 -0.00643543 -0.0153194 0.0103215 -0.0219306 -0.00668904 -0.00856461 -0.00985889 0.00396088 0.0147306 0.00057738 -0.027151 -0.00914121 -0.0368593 -0.0130958 -0.00269346 -0.00693569 0.00386999 -0.00998839 0.00412515 -0.0017834 -0.00304645 -0.0136914 -0.0062479 -0.00160055 -0.0045293 0.0335301 -0.00635353 -0.00727929 -0.00861544 -0.000777473 0.00186895 -0.00305007 0.000975463 0.0122619 -0.0140064 0.0105499 -0.00226911 -0.0041311 0.0154891 0.00560405 0.0109875 0.0146047 -0.0048699 -0.00892324 -0.0141327 0.00270307 -0.00670144 0.00661969 -0.0133992 -0.00730588 0.00686016 -0.00749445 -0.0011952 0.00252275 0.0178966 -0.00678167 0.0107548 0.0171256 0.0214915 -0.0168129 0.019783 -0.0133387 -0.00760585 -0.00613767 -0.000104231 -0.00301944 -0.0197814 0.013801 -0.00302247 0.00441633 0.00392328 -0.00189089 -0.00544678 9.88186e-05 -0.00539544 0.00699613 -0.00127787 -0.0221634 0.0137914 -0.00420928 -0.00275419 0.00386219 -0.00509883 -0.0163917 -0.00480721 0.0185511 -0.00654808 -0.00748448 0.00315865 -0.00241852 0.00260242 0.00530852 -0.000431288 -0.00806036 0.00498574 -0.00541592 0.0176654 -0.0109728 0.00522492 0.00798415 -0.0132518 -0.0105186 -0.0130747 0.00569269 0.0019811 0.00547099 -0.0117987 -0.000877735 -0.00771965 0.00319727 -0.00566372 -0.0112519 -0.0109847 -0.00334912 -0.0231349 0.00144426 0.00807726 -0.0016562 0.00485307 -0.0163669 0.00266029 0.0144171 0.0101367 -0.0241962 0.0061221 -0.0110011 -0.0116875 -0.00661214 -0.0090565 -0.00631689 -0.00166587 -0.0103155 -0.0103822 -0.00366794 0.00513598 0.0108029 0.0129089 0.0106403 -0.0023291 0.00175263 -0.00215834 0.00170379 -0.00864611 -0.00303271 -0.00945455 -0.0129749 -0.0108648 -0.00324604 0.00895242 0.0074919 -0.0152283 -0.0213341 -0.0110887 0.0270914 -0.00913378 -0.0187176 -0.0147693 -0.0178423 -0.0182897 -0.00896936 -0.00978495 -0.00332024 -0.00699102 0.00715783 -0.00444662 0.00731935 0.00756646 -0.00428602 0.0183373 -0.0141057 -0.0186294 -0.00539722 0.00602587 0.0346201 0.0379357 0.0414327 0.0135877 0.018675 -0.00980717 -0.00933253 -0.000261593 0.0136873 0.0102093 -0.0228227 -0.0572629 -0.0508006 0.000976924 0.00440255 -0.00183165 -0.0176995 -0.00797286 0.00615796 -0.00266697 -0.00988815 -0.00112191 0.00818535 0.00840476 0.00795904 -0.021521 0.0129908 0.0602077 0.0748956 0.112503 0.0809156 0.0353689 0.0412736 0.0674046 0.0893389 0.0863096 0.0742497 0.0174942 0.043648 0.0318473 0.0440841 0.0181429 0.012023 -0.0225963 -0.0019928 0.00435132 0.00369016 0.00342579 0.00123523 0.00228833 0.0148541 0.021324 0.0182724 0.0190014 0.0565076 0.091468 0.139349 0.144915 0.0923018 0.0417431 0.0531989 0.0657844 0.0664264 0.133565 0.0894108 0.0578646 0.0246096 0.00748678 0.0448713 0.00168138 -0.0299399 -0.020471 -0.00791588 -0.00746654 -0.00266496 -0.0149847 -0.0146696 0.0111029 -0.00954836 0.0092229 0.0021311 0.0250787 0.0472474 0.0827268 0.124383 0.115255 0.072512 0.0205936 0.0806804 0.0418848 0.0743149 0.151313 0.157834 0.0904902 0.0276348 0.0520388 0.0912231 -0.00860721 -0.0836707 -0.039976 -0.0150866 0.00805703 0.0085397 -0.00299155 -0.0110893 0.00458877 0.00476324 0.00299077 0.0136269 0.0481377 0.0811223 0.0742603 0.0403307 0.0361789 -0.0102678 0.00155393 0.0406905 0.125091 0.166997 0.152844 0.122423 0.0890269 0.0598487 0.0952089 0.0803671 -0.0200246 -0.0975884 -0.0861071 -0.0318899 -0.00472389 0.00148324 0.00199739 -0.00725379 0.0164096 0.0131321 -0.0116804 0.0244308 0.0473275 0.0210923 0.0446492 -0.00879131 -0.0440047 -0.0635874 -0.0652703 0.0192711 0.118367 0.138326 0.098676 0.113971 0.0831238 0.0317892 0.0597885 -0.01236 -0.0423394 -0.0731506 -0.0723107 -0.0401629 0.0109388 -0.00119886 -0.000135279 0.00682353 0.000953123 0.0231458 -0.0129597 -0.00883665 -0.00160037 -0.0802487 -0.0848971 -0.11132 -0.150948 -0.177325 -0.132676 -0.118878 -0.00667604 0.0764513 0.158069 0.139743 0.0824513 0.0732346 0.0402846 -0.0309216 -0.0704961 -0.0202534 -0.0336405 -0.0272574 -0.0055083 -0.0163085 -0.00792038 0.00190352 0.00208848 0.0129006 -0.0154766 -0.0251267 -0.0772905 -0.145565 -0.186712 -0.204337 -0.248612 -0.286998 -0.244749 -0.199814 -0.0562042 0.0787777 0.147574 0.120349 0.043867 -0.000433963 -0.0295651 -0.0976043 -0.0757127 -0.0214591 -0.02161 -0.0273688 0.00688292 -0.006258 0.00439623 0.00852644 0.00958438 -0.00438288 -0.0181711 -0.0160769 -0.0875487 -0.151299 -0.187643 -0.237365 -0.227431 -0.262168 -0.273041 -0.199569 -0.10534 -0.0328194 -0.00978953 0.00567196 -0.040258 -0.0413514 -0.0792055 -0.0978159 -0.0227209 -0.016483 -0.0171552 -0.0100602 -0.00896474 0.00592836 0.00508909 -0.0103773 -0.00270954 -0.0112895 0.00242764 -0.023311 -0.104765 -0.161954 -0.181704 -0.213763 -0.132502 -0.188493 -0.249339 -0.166156 -0.106396 -0.139342 -0.170754 -0.141392 -0.0981745 -0.0591636 -0.0487227 -0.0534946 -0.0286761 -0.0389982 -0.0129847 -0.0101683 -0.0161708 -0.0107063 -0.00619936 -0.00820831 -0.0223789 0.00366685 0.028677 -0.0112028 -0.0783666 -0.10379 -0.14528 -0.0799103 -0.0827951 -0.13791 -0.132107 -0.075609 -0.0873618 -0.140648 -0.121896 -0.0859638 -0.0936255 -0.0271761 -0.00975038 -0.0393952 -0.00903197 -0.0357893 -0.0221472 -0.0319428 0.00759812 0.000261774 0.0198938 0.0129221 0.0123686 -0.000408947 0.017629 0.0325635 -0.0268498 -0.0799207 -0.0477664 0.0231019 -0.0136027 -0.0470518 -0.0369896 -0.00901148 -0.0148468 -0.0347829 0.00844503 -0.0969999 -0.0523725 -0.00846138 0.0208547 0.0132997 -0.0309776 -0.0336672 -0.0144678 -0.00789543 0.0122615 -0.00767016 0.00569659 -0.00268707 0.00292557 -0.00942604 0.0212199 0.0254001 0.0163458 -0.0388723 0.0166307 0.0446926 0.0485306 -0.00279059 -0.00953679 -0.00129614 0.0140764 0.0483189 0.0334928 -0.086554 -0.0358714 0.0437728 0.0482997 0.0324645 -0.0190973 -0.00813344 0.00815406 0.0192143 0.0193743 0.00646309 -0.000230383 0.0254358 0.0179498 -0.00407885 0.0383771 0.0350423 0.0366562 0.0133005 0.0557616 -0.00254347 -0.0137551 -0.0602947 -0.0655649 -0.0301158 0.0405334 0.0215085 -0.0110338 -0.037079 -0.0153438 0.0633489 0.0406316 0.0083818 -0.0150963 -0.0260992 0.0146521 0.0251543 0.0169109 0.00524107 -0.00767237 0.00698147 -0.0162595 0.00910837 0.0230176 0.0392766 0.0593674 0.078934 0.000909202 -0.0361061 -0.051194 -0.0502605 -0.0323992 0.0176949 0.0164534 -0.02356 0.0112302 -0.00832466 0.00476407 0.0490614 -0.00845742 -0.0490754 -0.0266526 -0.0270615 0.0451256 0.0331332 -0.0165644 -0.0153603 0.000815695 -0.0140055 0.00632726 -0.00685203 -0.00172427 0.0580603 0.0290454 0.0377694 0.00169433 0.00481458 -0.0268161 -0.00752745 0.0258737 0.0635452 -0.0218525 -0.00138367 -0.0177374 0.00300136 -0.0387924 -0.0130515 -0.0695478 -0.0300147 0.0474456 0.0251002 0.036141 0.00357107 -0.0193816 0.00600961 -0.0016904 -0.00621773 0.011087 -0.00268414 0.0328405 0.0616604 0.0184577 0.0237198 0.0286592 0.0513881 0.0734132 0.0281088 0.0140871 0.044471 0.0407302 0.0326489 0.0522722 0.0224575 0.00125275 -0.0078636 -0.0115571 0.0445469 0.0901008 0.0734119 0.048296 0.0132788 -0.00344054 9.21335e-05 0.00468294 0.0167995 -0.00819662 0.0134796 0.0369119 0.101799 0.0496471 0.00920189 0.0444195 0.0617215 0.106524 0.094362 0.0563313 -0.00160898 0.0116361 0.0309089 0.059892 0.0362393 0.0171395 0.00750424 -0.0145105 0.00528932 0.0526163 0.0657579 0.0117411 0.00461675 -0.0123915 0.00278692 -0.00426881 0.0127296 8.8222e-05 0.0034283 0.0429297 0.065432 0.0498522 0.0376777 -0.0113976 0.073706 0.069039 0.0270725 -0.00798666 -0.0141636 -0.0390406 -0.0591646 -0.0380562 0.0169631 0.0014696 -0.0374597 -0.027709 0.010703 0.0450611 0.0259278 0.00862872 0.00960702 0.00587147 0.0219672 -0.00888904 -0.0136994 -0.00462685 -0.00723111 0.0102528 0.0134866 -0.00207271 -0.013834 -0.016793 -0.0141323 0.0612755 0.0456993 -0.0518805 -0.0637634 -0.0603986 -0.0687066 -0.019802 -0.0303788 -0.0230735 -0.0579979 -0.0157658 0.0152117 0.0157012 0.00759241 -0.00229491 6.5415e-06 -0.00587974 0.00697848 0.0197128 -0.0151792 0.00656654 -0.0140787 0.00600424 0.0181422 -0.0117709 -0.0391043 -0.00918097 -0.00130749 0.030586 0.0474697 0.030116 0.0292253 -0.0343442 0.00481023 0.0281182 -0.00624645 -0.0220343 -0.0128574 0.0142865 -0.00296271 0.0329725 -0.00029797 0.00438385 -0.01548 -0.0215189 -0.00111453 0.00923909 0.0192041 0.00142764 -0.00701099 -0.00514116 -0.00520694 0.00219364 0.00625368 0.00992745 0.0344675 0.0208962 0.0341036 0.0391982 0.0174074 0.0199029 0.0452385 0.0243485 0.00988652 -0.00883783 -0.0156364 -0.00290145 -0.00153514 -0.0236722 0.0107578 -0.00703692 0.0195204 -0.00731355 0.00947268 0.0109428 0.00157942 0.00446389 0.00216868 0.00628507 -0.0149919 0.00385892 0.0160351 0.00106889 0.0297466 0.0326792 0.0349783 0.0349538 -0.00841577 0.00887817 0.0149383 0.023221 0.00972819 0.0102891 -0.0119792 -0.0132346 0.00379828 0.00340848 -0.000996135 -0.00714479 0.0111221 0.00238852 -0.0093036 0.00891273 0.00715094 0.0132079 0.0038134 0.00722218 -0.000857996 0.012614 0.0145544 -0.0054259 0.00527632 -0.0187948 -0.00572065 -0.00382381 0.0110904 -0.0114916 -0.00149674 0.00992027 -0.0142004 0.00391864 -0.00310464 0.00497107 -0.00973007 -0.00734211 0.00160969 0.00214952 -0.0151836 -0.00370587 0.00353567 0.00332653 -0.00127647 0.0021509 -0.00917809 0.00175229 0.00726764 -0.00910486 -0.0035887 0.00367677 -0.00720258 0.000198061 -0.00295372 -0.00987834 0.00442622 -0.0115371 -0.0150652 -0.024124 0.0158409 -0.00127307 0.008233 0.00112113 0.0100109 0.00605511 -0.0108473 0.00248493 -0.000908882 0.00915248 0.0100233 -0.00135327 0.00013815 0.00468647 0.0180352 -0.0130165 0.0140394 0.00592812 -0.00453023 0.00121086 -0.00243643 -0.00662016 0.0158312 0.024709 -0.00686017 0.00304517 0.00477401 -0.00130158 -0.002718 -0.0075983 0.00480647 -0.00220604 -0.00295421 -0.01531 -0.00714726 -0.00586785 0.0207371 5.26076e-05 -0.00627233 0.00685152 -0.00199188 -0.0162036 0.00182467 0.00712535 0.0156977 -0.0041455 0.00317917 -0.0153946 -0.0165221 0.0117694 0.00742618 -0.004408 0.0115634 -0.0117575 0.0153584 -0.00138949 -0.00842217 -0.0161783 -0.0085124 -0.0229451 -0.0150725 -0.00171096 -0.0131849 -0.0106793 -0.00611929 0.0202203 -0.00713407 -0.0110465 0.00382203 0.00194991 0.00218198 -0.00332068 -1.07597e-05 -0.00664196 0.00078298 0.0167559 0.0151899 -0.00237699 -0.0056679 -0.000221482 0.014723 -0.0253656 -0.0269274 0.00290204 -0.00212953 -0.0130633 -0.00315421 -0.00804602 -0.0173719 -0.0312054 -0.0211269 0.00395055 0.0152999 0.00259133 -0.00228588 0.0119925 0.00639766 -0.00264667 -0.0204009 0.00515244 -0.0105679 0.0151554 0.000815088 0.010526 -0.0125076 -0.0216556 -0.0279736 -0.0485303 -0.0137793 -0.0232322 -0.0380951 -0.0432018 -0.0116042 -0.00346508 -0.0129764 -0.0251571 0.00788987 -0.000264253 0.00352884 -0.00478016 -0.0130075 0.00573869 -0.0122207 -0.00131711 -0.00678385 -0.00194735 -0.00345846 -0.0112266 -0.0121843 0.00848301 -0.00320555 -0.000495754 -0.0470303 -0.00420188 0.0169346 -0.00345559 -0.0597762 -0.0985225 -0.13673 -0.102728 -0.113329 -0.0789795 -0.125697 -0.0601415 -0.0265086 -0.0479881 -0.0502768 -0.0286035 -0.00323488 0.0208263 -0.0117775 -0.00288469 -0.0137107 0.0131288 -0.00948249 -0.00166987 -0.00309693 -0.0066671 -0.0146117 -0.108899 -0.0922836 -0.0942102 -0.103237 -0.0864679 -0.121607 -0.102358 -0.105143 -0.0558817 -0.11669 -0.0876551 -0.0676081 -0.0122008 -0.031751 -0.0732718 -0.112406 -0.0778033 -0.0153858 -0.00762826 -0.00906209 -0.0121245 -0.00192342 -0.00668366 -0.00732737 0.0261166 0.0268802 0.00741124 -0.0411445 -0.131893 -0.140275 -0.19455 -0.163973 -0.127573 -0.083479 0.0300996 0.0256497 0.0795142 0.031694 -0.0367418 -0.0146688 -0.0425402 -0.0125738 -0.0366659 -0.0829255 -0.095642 -0.0578688 -0.0172901 -0.00127754 0.00526855 -0.00679777 -0.00447361 0.00676966 0.00926517 0.00903075 0.00901152 -0.013353 -0.103628 -0.127124 -0.117047 -0.0853603 -0.0544398 0.0714148 0.0211184 -0.00276464 0.00941607 0.0490409 -0.0303917 0.012661 0.0144722 0.0142629 0.0220102 0.00667302 -0.0322539 -0.0458624 -0.0210359 0.01277 0.0114756 0.00284341 0.00705214 2.02855e-05 0.0218247 0.0161228 -0.000227548 -0.0303775 -0.0171309 -0.0502018 -0.0229416 0.00574073 0.0227598 -0.00273113 -0.0563405 -0.0582049 -0.0692737 -0.0118522 0.038104 0.0811925 0.0661306 0.0465751 0.0316841 0.0300635 -0.0385499 -0.0515855 -0.0297808 -0.0135728 0.0174707 0.00851209 0.00535258 0.00354725 0.0287832 -0.0346438 -0.0170061 0.00480626 0.0969658 0.0261402 0.0138854 0.0612662 0.026158 0.0168619 -0.0999088 -0.0949186 -0.0447498 0.0591555 0.156285 0.158232 0.0615911 0.0767551 0.0602399 0.0361514 0.0102862 -0.028848 0.00183392 0.00417004 -0.0153484 0.00103104 0.00118892 -0.00283992 0.0303502 0.014164 0.00848958 0.0754211 0.138857 0.0760685 0.0283574 0.0409778 -0.0559657 -0.155189 -0.147148 -0.0943614 0.0637203 0.121392 0.20951 0.24628 0.162055 0.0923805 0.0731573 0.0768152 0.0275167 -0.0127196 -0.0213803 -0.00282986 0.000819393 0.0184397 -0.00608302 0.00240559 0.00579799 0.0100689 0.0502502 0.105634 0.123925 0.106589 0.0624185 -0.0168091 -0.162822 -0.197561 -0.181745 -0.0763049 0.0208749 0.137854 0.174767 0.160791 0.153174 0.0640914 0.112282 0.0806958 0.031145 0.00848281 0.0142197 0.000716703 0.00426269 -0.00283505 -0.000932973 -0.0149709 0.0180037 0.0302048 0.0968055 0.125259 0.158988 0.13185 0.019635 -0.063879 -0.121004 -0.123871 -0.101322 -0.0270073 0.054737 0.1186 0.12688 0.104142 0.0940653 0.0831859 0.114095 0.118923 0.0437711 0.00708908 -0.0176903 -0.00266919 0.00862546 0.00945442 0.00796303 -0.00469297 0.00671206 0.027335 0.125801 0.166346 0.199413 0.117852 0.0501304 -0.0129172 -0.0261371 -0.0999839 -0.142752 -0.0369831 0.0373199 0.073582 0.0774548 0.0230617 0.0339109 0.0429404 0.0757754 0.111997 0.036112 0.0106925 -0.000625316 -0.0129685 -0.00345069 0.0056449 0.00421171 0.00687577 0.000653213 0.0860309 0.119584 0.174779 0.208777 0.173849 0.0944304 0.0132252 -0.0809028 -0.157721 -0.145748 0.000259267 0.0780021 0.0929618 0.0191977 -0.0126698 0.00238808 -0.0205931 0.0935308 0.0879758 0.0223265 0.0157985 0.00127918 -0.0141401 -0.0117535 0.00635423 -0.0225125 -0.00817299 -0.009715 0.0556521 0.0600232 0.163356 0.166629 0.0939033 -0.0276389 -0.103773 -0.152607 -0.152358 -0.0802161 0.0473945 0.132136 0.0287209 -0.0144893 0.0198377 -0.00400005 -0.0215608 0.0305522 0.0280398 0.00393599 -0.00253181 -0.00876942 0.00706668 -0.00781691 -0.00339435 0.00544736 -0.0133762 -0.000966549 -0.0129414 0.0408643 0.0966394 0.0821558 0.0574065 -0.0538638 -0.159815 -0.18569 -0.121407 -0.0496686 0.0423452 0.0798956 -0.0507675 -0.0525499 -0.0343563 -0.0210475 -0.0257519 -0.0242744 0.00220009 -0.00378645 -0.00166894 -0.0173791 -0.00972781 0.00599239 -0.0112514 0.0186315 -0.00727908 -0.0120347 0.00618825 -0.00239421 0.0399075 0.0213331 0.000899858 -0.0905202 -0.12793 -0.059297 -0.0463292 -0.0665037 0.00512022 -0.0468592 0.00319598 -0.0235268 -0.0328557 -0.0436892 -0.0648975 -0.0489319 -0.0115838 -0.0160549 -0.00501535 0.00478738 0.00522976 -0.00678433 0.00338646 0.00753927 -0.0195154 -0.00339712 0.0120096 0.00779714 -0.0273827 -0.0716397 -0.112953 -0.143457 -0.127721 -0.0430623 -0.0109462 -0.0388222 -0.091719 -0.0438317 0.0030104 -0.0555267 -0.0331491 -0.0598652 -0.0626096 -0.0370623 -0.0205148 -0.020121 -0.00338338 -0.00814497 -0.00991902 -0.00897117 0.0138129 -2.62765e-05 -0.0335417 -0.014239 -0.00536022 -0.00951067 -0.0649813 -0.0929504 -0.152141 -0.163946 -0.112306 -0.0325666 -0.0823577 -0.0935434 -0.109642 -0.0452429 0.0111724 -0.0358351 -0.0348906 -0.0310526 -0.0370801 -0.024445 -0.0109344 -0.00046229 0.00619047 -0.00258946 0.0181419 0.0119197 0.0075996 0.000149018 -0.0166369 -0.0228386 -0.0568929 -0.0619041 -0.0939202 -0.108734 -0.124678 -0.140472 -0.130598 -0.0830216 -0.0433994 -0.0828069 -0.0724428 0.000681066 0.00726434 -0.0530096 -0.0587431 -0.00416892 -0.0442461 -0.0212915 -0.0140962 0.0181772 -0.0013563 0.00726232 0.00173587 -0.000328823 0.0105874 -0.0183084 -0.00708062 -0.0342873 -0.0613789 -0.0717844 -0.106902 -0.136259 -0.0927854 -0.111692 -0.0969031 -0.0618967 -0.0482073 -0.0429497 -0.0317214 -0.0116073 -0.064422 -0.0594499 -0.0445443 -0.026354 -0.00444659 0.0364083 0.00835028 -0.0128502 0.00672478 -0.004331 0.00375624 0.00623098 0.024828 -0.012273 -0.019446 -0.0427752 -0.0698513 -0.0693152 -0.0790539 -0.0718266 -0.0899909 -0.0709112 -0.0594278 -0.0682149 -0.10512 -0.0768877 -0.0723639 -0.0707006 -0.064568 -0.0211624 0.0331692 -0.000985269 -0.000856567 0.0180605 0.00424679 0.00724417 0.00682148 0.00960759 0.000450586 -0.0129008 0.00217997 0.00251966 -0.00553524 -0.0128583 -0.0217684 -0.041854 -0.00687583 0.0117012 0.0290757 -0.00284379 -0.0507865 -0.0188837 -0.0429536 -0.0802234 -0.0800388 -0.0149366 -0.0202482 0.0725264 0.0625831 0.0234618 0.0110903 -0.00786826 0.0159891 -0.000210648 0.00270103 -0.00337428 0.00348397 -0.0161511 -0.00376511 -0.0134389 0.012852 -0.00360207 0.0227136 0.0405839 0.0494901 0.0990239 0.0872517 0.0645684 0.0313944 0.0542755 -0.0107464 -0.040433 -0.0173434 0.011186 0.0298925 0.0515457 0.0245954 0.00456109 0.00698967 0.00872761 -0.00531743 0.0244217 -0.00644009 0.00957421 0.0132431 0.00254531 0.0114037 0.00596703 0.00508352 -0.00275595 0.014748 -0.0039974 0.0147424 0.0136053 0.00929482 0.00603394 0.0196972 0.0380125 0.040179 0.0391049 0.0245853 0.000774163 0.0146811 0.0330978 0.0325528 0.010075 0.0128257 -0.0163121 0.0228804 0.0113987 0.0136357 -0.0210611 -0.0146372 -0.0181165 -0.00639934 0.00301593 0.00677204 0.00168102 -0.000280375 0.0156053 0.00159992 -0.00409099 -0.00779778 0.0153565 -0.013523 -0.00159967 -0.0159136 0.000164096 0.011672 0.00138918 0.00600111 0.0129066 -0.0112247 -0.0105575 0.00232518 -0.0175544 0.0103689 0.028334 0.00515207 0.0050981 -0.0154313 -0.0166714 -0.0129079 0.0028618 0.0184148 0.000772951 -0.00931354 0.0063842 -0.00940185 0.00523337 0.010671 0.00491209 0.00765042 -0.00392178 -0.00408405 -0.00835364 0.0207896 -0.00702012 -0.0154584 -0.00563149 -0.00891942 0.0149582 0.00450357 0.0126029 -0.00784505 0.00683716 0.0172547 0.00116297 -0.011467 0.00730294 -0.00620376 0.0129292 -0.0260734 -0.00595785 0.00415266 0.00038906 0.00282214 0.0171188 -0.000630563 -0.00520399 -0.00032973 -0.00585607 0.00722132 0.0158553 0.00558452 -0.00599469 -0.00269491 0.00648262 -0.00507441 0.0122869 -0.00678647 -0.00587666 -0.000354846 0.0161423 0.0024009 -0.00841576 0.00160787 0.00366169 -0.0171932 -0.000726201 0.0174809 0.00557279 -0.0139323 0.000516267 -0.000302476 -0.00321376 -0.00985599 0.0155429 0.0154064 -0.00167583 -0.0065774 -0.0138823 -0.00956747 0.010415 -0.0296394 -0.000314145 -0.0119909 -0.00583399 0.00436148 0.00906709 0.00605122 -0.00249752 -0.00954631 0.000787204 0.00279556 0.00692233 0.0146553 -0.0109259 0.0235165 0.00411069 -0.0212199 -0.00463029 0.00155607 0.0062648 0.0152326 6.4678e-05 0.00588817 -0.00234339 0.00277414 -0.0259465 -0.00612878 0.0251363 0.0119183 -0.00778987 0.010015 0.00996407 0.0198414 0.0163437 0.00194319 -0.0164834 0.0122755 -0.0072794 -0.0294441 -0.00709764 -0.00488945 -0.0036265 -0.00440899 -0.00223939 0.00460485 0.0121373 0.0277512 0.0250185 0.0250565 0.00787862 -0.0121129 -0.00904661 0.00780849 0.0205078 0.0549422 0.0401167 0.0257908 -0.0450043 -0.0519708 0.0013045 0.00956917 -0.00988743 -0.0130434 -0.0120027 0.00312535 -0.00104162 0.00356633 0.0182586 -0.00601511 -0.00478058 -0.00633577 0.0121529 0.00556875 0.0108884 0.0278697 0.0153969 -0.00621459 -0.0202232 -0.0360456 -0.06377 -0.0313931 -0.0221143 0.0193599 0.0453076 0.0116687 -0.0309127 -0.123685 -0.0951966 -0.0765184 -0.0226912 -0.0390228 0.00136912 -0.000679256 0.00275048 -0.000817951 0.00206205 -0.0168571 -0.0109948 0.0157218 -0.0190061 0.0441376 0.0443738 0.0222994 0.00979166 0.0151428 -0.012853 -0.0298178 -0.0451852 -0.0534439 0.0324048 0.0397507 0.0311468 -0.0391659 -0.0512356 -0.130501 -0.144992 -0.117361 -0.0646627 -0.0430021 -0.0500079 -0.0189456 0.00877148 -0.0359853 -0.00732108 -0.00394284 -0.0148686 -0.000176121 0.00909738 0.0182849 0.0358763 -0.0106604 0.0134566 -0.0364911 -0.00712268 0.0184665 0.0023278 0.0282373 0.137003 0.151641 0.0758223 -0.0180457 -0.0766784 -0.116067 -0.113862 -0.0652121 -0.029385 -0.0314064 -0.0351978 -0.0177411 0.000751424 -0.000715848 -0.00837188 -0.00403255 -0.00325946 -0.00348351 -0.00932538 0.00331852 0.00230962 -0.0134271 -0.0247566 0.00285039 -0.0462106 -0.0038364 -0.0188401 0.0968716 0.162795 0.087482 0.0552301 -0.00614971 -0.0365179 -0.082599 -0.102174 -0.0193298 0.00167847 0.00732108 -0.0289247 -0.00655454 -0.0164671 0.0039194 0.000972451 0.00274171 0.0082069 0.000317906 -0.00465631 -0.000381864 -0.0359691 -0.0285727 0.0144877 0.0295583 -0.0495326 -0.0571636 -0.0163832 0.0670424 0.0549493 -0.0367756 -0.0733413 0.00294912 -0.0129372 -0.0316107 -0.0716298 0.0143878 0.0291283 0.026034 0.0155915 -0.0111998 0.00358633 -0.0101842 -0.00874687 0.0159247 -0.0114354 0.000206476 0.0064432 0.00336386 0.00439521 -0.0294409 0.0299924 -0.00538796 -0.0519368 -0.0226229 -0.00549755 -0.0168445 -0.0389482 -0.0987667 -0.101748 -0.0807064 0.00109404 -0.0281313 -0.00403715 0.0404074 0.0589813 0.0424926 0.0128152 -0.00201362 -0.000854464 0.00619038 0.000177657 -0.0106131 -0.00181855 0.00288517 0.0162158 0.0105947 0.0119875 0.00697501 0.0408247 -0.0304924 -0.0800164 -0.0559726 -0.0650518 -0.0678515 -0.100026 -0.141745 -0.145614 -0.0968089 0.0564635 0.0505816 0.0357911 0.0684023 0.0906883 0.0312705 0.0221648 -0.00744739 -0.0021658 0.00969575 -0.0060404 -0.00475148 0.0045955 -0.0136066 0.00877274 0.0206619 0.0192895 0.0359023 -0.0291938 -0.0707038 -0.156405 -0.117336 -0.0757726 -0.103159 -0.132201 -0.136778 -0.190023 -0.0727257 0.0650236 0.0605288 0.0449306 0.0634057 0.0627594 0.0125288 -0.000397612 0.00609428 -0.00152484 -0.00593144 0.00443311 0.00636019 0.0119573 -0.0047808 0.0309821 0.0199039 0.0174926 0.0434467 -0.0449634 -0.12185 -0.207333 -0.15533 -0.0784337 -0.131184 -0.117628 -0.113641 -0.117609 -0.127917 -0.0490126 -0.00287096 0.0411925 0.0518453 0.0400491 -0.00948178 -0.0010544 -0.00405298 0.0155662 -0.0323055 -0.0163989 0.00377971 -0.0178947 0.00981162 -0.00233291 -0.00412055 -0.00612925 -0.0078913 0.0217365 -0.0486838 -0.152245 -0.0998662 -0.0595509 -0.0206589 -0.0368564 -0.064987 -0.117923 -0.0965986 -0.074236 -0.0358997 0.0445338 0.0379043 0.0235637 0.0224898 0.00170291 -0.0110799 -0.00253829 -0.0244806 -0.000441492 -0.00607029 -0.000396817 0.00228152 -0.00521348 0.00573189 -0.00691015 -0.0438903 0.0710377 0.100877 -0.0354565 -0.025345 0.0236738 0.0877121 0.0123982 -0.0638457 -0.16611 -0.0905325 -0.0811702 -0.0351143 0.01206 0.0400278 0.0142172 0.00761259 0.00246086 0.0110068 0.0117038 -0.0213004 0.00556325 -0.010197 -0.0010879 -0.00930252 -0.00590825 -0.00570436 -0.0233714 -0.0149259 0.0313841 0.104437 0.103415 0.0549019 0.0436099 -0.0076117 -0.0799341 -0.144403 -0.109491 -0.0929173 -0.0434228 -0.0244712 0.00392474 0.0498167 0.0290948 -0.00151498 0.0208096 0.0128984 0.000859333 0.0143139 0.0121329 0.00466673 0.00776271 -0.0112792 -0.0181106 -0.00459058 0.0124728 0.00526102 0.0270377 0.0753385 0.120584 0.0785428 0.0492598 -0.0684648 -0.127134 -0.161012 -0.0742568 -0.0647722 -0.0256996 -0.0405135 0.0419193 0.0418305 -0.00675091 -0.0161315 -0.00303527 0.0316489 -0.0041271 -0.0115053 0.00898828 0.00653588 0.0167561 0.0032115 -0.0433249 0.0019824 0.00665443 0.0639689 0.0942213 0.0863633 0.101528 0.0782602 0.0590766 -0.0405703 -0.0912531 -0.173521 -0.045228 0.0131118 -0.0328688 0.0237439 0.0875828 0.0615649 0.013168 -0.00463623 0.0148951 -0.00158536 0.018827 0.00701546 0.0120026 0.000357258 -0.000370693 -0.0197637 -0.0276424 -0.00843035 0.0245066 0.0401379 0.0496253 0.0404887 0.0743914 0.0412687 0.0243859 -0.0459715 -0.0985709 -0.0718034 -0.0540157 -0.0267899 0.0404473 0.069402 0.105244 0.0531898 0.0308336 0.0320848 0.0511478 0.0186412 0.00401261 -0.0139518 0.0134974 -0.00735733 -0.0117552 -0.0265328 -0.0301444 -0.00101702 0.0112826 0.0522091 0.0617015 0.023776 0.0525731 0.052247 -0.026969 -0.0636107 -0.104878 -0.0701966 -0.0248869 0.00750133 0.0571294 0.0921875 0.0722172 0.0580622 0.0482294 0.0314025 0.0259981 0.0154805 -0.000491318 0.0157018 -0.0103337 -0.0195992 -0.00936611 -0.0405907 -0.0531961 -0.0206666 -0.000700933 0.0407277 0.0261904 0.00211876 0.0301526 0.0289816 -0.0433127 -0.0907371 -0.093302 -0.0705503 -0.00880051 0.0115144 0.0465216 0.048368 0.0609187 0.0515126 0.0507849 0.0489024 0.0318059 0.0073609 -0.00121292 0.00531484 -0.00468524 -0.000954337 3.24729e-05 -0.0289804 -0.0357737 -0.0501594 -0.027795 0.0346811 0.0161893 -0.0428137 -0.0268941 -0.0450769 -0.0898929 -0.0964491 -0.0951367 -0.0468441 -0.0394853 -0.044417 -0.0355702 0.000596613 0.0142813 -0.015464 -0.00072005 0.0341587 0.00950961 -0.00644687 0.00139657 -0.00339178 0.00153827 0.00646843 -0.00946529 -0.0158129 -0.0185316 -0.00799921 -0.0207707 -0.00260741 0.0413371 -0.0316034 -0.0985132 -0.120394 -0.102888 -0.129293 -0.0631903 -0.0527414 -0.059375 -0.0603874 -0.00444686 -0.00710498 -0.0146017 -0.00170776 -0.0182819 -0.00131133 -0.000236081 -0.00344714 -0.00150177 -0.0180436 0.0148364 -0.00881661 0.00978492 -0.0181969 0.0105142 -0.00799854 -0.00728498 0.0089298 -0.00195391 -0.0415986 -0.0403825 -0.0980381 -0.102371 -0.0902396 -0.0888255 -0.0636799 -0.0633869 -0.0327139 0.0107588 0.0163353 0.00821777 0.00247192 0.0102565 -0.00301823 0.021457 -0.0118606 -0.0140453 0.011413 0.00633623 0.0167401 -0.00576012 0.00606084 0.0112116 0.0225874 0.0219225 0.00994377 0.0142933 -0.0192151 -0.0278212 -0.00647976 -0.00189977 -0.0258071 -0.0030241 -0.00811909 0.00450016 0.0536654 0.0671681 0.0821764 0.0395195 0.0217901 -0.00125995 -0.0059185 -0.0169657 -0.0109639 -0.0114579 -0.00633236 -0.011232 0.019645 -0.0082272 0.00185032 0.00209412 -0.00269658 -0.0141013 -0.00212967 0.0175561 -0.00151941 -0.0112696 0.000766549 0.000313252 -0.00121312 -1.15026e-05 -0.00256798 0.0172305 0.0306721 0.00930479 0.047233 0.036227 0.0167045 0.00514658 -0.00386668 0.0131962 0.0157023 -0.00206026 0.015447 0.00275359 -0.00409794 0.00144871 -0.0188426 0.00835493 -0.0149546 0.00576665 0.00865402 0.010139 -0.0136326 -0.019812 0.00125249 0.00216055 0.00300373 -0.0103134 0.0116678 -0.008986 0.00445332 0.00172068 -0.00311914 -0.00412389 0.00396512 -0.0101224 0.00496661 -0.011143 0.00401179 -0.0128927 -0.00446361 0.0044478 -0.0162812 -0.0112346 0.00400089 0.00751785 0.00858113 0.00172825 -0.0037368 -0.0106608 0.0091731 0.0180158 0.0133636 -0.00917016 0.00744323 0.00539788 0.0117874 0.00571228 -0.006077 -0.013186 -0.00543267 0.00836483 0.000620529 0.0105888 -0.0110121 -0.0153301 -0.00959545 0.000366683 -0.00518031 -0.00379205 -0.00409191 -0.000594692 -0.00118615 -0.0089444 0.0161486 0.0159256 0.00620177 -0.00536027 -0.00173311 -0.00882429 0.00723659 0.0185285 0.00397682 -0.00159855 -0.00851621 0.0078746 0.00684766 0.00594267 0.00426555 0.0121718 -0.0111255 -0.0102793 4.7181e-05 -0.00821783 0.000773989 -0.00668157 -0.0187337 0.0240821 -0.0182117 0.00867533 0.00865138 0.000858192 -0.00335298 0.00763318 0.00506459 -0.0071636 -0.000647306 0.0193572 0.00064045 -0.00809742 -0.00772864 -0.0119828 0.00325294 -6.21271e-05 -0.00278461 -0.00343842 -0.0142902 -0.00142754 -0.00088575 -0.00386445 0.00551505 0.00164231 0.00310614 -0.0137738 -0.0130258 -0.0119198 -0.011862 0.000400822 -0.00906662 0.0121691 0.00279831 -0.0170125 0.0187354 0.0099247 0.00279428 -0.00988141 0.00482636 -0.0161432 -0.00572486 -0.021821 -0.0129939 0.0138271 0.00188329 0.0117982 -0.00155351 0.00983441 0.00857766 0.00258593 -0.00108789 0.00644289 -0.00444922 -0.00149386 0.0126406 -0.00225945 0.0179609 -0.00169647 -0.00132979 0.00114088 -0.00427875 0.000390485 -0.0196443 -0.0036807 0.00259135 -0.000814921 -0.0244689 -0.0118498 -0.0104894 -0.00700269 -0.00691144 -0.0209075 -0.0088334 -0.0215484 0.0171398 -0.00281159 -0.00273002 0.00394831 -0.00382087 -0.0169675 0.00430668 0.00425663 0.00379913 0.00636012 -0.00754348 0.00730173 0.00232122 -0.0031005 0.000103612 0.00877037 -0.0174159 -0.0160744 -0.0209495 -0.0145825 -0.00321685 0.00878408 -0.016692 -0.0501403 -0.0370968 -0.0298798 -0.0397838 -0.0374753 -0.0195774 -0.00541135 -0.00404537 -0.00571752 0.00952872 -0.00872334 -0.000975345 0.0111156 0.00979378 0.00467937 0.0119613 -0.00912506 -0.00234661 -0.00532867 0.00209509 0.0139767 0.0108476 -0.0225119 -0.0380062 -0.0497879 -0.028101 -0.014846 -0.0344458 -0.0828501 -0.096312 -0.111403 -0.0904756 -0.041338 -0.0356213 -0.0210034 -0.0213823 -0.00557637 -0.0197534 0.0181254 0.0101946 0.0106215 0.00206656 0.00315227 -0.00450119 0.000908325 -0.000581869 -0.018674 0.00717181 0.0147258 0.0165806 -0.0169353 -0.0283862 -0.0380859 -0.0387878 -0.062679 -0.0657925 -0.0890085 -0.131155 -0.124422 -0.0802932 -0.0441206 0.000200677 0.0245249 0.028516 -0.0027227 -0.00623688 0.000845963 -0.0014429 -0.00337934 -0.00504788 0.00143065 0.0041213 0.0089494 0.00943028 -0.0166046 -0.0263493 0.0145168 -0.00813383 -0.0167007 -0.0283425 -0.0548847 -0.0394765 -0.031214 -0.0579076 -0.0629369 -0.0733011 -0.0601818 -0.0363694 0.00383477 0.0243178 0.0106804 0.0575637 0.0206057 -0.0205951 -0.00180862 -0.0018695 0.00569832 0.016467 -0.01244 0.010757 0.0139152 -0.00430391 -0.00800406 0.0182177 -0.0139522 -0.00321612 -0.0173066 -0.0234694 -0.00961081 -0.0163069 0.00237393 -0.0267962 0.00421144 -0.0238938 -0.0151779 0.0129547 0.0474156 0.0359531 0.018069 0.0296943 -0.00904037 -0.0258948 0.00647597 0.0204493 0.00788997 -0.0113147 0.00503437 -0.00877408 -0.00806799 0.0100183 0.00691566 0.0121961 -0.0033472 -0.0185338 -0.0291234 0.00852167 0.0145426 0.0199655 -0.00439521 0.022446 0.016585 0.0275225 -0.000730066 0.00998883 0.0539911 0.0396644 0.0174446 0.000701196 -0.024539 -0.0206052 -0.00515738 0.0113076 0.0218776 0.00113829 -0.00218195 0.00313056 0.00266659 -0.0143192 -0.00560096 -0.00428646 -0.035951 -0.0320574 -0.022241 0.0104128 0.00590849 0.0387545 0.0213773 0.0166332 -0.00710535 -0.0244216 -0.0280317 -0.0242216 0.0205982 0.0142124 -0.0193121 -0.00019873 -0.0364049 -0.0544984 -0.0246573 -0.00133442 0.00346813 -0.00777556 0.00920222 0.0102307 0.0108992 0.00304182 -0.0136079 -0.0297588 -0.0280775 -0.0475048 -0.0357401 -0.0327666 0.00199778 0.0341979 0.0121037 -0.00735767 -0.0523915 -0.0640175 -0.0479475 -0.0445847 -0.0158922 -0.00293453 -0.00834286 -0.0346141 -0.0199961 -0.0269857 -0.0191038 -0.00529663 -0.0100864 0.0013155 0.00157567 0.00397624 0.00588994 -0.0083794 -0.0208789 -0.0199993 -0.0121393 -0.0108454 -0.0426202 -0.0185436 -0.0196606 0.00559563 -0.0231751 -0.0457538 -0.0664383 -0.0785015 -0.024649 -0.00269604 -0.0106006 -0.0218477 -0.0047048 -0.0398729 -0.036063 -0.0310498 0.0179468 0.00295199 -0.0163272 -0.00981999 0.00919338 0.00447126 0.00482721 0.0162693 0.00278664 -0.0267171 -0.0121328 0.00297137 0.0040069 -0.00800969 -0.00353936 -0.0151204 -0.0213237 -0.0578774 -0.0313889 -0.0333182 -0.0130633 -0.00688454 0.0183768 -0.0160186 -0.0352522 -0.0176077 -0.0102262 -0.000674807 0.0240183 -0.00691796 0.00439871 0.00706985 -0.00261157 -0.00459545 -0.0193945 0.0180189 0.0092764 -0.029857 -0.00658791 0.000961322 -0.00724162 -0.0233336 -0.0166028 1.31009e-05 -0.00769602 -0.00329993 -0.00810583 -0.0153308 -0.00167934 0.0198298 0.0204886 0.00526786 -0.0103023 -0.0207912 0.00637358 0.0199152 0.0080905 0.0105355 0.00591349 0.0209654 0.0105477 0.00819223 -0.0117177 0.00763671 -0.00340432 -0.0210691 -0.020115 -0.00868277 -0.0258062 -0.018558 -0.0593148 -0.0476764 -0.0168041 0.00606961 0.0282745 -0.0159251 0.00728122 0.00628231 -0.0196548 0.00576443 -0.0369228 -0.0207707 -0.0299784 0.00289028 0.00051471 0.00454604 0.00288397 -0.0133858 -0.015236 0.0103428 0.00817071 -0.0028653 0.0128022 -0.012912 -0.0209691 -0.00915877 -0.0475302 -0.0627328 -0.0633132 -0.0713784 -0.0539579 0.00012085 -0.00698366 -0.00777341 0.0464655 -0.0153882 -0.0565997 -0.0243107 -0.0457124 -0.00548195 0.00221614 -0.0194926 -0.00696318 0.00291494 0.00345752 0.00908674 0.00287619 0.0112662 -0.0151028 0.00816715 -0.00317525 -0.0324419 -0.0163524 -0.0174242 -0.0317387 -0.0488424 -0.0889404 -0.0743207 -0.0504006 0.00511172 0.0141026 0.0321888 0.00772585 -0.0455421 -0.0558762 -0.0600805 -0.0417885 -0.00761622 -0.0169766 0.0213577 -0.00108012 -0.00485628 -1.21629e-05 0.0145195 0.00670641 -0.0025959 -0.00286887 -0.0102128 -0.0301208 -0.0292268 -0.0190281 -0.0431839 -0.00628014 -0.0402667 -0.0216494 -0.0184334 0.0096858 0.00334257 -0.00694498 0.0100946 -0.00899833 -0.0796796 -0.0419251 -0.045675 -0.0270361 -0.0118035 0.0144495 0.0137786 -0.0107623 0.0140876 0.00901416 0.00321003 0.0125304 -0.00577203 -0.00497896 -0.00290328 -0.0271069 -0.0368448 0.000345217 0.00386178 0.010522 -0.00879959 -0.000393514 0.0206907 0.019647 -0.0147605 -0.0377974 0.00699797 -0.0102724 -0.03758 -0.0168056 -0.0280245 -0.0130885 -0.0161335 -0.0104242 -0.00577995 -0.00317477 0.00945707 -0.00593187 0.00857253 -0.0140379 0.0161683 -0.0129321 -0.0135591 0.00324092 -0.0368438 -0.0465678 -0.0423576 -0.0241245 0.00675693 0.0119887 0.00385488 -0.0250303 -0.0460437 -0.0575836 0.0126591 0.01977 -0.0229852 -0.0328389 -0.0577212 -0.0225188 0.00888487 -0.00373194 -0.006936 0.0130211 -0.017859 -0.00213949 -0.0146068 -0.0103909 -0.015751 -0.0400964 -0.0180089 -0.00937855 -0.0294015 -0.0432408 -0.0386853 -0.0381551 -0.0146564 -0.00414865 -0.00552477 -0.0474633 -0.0620022 -0.0237936 0.0432883 0.0431714 -0.0296407 -0.0389171 -0.0540098 -0.00476154 -0.0275526 0.00607583 -0.00209206 -0.0064112 0.000932462 0.0162285 -0.00246262 -0.00531633 -0.00369709 0.00827983 -0.0151536 -5.0443e-05 -0.0163375 -0.0305026 -0.0129621 -0.0175885 -0.0144424 -0.0566905 -0.0492025 -0.0500678 -0.0318584 -0.00387395 0.0124452 0.0314013 -0.0248134 -0.0121049 -0.0219974 -0.0275917 -0.0226681 -0.0118401 -0.0126914 -0.00708349 -0.0108658 0.0213243 -0.0025489 -0.00572602 -1.80911e-05 0.0159429 -0.0112926 0.00215607 -0.0123316 0.0179833 -0.0116947 0.0142034 0.0204494 -0.00512912 -0.0166945 -0.0455702 -0.0260905 0.0115769 -0.0109894 -7.38235e-05 -0.0199818 0.0185398 -0.0157739 -0.023708 -0.00500153 -0.003152 -0.0142584 0.00468898 -0.015349 0.00440233 -0.0124329 0.0167893 -0.000663168 0.0023828 -0.00186032 0.00753853 0.0245723 0.0141441 0.0193879 0.0267207 0.0376193 0.0139506 -0.00284938 -0.0328022 -0.00577862 0.0201783 0.0166547 -0.0258761 -0.0350803 -0.0133214 -0.0318285 -0.00457319 0.000511791 -0.00717526 -0.00242712 -0.00687122 -0.0125663 -0.01152 -0.0118997 0.01411 -0.00784806 -0.00489692 0.0107025 -0.0203995 0.00550023 -0.00024127 0.0211305 0.0248504 0.0194689 0.00840323 -0.011645 -0.00878332 0.0156794 0.0105968 -0.00284661 -0.026127 0.00431259 -0.00869876 -0.0110131 -0.00403213 0.0162296 0.0189924 0.00546449 -0.0102622 -0.0108654 0.00274984 -0.0203979 0.00423465 0.0111164 0.0116197 0.0145794 0.0027945 -0.00834502 0.000934256 0.00337589 0.00641095 0.00287746 -0.00675339 0.0203623 -0.015645 0.0035742 -0.0225092 -0.0170032 -0.00910251 0.0324613 0.00169726 -0.0101239 -0.00370649 -0.0089534 0.014155 -0.0020602 0.013469 0.0032217 -0.00751198 -0.00166062 -0.00389007 0.0191205 0.00882982 0.0105267 0.00560199 -0.00286697 -0.00928459 0.00762485 0.0206933 0.00149304 -0.0012223 0.0132418 -0.0039361 0.00894615 0.00127359 -0.00103743 -0.00469541 -0.00521665 -0.00392581 0.0107113 -0.00449671 0.0037132 -0.00903309 0.00397975 -0.00252723 0.0126168 -0.0178499 -0.00491041 0.00152411 0.00653198 -0.0102854 -0.0103735 7.5115e-05 -0.00387027 -0.00788458 0.00131526 0.00643929 -0.00367476 0.00351466 0.00215944 -0.012605 -0.00213671 0.00873415 -0.0109794 0.0134135 0.00762433 -0.00358129 0.00196553 0.0156759 0.00703798 0.0115908 -0.00290724 -0.0132556 -0.00683335 -0.0113284 0.00582623 -0.017495 0.00822763 -0.012324 -0.0114538 -0.00372355 -0.00541256 -0.00566132 0.0136182 -0.00683265 -0.00722533 -0.00798048 0.00277435 0.00641199 -0.00634328 -0.0133285 0.00536872 -0.00595707 -0.0150139 -0.0277257 -0.0058582 0.00272184 0.00158373 0.00691079 0.00408658 0.00593727 -0.000995749 -0.0026102 -0.00088982 -0.00957876 -0.0104855 0.0025843 -0.000955923 -0.00232601 0.00372837 -0.00238134 -0.00723222 0.00884773 0.00484094 -0.0202111 -0.0137629 -0.00309521 0.00132236 -0.00112291 -0.0132288 -0.0123493 -0.00724057 -0.039478 -0.0210148 -0.0170157 -0.0169832 -0.00288142 0.00155186 -0.0199708 -0.00085211 0.0101859 0.0075082 0.016019 -0.0110952 0.00318277 0.00417796 0.0158224 0.00425233 0.013619 0.00111554 0.0231081 -0.018751 -0.00608122 -0.0118049 0.0141743 0.0182462 0.00175367 0.0275699 0.00718557 -0.00512681 -0.0282416 -0.0345479 -0.0221881 0.00261767 -0.000973762 0.0013864 0.00620109 0.000692354 -0.00303353 0.00465575 -0.00796349 0.00796599 0.00347594 -0.00713284 0.00790884 0.00202797 -0.00814543 -0.0144522 0.00105752 -0.00114672 -0.0194435 0.00402858 0.00471104 0.0130386 0.0233786 0.033496 0.0146068 0.0296619 0.00969969 0.0154964 0.0196086 0.0105114 0.00370246 0.0170019 0.00791279 -0.00281482 0.00698856 -0.00189018 -0.00435049 -0.0105904 0.0171275 0.0146118 -0.00965876 0.00357794 0.0157683 -0.00416293 -0.00881144 -0.0155565 0.00470672 0.0182625 -0.0106596 -0.00688557 0.0505749 0.0323177 0.0278159 0.0360978 0.0613204 0.00927202 0.0191185 0.00889868 0.00705213 -0.0109754 -0.0362028 -0.0145105 0.0140498 0.0181577 0.00329344 0.00740945 -0.00668726 -0.02932 0.00448268 0.00499407 0.000473919 0.00289528 0.0196442 0.00347414 0.0025551 0.0211866 0.0275882 0.0270181 0.0466959 0.0772679 0.0535807 0.041989 0.0541334 0.0320306 0.0275483 0.00990851 -0.0236428 -0.00312919 0.0118257 -0.0217744 -0.0089595 0.00590879 -0.0101545 -0.00449064 0.0082621 0.000318442 -0.00518419 -0.0155457 -0.00550107 0.0133647 -0.0148123 0.0139728 0.020896 0.0231618 0.0241508 0.0392459 0.0710151 0.0630111 0.0469399 0.0301532 0.0339213 0.0440207 0.0118401 0.0476029 0.0325298 0.0108289 -0.0235144 0.00432817 -0.00547219 -0.0147292 -0.020534 -0.00142101 0.0189264 0.0182994 0.00240141 0.01499 0.010999 0.0020298 0.0219803 0.0156381 0.0341806 0.034399 0.0363331 0.061267 0.0602467 0.0374022 0.0452297 0.0248014 0.0483436 0.0350911 0.0588265 0.0730052 0.0664863 0.0288111 -0.00351003 -0.012081 0.00570067 0.00495202 0.00989351 -0.00640602 -0.0193247 0.00658769 -0.00928433 0.0220758 -0.00638427 0.0219899 0.0152992 0.0160084 0.0305082 0.0104598 0.0361493 0.0443241 0.0134012 0.0310983 0.025183 0.0330694 0.0567757 0.0961974 0.078751 0.0482639 0.0532383 0.0274888 0.00999265 -0.00546096 0.0130728 -0.00959796 -0.000714533 0.00285179 0.00602478 0.00546763 -0.00958749 0.00959973 0.0101472 0.0143382 0.00640761 0.016606 0.0122715 -0.00468035 0.0235051 0.0384433 0.030068 0.0267302 0.0188032 0.0533506 0.0613621 0.0917652 0.0818854 0.0553395 0.0303746 0.0112932 0.0127938 0.0131312 -0.0126265 -0.000378141 -0.00339643 0.013892 0.00515814 0.000399193 -0.0141364 -0.0106151 -0.0237739 -0.00684645 -0.00849033 -0.00589996 -0.00857632 -0.0237575 0.0169794 0.0243005 0.0149063 0.0123273 0.028247 0.00793555 0.0339553 0.0588463 0.046865 0.0263485 0.0264122 0.0107939 -0.010397 0.0108753 0.000555901 0.00205216 -0.000934614 0.0157896 -0.0231553 -0.00964694 0.00289512 0.00515584 0.00821168 0.0137599 -0.00545609 0.00274747 -0.0475935 -0.0446827 -0.0114518 -0.00303075 0.0108713 -0.0060016 0.02939 0.0140829 0.0126354 0.00966315 0.00993798 0.0132382 0.0195245 0.00902051 -0.00614921 0.018141 0.00914319 -0.000980905 0.000853812 0.00872674 0.00913404 0.00432095 -0.0161541 -0.00967467 -0.0120918 0.0180285 -0.00236553 -0.0153978 -0.0343401 -0.0573345 -0.0318514 0.0115801 0.000568782 0.00443519 0.0078916 -0.014242 -0.00319873 -0.00826289 -0.0148845 0.0126313 0.0036892 0.00490342 0.00142999 -0.00717025 -0.0253759 -0.00826203 0.0122638 0.0138704 -0.00163297 0.00336643 -0.0108757 -0.011816 0.0247205 0.0146298 0.0132011 -0.000993271 -0.0343131 -0.0227001 -0.0124401 0.016689 0.0151912 0.0180576 -0.00582712 -0.0117623 0.00554504 0.00205433 0.0191369 -0.0100007 -0.0209812 0.0142394 0.0132188 -0.00079909 -0.0106415 0.00896683 0.0190929 -0.00923842 0.00344219 -0.00734047 -0.00995157 0.0365109 0.0379402 0.0210201 0.0317922 0.00730998 -0.00242417 -0.00202019 0.0253284 0.0402807 0.0227875 0.033976 0.004708 0.0155416 -0.0121952 0.00276736 -0.0223244 -0.0390903 -0.00402012 0.0144402 0.00845212 0.000207427 0.00593709 0.0025866 0.00520227 -0.00457114 -0.00445212 0.00543773 -0.00229949 0.0210281 0.0481511 0.0180816 0.00271493 -0.00634165 -0.0117708 -0.011527 0.0405027 0.0469381 0.0220191 0.0126142 0.0193777 -0.00388733 -0.00960811 -0.0100015 -0.0117818 -0.0122539 0.0119263 0.0365925 0.00700975 0.00662841 -0.0178449 0.0107374 0.0114028 -0.0100071 -0.00323785 0.00638675 0.00859277 0.00985492 0.0455918 0.0359121 0.00120671 0.022172 0.0144026 0.0364418 0.0363033 0.0493243 0.0305147 0.0217391 -0.0198445 -0.0154457 -0.00516152 0.00923832 -0.00688421 -0.0127609 0.0169159 0.0149991 -0.0101781 0.0164501 -0.00102969 0.00400769 -0.010961 -0.0116 0.0103552 0.00011991 0.0197 0.00962192 0.0362548 0.0291336 0.0546148 0.0365527 0.0280538 0.0422434 0.0408283 0.00921185 -0.00296906 -0.0240783 -0.00589924 0.0110126 -0.0055645 0.0125604 -0.00608128 0.00147277 0.00927528 0.000171827 0.0422104 -0.00703645 0.00609578 -0.00112 -0.00408634 0.00908038 0.000882913 0.0123346 0.0123044 0.00469511 0.0164259 0.0290498 0.0263785 0.041168 0.0344094 0.0339404 0.0105372 -0.0124748 0.00361076 -0.0319113 -0.0430267 -0.0285128 -0.0135164 0.00799243 0.0318326 0.0122914 0.00144346 0.00897502 0.00959338 0.00725201 -0.0110227 -0.00410519 -0.00288915 -0.00879005 0.00474418 0.0111162 0.0119537 0.030816 0.0172437 0.0105488 0.0153017 0.0141268 0.0182041 -0.0119778 0.00236696 0.0108004 0.0123492 0.00726532 -0.00607757 -0.000911527 0.0201364 0.0185106 0.0244566 0.0178071 0.00842588 -0.00414425 -0.013818 0.00248618 0.00666644 0.0144429 -0.00518339 -0.00235401 0.0129807 0.00338467 -0.00341727 0.00086433 0.0295516 0.00466828 0.0239755 0.0242304 0.0208979 0.0299653 0.0411135 0.0593606 0.0529928 0.0304777 0.0211058 0.0131162 0.0314514 -0.0131983 0.00653362 0.00114446 -0.00883851 0.00795294 0.0216259 -0.00167012 